/*!
 * The following copyright notice may not be removed under any circumstances.
 * 
 * Copyright:
 * This font drawn by, and copyright, Ben Weiner, 1999-2001. Modifications for
 * version 2.0 copyright Ben Weiner, 2006-7. Licensed under the Open Font License
 * (http://scripts.sil.org/OFL). See accompanying license and FONTLOG.
 */
Cufon.registerFont({"w":500,"face":{"font-family":"Puritan 2.0","font-weight":700,"font-stretch":"normal","units-per-em":"1000","panose-1":"0 0 7 0 0 0 0 0 0 0","ascent":"800","descent":"-200","x-height":"11","bbox":"-150 -875 973 242","underline-thickness":"20","underline-position":"-133","unicode-range":"U+0020-U+2122"},"glyphs":{" ":{"w":273},"!":{"d":"56,-172r0,-514r125,0r0,514r-125,0xm113,33v-42,0,-76,-35,-76,-77v0,-41,34,-78,76,-78v42,0,79,36,79,78v0,43,-36,77,-79,77","w":235},"\"":{"d":"190,-645r22,220r34,0r39,-220r-95,0xm49,-645r22,220r33,0r39,-220r-94,0","w":329},"#":{"d":"373,-529r0,34r71,-7r0,83r-72,8r0,87r-88,10r1,-88r-36,4r-1,87r-88,10r1,-88r-92,10r0,-83r92,-10r0,-35r-91,10r0,-83r92,-10r0,-68r88,-9r-1,67r37,-3r0,-68r88,-11r-1,69r72,-7r0,83xm249,-482r36,-3r0,-35r-36,4r0,34","w":536},"$":{"d":"274,-514v-41,0,-64,33,-63,78v0,25,21,44,64,59v61,21,101,38,118,51v43,33,64,83,64,151v0,95,-43,156,-129,182r0,93r-117,0r0,-90v-59,-11,-106,-41,-139,-90r65,-79v41,50,83,75,127,75v46,1,81,-41,80,-90v0,-29,-22,-51,-66,-69v-68,-27,-107,-46,-120,-55v-71,-46,-86,-172,-30,-244v21,-27,49,-47,83,-59r0,-89r117,0r0,86v34,9,72,32,115,67r-62,77v-41,-36,-76,-54,-107,-54","w":536},"%":{"d":"140,-385v-73,0,-118,-55,-118,-133v0,-72,49,-132,118,-132v69,0,118,60,118,132v0,78,-45,133,-118,133xm3,46r367,-680r99,38r-361,678xm391,6v-78,0,-121,-57,-121,-137v0,-72,51,-134,121,-134v69,0,119,63,119,134v0,82,-44,136,-119,137xm115,-515v0,27,8,41,25,41v16,0,24,-14,24,-41v0,-29,-8,-44,-25,-44v-16,0,-24,15,-24,44xm366,-127v0,28,8,42,25,42v16,0,24,-14,24,-42v0,-30,-8,-45,-25,-45v-16,0,-24,15,-24,45","w":536},"&":{"d":"130,-186v-1,57,40,111,96,111v27,0,55,-15,84,-45v-71,-68,-119,-125,-142,-172v-25,19,-38,55,-38,106xm92,-475v0,-116,122,-200,237,-152v23,10,46,30,70,59r-56,62v-25,-31,-59,-46,-101,-46v-27,0,-41,21,-41,63v0,19,6,44,19,75v27,-11,64,-17,109,-18r16,80v-34,0,-60,3,-79,8v37,53,71,97,101,131v8,-34,2,-63,-5,-101r88,-16r4,27v11,61,4,100,-13,158v14,13,45,32,93,58r-64,87v-22,-8,-53,-28,-92,-60v-23,36,-91,69,-148,69v-118,0,-205,-73,-205,-186v0,-79,33,-141,100,-186v-22,-37,-33,-74,-33,-112","w":555},"'":{"d":"50,-646r29,233r29,0r36,-233r-94,0","w":194},"(":{"d":"162,143v-155,-300,-155,-639,0,-932r81,45v-89,249,-121,397,-64,638v8,32,31,101,66,206","w":318},")":{"d":"73,100v37,-109,59,-177,66,-204v57,-238,24,-397,-63,-641r81,-43v150,283,148,642,0,931","w":316},"*":{"d":"169,-500r2,54r-75,0r2,-54r-42,38r-42,-70r60,-37r-59,-38r40,-70r44,39r-2,-56r75,2r-3,52r41,-38r40,71r-57,37r59,38r-42,70","w":275},"+":{"d":"295,-96r-92,0r0,-170r-151,0r0,-94r151,0r0,-161r92,0r0,161r151,0r0,94r-151,0r0,170","w":498},",":{"d":"41,94v25,-64,27,-76,31,-179r105,0v0,52,-44,158,-70,192","w":254},"-":{"d":"50,-360r280,0r0,93r-280,0r0,-93","w":380},"\u2010":{"d":"50,-360r280,0r0,93r-280,0r0,-93","w":380},".":{"d":"123,9v-46,0,-87,-40,-87,-86v0,-46,41,-87,87,-87v46,0,87,41,87,87v0,47,-40,86,-87,86","w":244},"\/":{"d":"-14,149r310,-856r120,24r-309,856","w":385},"0":{"d":"249,12v-153,0,-241,-153,-241,-327v0,-182,77,-341,241,-341v164,0,243,161,243,341v0,160,-98,327,-243,327xm249,-85v95,0,129,-117,129,-230v0,-163,-43,-244,-129,-244v-53,0,-89,30,-108,89v-20,64,-22,232,6,299v23,56,55,86,102,86"},"1":{"d":"463,-100r0,100r-362,0r0,-100r133,0r0,-434r-124,0r0,-103r232,0r0,537r121,0"},"2":{"d":"249,-658v119,0,216,85,214,202v0,44,-15,88,-43,134v-43,71,-139,150,-206,211r266,0r0,111r-396,0r0,-99r180,-196v53,-58,80,-111,80,-160v1,-59,-34,-111,-93,-110v-39,0,-75,29,-108,88r-75,-50v48,-87,108,-131,181,-131"},"3":{"d":"344,-351v62,29,120,96,121,177v0,43,-19,84,-52,125v-88,108,-284,77,-359,-20r51,-76v50,51,96,77,139,77v69,1,111,-47,111,-115v0,-64,-48,-111,-113,-109r-62,0r0,-86r62,0v55,1,101,-48,101,-104v0,-46,-45,-93,-92,-90v-55,3,-64,25,-100,66r-62,-57v49,-65,103,-97,161,-97v96,0,195,76,191,171v-3,74,-38,107,-97,138"},"4":{"d":"137,-230r148,0r0,-234xm394,0r-109,0r0,-141r-269,0r0,-76r284,-434r94,0r0,421r87,0r0,89r-87,0r0,141"},"5":{"d":"468,-203v0,131,-114,227,-251,227v-92,0,-156,-29,-192,-88r48,-74v41,51,92,77,151,77v68,0,132,-79,132,-146v0,-77,-38,-116,-114,-116v-36,0,-91,41,-107,69r-82,-20r0,-370r370,0r0,111r-290,0r0,186v23,-36,81,-75,134,-75v118,0,201,98,201,219"},"6":{"d":"268,-326v-76,-1,-131,56,-131,133v0,76,50,135,124,135v62,0,118,-78,118,-141v0,-76,-39,-127,-111,-127xm261,22v-163,-3,-245,-120,-245,-292v0,-112,19,-201,58,-267v74,-128,231,-153,378,-74r-40,83v-32,-24,-73,-36,-123,-36v-108,2,-155,110,-161,229v19,-46,93,-86,157,-87v121,-2,201,86,201,209v0,129,-97,237,-225,235"},"7":{"d":"191,32r-110,-30r271,-537r-316,0r0,-109r422,0r0,101"},"8":{"d":"248,-58v63,1,111,-55,111,-121v0,-59,-36,-103,-108,-132v-75,38,-112,82,-112,132v0,68,45,120,109,121xm341,-495v0,-46,-38,-89,-83,-88v-48,0,-82,39,-85,86v8,45,34,77,78,96v60,-23,90,-55,90,-94xm252,28v-128,0,-218,-79,-216,-205v0,-71,45,-129,136,-175v-70,-46,-105,-93,-105,-142v0,-104,84,-164,191,-164v97,0,175,59,175,155v0,53,-32,101,-97,145v91,49,136,108,136,179v0,130,-86,207,-220,207"},"9":{"d":"251,-656v149,3,236,130,236,293v0,99,-15,182,-46,248v-44,94,-114,141,-211,141v-79,0,-148,-27,-205,-82r60,-77v50,43,75,67,153,67v47,0,83,-27,107,-81v19,-42,28,-94,28,-155v-47,56,-95,84,-144,84v-113,2,-205,-97,-205,-211v0,-127,97,-230,227,-227xm251,-572v-73,0,-119,64,-119,140v0,65,52,136,113,136v73,0,123,-56,123,-129v0,-78,-43,-147,-117,-147"},":":{"d":"123,-333v-46,0,-87,-41,-87,-87v0,-46,41,-86,87,-86v47,0,87,39,87,86v0,46,-41,87,-87,87xm123,9v-46,0,-87,-40,-87,-86v0,-46,41,-87,87,-87v46,0,87,41,87,87v0,47,-40,86,-87,86","w":244},";":{"d":"68,-418v0,-57,23,-86,69,-86v44,0,66,29,66,86v0,57,-22,86,-66,86v-46,0,-69,-29,-69,-86xm41,94v25,-64,27,-76,31,-179r105,0v0,52,-44,158,-70,192","w":254},"<":{"d":"359,-46r-122,4r-237,-247r236,-240r123,4r-201,240","w":366},"=":{"d":"89,-352r321,0r0,98r-321,0r0,-98xm89,-223r321,0r0,98r-321,0r0,-98","w":441},">":{"d":"-14,-46r201,-239r-203,-240r123,-4r236,240r-236,247","w":365},"?":{"d":"259,13v-41,0,-76,-32,-76,-73v0,-40,35,-74,76,-74v42,0,79,33,79,74v0,41,-37,73,-79,73xm270,-691v120,-2,203,65,201,182v-2,81,-33,110,-89,153v-36,27,-61,62,-76,105v-3,10,-5,34,-5,73r-98,0v-6,-11,0,-88,0,-90v0,-35,7,-63,22,-84v12,-17,39,-43,81,-77v31,-25,47,-52,47,-80v0,-45,-37,-96,-80,-96v-53,0,-92,35,-116,105r-94,-39v44,-98,82,-149,207,-152","w":546},"@":{"d":"249,-199v0,-155,127,-321,280,-321v44,0,71,30,97,50r8,-40r90,0v-9,115,-38,265,-58,381r8,48v4,11,19,17,45,17v63,-1,132,-127,132,-205v0,-198,-140,-354,-338,-354v-193,0,-361,190,-361,385v0,203,129,398,321,395v168,-3,212,-43,314,-136r60,69v-67,61,-117,99,-152,115v-52,25,-126,37,-222,37v-265,0,-440,-210,-440,-480v0,-250,226,-460,480,-460v258,0,437,174,437,429v0,139,-142,290,-281,290v-40,0,-71,-32,-92,-97v-45,64,-96,96,-153,96v-117,0,-175,-73,-175,-219xm617,-387v-13,-19,-62,-49,-91,-49v-33,0,-65,15,-94,46v-40,41,-60,100,-60,178v-1,88,15,139,87,142v43,2,116,-86,124,-129","w":1010},"A":{"d":"380,-148r-207,0r-46,160r-104,-14r208,-652r102,0r210,647r-116,19xm200,-241r153,0r-75,-260","w":568},"B":{"d":"210,2r-147,-4r0,-639r194,-4v105,-1,174,59,173,163v-1,60,-45,108,-90,131v69,3,133,83,131,159v-4,148,-96,196,-261,194xm225,-380v56,1,97,-38,96,-93v-1,-65,-28,-98,-83,-98v-14,0,-33,1,-57,2r0,189r44,0xm357,-193v1,-60,-49,-111,-111,-111r-65,0r0,223r67,0v69,0,109,-43,109,-112","w":501},"C":{"d":"308,8v-176,5,-277,-153,-277,-337v0,-176,112,-331,282,-331v57,0,122,23,197,69r-42,78v-42,-25,-64,-38,-65,-39v-87,-38,-158,-12,-200,73v-24,48,-37,102,-37,161v0,108,62,222,160,222v67,0,84,-19,144,-51r47,78v-78,49,-110,74,-209,77","w":557},"D":{"d":"222,2r-159,-4r0,-641v53,-3,108,-4,163,-4v203,0,306,108,307,324v2,204,-109,326,-311,325xm240,-87v102,2,171,-115,168,-226v-4,-192,-63,-271,-223,-255r0,481r55,0","w":565},"E":{"d":"179,-391r227,0r0,89r-227,-1r0,214r240,0r0,89r-356,0r0,-640r359,0r0,85r-243,0r0,164","w":462},"F":{"d":"179,-391r229,0r0,89r-229,0r0,302r-116,0r0,-640r360,0r0,85r-244,0r0,164","w":463},"G":{"d":"519,-65v-80,47,-113,68,-217,71v-167,4,-271,-155,-271,-329v0,-81,20,-154,63,-220v70,-107,172,-141,309,-100v45,14,80,32,106,53r-41,76v-106,-73,-207,-85,-267,36v-48,96,-50,234,4,320v27,44,61,66,101,66v41,0,72,-5,94,-16r0,-196r-131,0r0,-87r250,0r0,326","w":582},"H":{"d":"401,-302r-219,0r0,302r-119,0r0,-640r119,0r0,249r219,0r0,-249r118,0r0,640r-118,0r0,-302","w":582},"I":{"d":"63,-641r119,0r0,641r-119,0r0,-641","w":245},"J":{"d":"-89,36v29,34,44,55,94,55v39,0,59,-50,59,-151r0,-580r120,0r0,573v0,169,-57,254,-171,254v-88,0,-103,-24,-163,-76","w":247},"K":{"d":"216,-255r-34,49r0,206r-119,0r0,-641r119,0r0,290r201,-322r105,53r-208,290v53,88,184,231,262,322r-140,31v-65,-89,-127,-182,-186,-278","w":542},"L":{"d":"63,-641r117,0r0,556r258,0r0,85r-375,0r0,-641","w":501},"M":{"d":"588,-427r-152,428r-104,0r-153,-432r0,431r-106,0r0,-642r152,0r174,472r178,-472r142,0r0,642r-131,0r0,-427","w":793},"N":{"d":"167,-401r-1,401r-103,0r0,-644r96,0r258,405r0,-401r102,0r0,625r-95,30v-65,-120,-151,-259,-257,-416","w":582},"O":{"d":"319,16v-182,0,-287,-146,-287,-338v0,-177,121,-324,294,-324v172,0,287,147,287,324v0,193,-111,338,-294,338xm324,-558v-105,0,-167,128,-167,245v0,113,60,238,162,239v100,1,169,-126,169,-238v0,-118,-58,-246,-164,-246","w":644},"P":{"d":"447,-451v0,102,-114,198,-217,194v-7,0,-24,-1,-51,-2r0,259r-116,0r0,-641r188,-3v107,-4,196,85,196,193xm332,-448v0,-91,-57,-133,-153,-121r0,242r32,0v64,2,121,-58,121,-121","w":475},"Q":{"d":"327,-646v173,0,288,144,288,322v0,87,-25,154,-75,202r128,116r-75,84r-129,-119v-53,40,-101,60,-144,60v-181,0,-289,-148,-289,-340v0,-179,122,-325,296,-325xm325,-557v-106,0,-168,125,-168,243v0,114,60,241,160,242v29,0,55,-10,78,-29r-76,-63r78,-83r69,62v15,-24,23,-67,23,-130v0,-119,-59,-242,-164,-242","w":658},"R":{"d":"256,-644v119,-1,188,69,186,186v0,89,-57,161,-129,182v53,73,129,160,229,260r-147,27v-49,-51,-114,-142,-194,-274r-22,0r0,263r-116,0r0,-641xm330,-459v0,-66,-33,-116,-97,-112r-54,2r0,236r41,0v73,0,110,-42,110,-126","w":522},"S":{"d":"434,-193v0,125,-87,204,-211,203v-89,0,-156,-31,-199,-92r54,-77v40,47,86,70,137,70v70,0,105,-34,104,-102v0,-35,-24,-62,-73,-82v-79,-33,-124,-53,-133,-60v-48,-33,-71,-84,-71,-153v0,-96,90,-179,185,-178v69,0,132,24,188,71r-40,84v-45,-43,-88,-64,-129,-64v-62,0,-83,25,-84,88v0,31,23,55,70,74v73,29,116,49,131,60v47,35,71,88,71,158","w":454},"T":{"d":"332,0r-119,0r0,-558r-182,0r0,-81r473,0r0,81r-172,0r0,558","w":536},"U":{"d":"548,-235v5,147,-107,252,-250,252v-140,0,-235,-105,-235,-252r0,-405r119,0r0,405v-3,87,51,164,128,164v74,0,119,-79,119,-164r0,-405r119,0r0,405","w":611},"V":{"d":"227,10r-219,-636r124,-31r154,470r145,-471r103,33r-220,635r-87,0","w":542},"W":{"d":"529,6r-122,-402r-129,402r-88,0r-179,-628r133,-26r112,440r110,-428r103,0r110,427r104,-440r100,28r-176,627r-78,0","w":789},"X":{"d":"275,-244r-138,274r-111,-40r189,-307r-178,-304r116,-41r131,255r133,-257r93,44r-176,291r213,319r-125,35","w":552},"Y":{"d":"310,0r-118,0r0,-271r-181,-350r123,-33r129,283r136,-283r92,33r-181,350r0,271","w":503},"Z":{"d":"478,-99r0,99r-417,0r-26,-74r307,-476r-274,2r0,-91r403,0r23,84r-300,456r284,0","w":544},"[":{"d":"72,-740r156,0r0,87r-58,0r0,662r65,0r0,105r-163,0r0,-854","w":225},"\\":{"d":"6,-683r109,-24r279,856r-109,24","w":385},"]":{"d":"50,9r65,0r0,-662r-57,0r0,-87r152,0r0,854r-160,0r0,-105","w":266},"^":{"d":"165,-443r-60,-72r162,-171r165,171r-60,72r-105,-119","w":536},"_":{"d":"5,50r525,0r0,59r-525,0r0,-59","w":536},"`":{"d":"324,-626r-215,-89r-62,78r214,83","w":329},"a":{"d":"138,-137v0,34,27,72,60,71v41,0,74,-16,100,-48r1,-109v-35,0,-118,14,-137,27v-15,11,-24,30,-24,59xm382,11v-27,0,-70,-39,-73,-65v-49,42,-64,67,-124,70v-84,4,-144,-66,-144,-152v0,-55,17,-94,48,-118v27,-21,145,-46,207,-52r0,-52v1,-29,-30,-61,-60,-61v-61,0,-110,23,-148,68r-43,-61v27,-50,117,-99,191,-100v92,-2,168,70,168,163r0,251v0,8,14,22,23,22v21,0,35,-3,42,-10r11,64v-41,22,-73,33,-98,33","w":491},"b":{"d":"310,-518v105,-2,168,118,168,233v0,197,-65,295,-196,295v-23,0,-63,-19,-119,-56r-8,47r-91,0r0,-701r108,0r0,266v17,-36,89,-83,138,-84xm172,-128v16,21,68,48,102,48v38,0,64,-22,77,-67v8,-27,12,-68,12,-124v0,-105,-30,-158,-89,-158v-37,0,-71,31,-102,94r0,207","w":515},"c":{"d":"448,-72v-47,53,-86,84,-175,84v-87,0,-151,-34,-192,-103v-28,-46,-42,-96,-42,-151v0,-153,92,-268,236,-269v38,0,89,21,152,64r-33,69v-43,-35,-86,-53,-128,-53v-75,0,-110,104,-110,192v0,89,39,172,117,172v39,0,83,-21,130,-64","w":479},"d":{"d":"200,-518v84,0,80,11,140,56r0,-235r108,0r0,698r-92,0r-8,-50v-33,19,-88,61,-126,62v-120,2,-185,-129,-185,-261v0,-69,15,-130,44,-183v32,-58,72,-87,119,-87xm237,-429v-55,0,-82,57,-82,170v0,53,7,95,22,128v16,37,39,56,69,56v20,0,51,-17,94,-52r0,-215v-22,-31,-36,-50,-43,-57v-19,-20,-39,-30,-60,-30","w":511},"e":{"d":"272,-510v107,0,185,86,182,197r0,75r-296,0v1,113,40,169,117,170v43,1,87,-20,130,-63r45,61v-62,55,-83,82,-182,82v-87,0,-151,-36,-191,-108v-25,-47,-38,-97,-38,-151v-2,-148,89,-263,233,-263xm345,-323v3,-73,-23,-109,-80,-109v-58,0,-91,53,-100,109r180,0","w":491},"f":{"d":"191,-559r2,61r124,0r0,90r-124,0r0,408r-105,0r0,-408r-70,0r0,-90r70,0r0,-53v0,-130,48,-195,145,-195v76,0,63,8,119,56r-48,67v-26,-22,-49,-33,-70,-34v-29,-1,-43,32,-43,98","w":324},"g":{"d":"49,-320v0,-99,89,-184,191,-184v63,0,109,19,140,58r131,-59r0,113r-99,0v10,33,15,56,15,69v2,122,-112,217,-241,177v-1,4,-33,33,-33,42v0,21,15,33,46,37v5,1,29,1,72,1v71,0,116,4,136,12v41,16,62,54,62,114v0,59,-34,106,-102,140v-52,26,-105,39,-159,39v-90,1,-166,-38,-167,-122v0,-36,30,-73,89,-111v-45,1,-86,-31,-86,-74v-7,-22,85,-99,84,-102v-53,-41,-79,-91,-79,-150xm238,-428v-48,0,-80,57,-80,108v0,51,35,107,84,107v49,0,83,-59,83,-112v0,-45,-42,-103,-87,-103xm366,63v-2,-44,-28,-47,-82,-47r-94,0v-15,5,-43,52,-42,77v3,59,24,71,85,74v57,3,135,-54,133,-104","w":511},"h":{"d":"292,-511v84,-1,157,83,157,172r0,339r-107,0r0,-326v0,-63,-19,-94,-56,-94v-29,0,-57,16,-84,47v-21,25,-32,43,-32,54r0,319r-107,0r0,-696r107,0r0,290v37,-70,78,-105,122,-105","w":512},"i":{"d":"117,-582v-40,0,-74,-34,-74,-75v0,-41,34,-74,74,-74v39,0,73,34,73,74v0,41,-33,75,-73,75xm63,-495r107,0r0,495r-107,0r0,-495","w":233},"j":{"d":"120,-732v40,0,74,33,74,74v0,41,-34,74,-74,74v-40,0,-74,-33,-74,-74v0,-41,34,-74,74,-74xm171,55v-4,111,-68,132,-163,168r-38,-91v56,-17,92,-39,92,-68r1,-559r108,0r0,550","w":233},"k":{"d":"200,-222r-30,44r0,179r-107,0r0,-698r107,0r0,408r178,-247r94,65r-184,196r217,244r-96,62","w":476},"l":{"d":"64,-698r106,0r0,698r-106,0r0,-698","w":234},"m":{"d":"563,-512v85,0,150,82,150,168r0,344r-112,0r0,-339v0,-54,-18,-81,-54,-81v-17,0,-37,11,-61,34v-29,27,-43,57,-43,89r0,297r-112,0r0,-324v2,-41,-25,-89,-59,-92v-35,-4,-102,79,-102,110r0,306r-107,0r0,-496r107,0r0,89v42,-67,85,-100,129,-100v53,0,107,54,123,95v50,-67,97,-100,141,-100","w":776},"n":{"d":"293,-511v89,-1,156,86,156,179r0,332r-107,0r0,-320v0,-52,-15,-97,-57,-101v-44,-5,-115,77,-115,118r0,303r-107,0r0,-496r107,0r0,89v41,-69,82,-104,123,-104","w":512},"o":{"d":"275,11v-149,0,-236,-111,-236,-263v0,-146,99,-260,237,-260v137,0,231,114,231,260v0,59,-15,112,-45,161v-42,68,-104,102,-187,102xm280,-433v-84,0,-125,93,-125,187v0,87,39,179,116,179v79,0,120,-94,120,-184v0,-87,-36,-181,-111,-182","w":546},"p":{"d":"306,-513v125,0,174,113,174,252v0,189,-69,284,-208,284v-20,0,-54,-17,-102,-51r0,225r-107,0r0,-693r107,0r0,82v13,-46,79,-100,136,-99xm271,-421v-33,0,-93,81,-101,111r0,196v41,31,76,46,103,46v98,-2,107,-212,75,-298v-14,-37,-40,-55,-77,-55","w":517},"q":{"d":"198,-508v74,0,86,17,140,58r0,-46r107,0r0,693r-107,0r0,-240v-35,25,-55,39,-62,43v-26,15,-47,23,-64,23v-56,0,-100,-27,-131,-82v-54,-92,-60,-254,-4,-357v33,-60,72,-92,121,-92xm338,-341v-8,-30,-56,-82,-93,-81v-62,1,-93,60,-93,179v0,48,9,90,26,125v17,35,39,53,66,53v17,4,95,-77,94,-73r0,-203","w":511},"r":{"d":"170,-415v13,-33,50,-91,86,-91v25,0,46,3,62,10r-12,124v-25,-13,-18,-12,-56,-12v-30,0,-80,48,-80,72r0,312r-107,0r0,-496r107,0r0,81","w":338},"s":{"d":"399,-165v0,108,-77,180,-184,179v-72,0,-128,-27,-169,-80r56,-75v35,47,74,70,117,70v40,1,71,-26,71,-64v0,-33,-38,-62,-114,-83v-73,-21,-114,-51,-117,-131v-2,-98,69,-166,166,-165v45,0,95,18,152,54r-39,74v-39,-27,-74,-41,-106,-41v-38,0,-66,23,-67,56v0,18,7,30,22,36v23,9,46,17,68,24v96,29,144,77,144,146","w":437},"t":{"d":"339,-33v-67,35,-61,41,-148,41v-67,0,-100,-54,-100,-162r0,-256r-70,0r0,-82r70,0r0,-105r113,0r0,105r100,0r0,83r-100,-1r0,267v0,43,12,64,37,64v51,0,30,0,74,-23","w":351},"u":{"d":"222,-75v39,0,117,-79,117,-114r0,-306r107,0r0,495r-97,0v-2,-18,-5,-42,-10,-71v-46,59,-87,89,-124,89v-91,0,-152,-87,-152,-184r0,-329r107,0r0,326v0,63,17,94,52,94","w":511},"v":{"d":"196,12r-180,-486r108,-31r112,384r107,-384r105,31r-176,486r-76,0","w":464},"w":{"d":"479,9r-109,-316r-111,316r-87,0r-150,-484r110,-28r93,384r101,-374r94,0r105,373r87,-383r107,28r-155,484r-85,0","w":735},"x":{"d":"243,-183r-144,214r-93,-63r170,-214r-152,-208r100,-60r125,197r129,-196r89,51r-159,211r174,220r-93,64","w":488},"y":{"d":"114,196v-19,0,-51,-8,-97,-24r32,-95v93,46,120,15,156,-109r-182,-441r114,-30r118,366r108,-364r101,25r-199,554v-22,60,-77,118,-151,118","w":480},"z":{"d":"53,-77r242,-331r-233,0r0,-86r365,0r0,80r-230,322r242,0r0,92r-386,0r0,-77","w":482},"{":{"d":"157,-420v35,-50,15,-129,15,-201v0,-181,91,-246,244,-198r-20,112v-34,-12,-55,-18,-64,-18v-26,0,-43,13,-48,39v-7,41,2,146,2,199v0,50,-24,99,-73,148r0,7v42,37,85,112,82,186r-7,156v0,37,1,58,3,65v3,10,11,15,24,15v29,0,52,-8,70,-25r30,119v-31,11,-66,15,-103,13v-61,-3,-101,-34,-122,-91v-19,-51,-13,-197,-13,-283v0,-50,-22,-94,-65,-133r1,-55v24,-28,39,-46,44,-55","w":536},"|":{"d":"65,-686r128,0r0,906r-128,0r0,-906","w":229},"}":{"d":"366,-177v0,88,5,233,-14,284v-21,56,-60,87,-121,90v-38,2,-72,-2,-103,-13r29,-119v19,17,42,25,71,25v38,0,29,-44,27,-80r-7,-156v0,-73,40,-149,82,-186r0,-7v-49,-49,-75,-98,-73,-148r5,-127v0,-41,-1,-65,-3,-72v-6,-26,-22,-39,-48,-39v-9,0,-30,6,-64,18r-20,-112v156,-47,243,17,244,198v1,72,-20,151,15,201v5,9,20,27,44,55r1,55v-43,39,-65,83,-65,133","w":536},"~":{"d":"271,-379v-25,6,-76,-41,-97,-41v-8,0,-16,4,-25,13v-5,5,-18,21,-39,47r-29,-93v29,-29,61,-44,95,-44v31,0,86,33,102,36v14,3,40,-30,51,-43r26,87v-30,25,-58,38,-84,38","w":395},"\u00a0":{"w":273},"\u00a1":{"d":"172,-501r0,604r-124,0r0,-604r124,0xm114,-726v43,0,78,35,78,77v0,42,-36,78,-78,78v-42,0,-77,-37,-77,-78v0,-42,35,-77,77,-77","w":235},"\u00a2":{"d":"208,11v-106,-20,-169,-126,-170,-253v-1,-138,62,-235,170,-263r0,-85r118,0r0,84v35,8,72,28,111,59r-49,76v-34,-27,-55,-44,-64,-49v-106,-63,-169,73,-169,181v0,83,43,172,111,172v61,0,77,-30,125,-73r58,71v-39,41,-80,67,-123,79r0,79r-118,0r0,-78","w":479},"\u00a3":{"d":"424,12v-11,-1,-101,-38,-131,-38v-31,0,-105,15,-221,44r-15,-100v23,-6,55,-13,68,-25v38,-36,24,-129,16,-186r-67,0r0,-93r54,0v-7,-36,-10,-63,-10,-81v-2,-108,64,-191,168,-189v41,0,84,14,131,41r-44,81v-45,-23,-73,-34,-82,-34v-44,-1,-74,58,-73,105v0,10,4,36,12,77r126,0r0,93r-106,0v3,29,4,61,4,97v0,31,-10,58,-31,82v78,-9,143,-6,222,16","w":476},"\u00a4":{"d":"244,-349r0,45r162,0r0,78r-162,0r0,117r175,-1r0,110r-292,0r0,-226r-91,0r0,-78r91,0r0,-46r-91,0r0,-87r91,0r0,-203r295,0r0,105r-178,0r0,98r162,0r0,88r-162,0","w":489},"\u00a5":{"d":"193,-287r-172,-354r124,0r110,225r110,-225r124,0r-171,354r76,0r0,83r-79,0r0,49r79,0r0,83r-79,0r0,70r-119,0r0,-70r-82,0r0,-83r82,0r0,-49r-82,0r0,-83r79,0","w":531},"\u00a6":{"d":"54,-278r77,0r0,296r-77,0r0,-296xm54,-656r77,0r0,296r-77,0r0,-296","w":182},"\u00a7":{"d":"321,-50v0,81,-55,137,-135,137v-49,0,-94,-21,-136,-64r49,-79v31,35,61,53,92,53v30,0,58,-44,25,-59v-18,-8,-51,-13,-80,-25v-44,-17,-66,-49,-66,-96v0,-33,10,-61,29,-84v-19,-18,-29,-42,-29,-73v0,-73,52,-128,123,-126v33,1,71,15,116,44r-34,81v-39,-27,-67,-40,-84,-40v-28,1,-34,7,-33,35v0,7,23,14,66,26v65,18,97,58,97,113v0,35,-9,63,-26,84v17,18,26,42,26,73xm158,-189v-3,7,39,18,54,23v23,-14,26,-40,4,-53v-4,-2,-15,-6,-34,-11v-16,3,-24,16,-24,41","w":392},"\u00a8":{"d":"255,-556v-41,0,-70,-32,-70,-72v0,-40,30,-72,70,-72v39,0,70,34,70,72v0,39,-30,72,-70,72xm45,-556v-41,0,-70,-32,-70,-72v0,-38,30,-72,70,-72v39,0,70,34,70,72v0,39,-30,72,-70,72","w":306},"\u00a9":{"d":"275,-310v0,81,48,157,121,157v35,0,69,-9,102,-28r25,42v-47,25,-89,37,-127,37v-113,2,-179,-97,-179,-216v0,-115,71,-213,181,-212v40,0,80,12,121,35r-24,51v-39,-24,-71,-36,-94,-36v-79,-3,-126,85,-126,170xm398,-582v-143,0,-266,123,-266,266v0,143,123,266,266,266v143,0,266,-123,266,-266v0,-143,-123,-266,-266,-266xm398,15v-178,0,-331,-153,-331,-331v0,-178,153,-331,331,-331v178,0,331,153,331,331v0,178,-153,331,-331,331","w":796},"\u00ab":{"d":"419,-126r-107,4r-156,-167r156,-162r107,4r-131,161xm261,-126r-107,4r-155,-167r155,-162r107,4r-130,161","w":390},"\u00ac":{"d":"443,-225r-355,0r0,-118r470,0r0,315r-115,0r0,-197","w":613},"\u00ad":{"d":"52,-348r394,0r0,63r-394,0r0,-63","w":498},"\u00ae":{"d":"398,-582v-143,0,-269,123,-265,266r-1,0v-4,143,123,266,266,266v143,0,266,-123,266,-266v0,-143,-123,-266,-266,-266xm398,15v-178,0,-331,-153,-331,-331v0,-178,153,-331,331,-331v178,0,331,153,331,331v0,178,-153,331,-331,331xm491,-108v-48,-49,-95,-118,-139,-192r-29,1r0,185r-57,0r0,-410v65,-1,108,-2,129,-2v75,1,112,38,111,113v-1,61,-33,97,-98,109v55,73,76,111,154,183xm365,-342v62,-1,89,-17,89,-78v0,-45,-25,-68,-75,-67r-56,1r0,144r42,0","w":796},"\u00af":{"d":"105,-659r234,0r0,65r-234,0r0,-65","w":406},"\u00b0":{"d":"138,-722v77,0,140,64,140,140v0,76,-63,140,-140,140v-77,0,-143,-64,-143,-140v0,-76,66,-140,143,-140xm138,-652v-39,0,-70,31,-70,70v0,39,31,70,70,70v39,0,67,-31,67,-70v0,-39,-28,-70,-67,-70","w":273},"\u00b1":{"d":"295,-89r-93,0r0,-171r-150,0r0,-95r150,0r0,-162r93,0r0,162r151,0r0,95r-151,0r0,171xm65,-49r376,0r0,87r-376,0r0,-87","w":501},"\u00b4":{"d":"47,-626r215,-89r32,78r-214,83","w":329},"\u00b5":{"d":"260,-71v34,0,78,-48,78,-78r0,-338r110,0r0,370v-1,45,8,74,27,86v13,9,27,21,42,38r-84,65v-43,-25,-72,-59,-86,-101v-27,33,-68,61,-102,61v-27,0,-51,-7,-74,-22r0,186r-103,0r0,-682r103,0r0,342v0,49,30,73,89,73","w":508},"\u00b6":{"d":"338,0r0,-642r99,0r0,642r-99,0xm50,-483v1,-111,48,-159,159,-159r101,0r0,642r-99,0r0,-317v-108,0,-162,-55,-161,-166","w":507},"\u00b7":{"d":"128,-314v-48,0,-87,-49,-87,-99v0,-50,39,-99,87,-99v50,0,86,48,86,99v0,50,-36,99,-86,99","w":236},"\u00b8":{"d":"197,130v1,55,-34,109,-87,109v-47,0,-80,-21,-99,-63r41,-29v20,23,40,35,59,35v10,0,24,-30,24,-40v0,-13,-11,-35,-21,-36v-19,0,-31,5,-36,16r-57,-17r6,-109r80,-1r-3,41v54,-3,93,42,93,94","w":205},"\u00bb":{"d":"141,-126r132,-160r-132,-161r109,-4r154,162r-154,167xm-17,-126r132,-160r-131,-161r108,-4r154,162r-154,167","w":393},"\u00bf":{"d":"217,103v-102,4,-184,-85,-183,-184v0,-68,26,-121,76,-160v62,-49,71,-125,60,-248r107,0v5,31,8,63,8,94v0,101,-25,175,-76,222v-29,27,-43,40,-44,40v-49,46,-19,129,48,129v47,0,82,-35,105,-105r95,50v-40,97,-81,158,-196,162xm225,-681v38,0,70,34,70,73v0,39,-32,74,-70,74v-38,0,-71,-35,-71,-74v0,-38,33,-73,71,-73","w":459},"\u00c0":{"d":"377,-168r-181,0r-54,180r-113,-14r207,-652r102,0r211,647r-116,19xm223,-261r127,0r-63,-222xm365,-686r-209,-90r47,-65r210,96","w":580},"\u00c1":{"d":"377,-168r-181,0r-54,180r-113,-14r207,-652r102,0r211,647r-116,19xm223,-261r127,0r-63,-222xm146,-746r215,-89r62,78r-214,83","w":568},"\u00c2":{"d":"377,-168r-181,0r-54,180r-113,-14r207,-652r102,0r211,647r-116,19xm223,-261r127,0r-63,-222xm146,-661r0,-98r137,-106r142,106r0,97r-141,-87","w":568},"\u00c3":{"d":"377,-168r-181,0r-54,180r-113,-14r207,-652r102,0r211,647r-116,19xm223,-261r127,0r-63,-222xm441,-727v-14,17,-60,37,-86,38v-19,0,-45,-10,-76,-30v-24,-15,-39,-23,-44,-23v-17,0,-39,16,-66,47r-39,-78v42,-51,111,-71,174,-26v56,40,45,36,100,-4","w":580},"\u00c4":{"d":"377,-168r-181,0r-54,180r-113,-14r207,-652r102,0r211,647r-116,19xm223,-261r127,0r-63,-222xm396,-686v-40,0,-71,-31,-70,-72v0,-40,30,-72,70,-72v38,0,70,34,70,72v0,39,-30,72,-70,72xm186,-686v-41,0,-70,-32,-70,-72v0,-40,30,-72,70,-72v39,0,70,34,70,72v0,39,-30,72,-70,72","w":580},"\u00c5":{"d":"377,-168r-181,0r-54,180r-113,-14r207,-652r102,0r211,647r-116,19xm223,-261r127,0r-63,-222xm384,-773v0,51,-40,87,-91,87v-51,0,-91,-36,-91,-87v0,-50,40,-86,91,-86v51,0,91,36,91,86xm293,-816v-22,0,-33,14,-33,43v0,29,11,44,33,44v22,0,33,-15,33,-44v0,-29,-11,-43,-33,-43","w":580},"\u00c6":{"d":"227,-271r124,0r-63,-222xm565,-391r240,0r0,99r-240,0r0,193r254,0r0,100r-385,0r-53,-169r-186,0r-55,180r-117,-14r214,-652r104,0r101,344r0,-331r380,0r0,96r-257,0r0,154","w":862},"\u00c7":{"d":"444,132v-1,50,-40,87,-96,87v-43,0,-72,-16,-87,-48r37,-34v19,21,36,32,51,32v23,0,35,-11,35,-34v1,-45,-40,-48,-68,-24r-46,-21r5,-84v-149,-16,-238,-163,-238,-335v0,-176,108,-331,278,-331v61,0,127,20,199,63r-51,109v-38,-24,-93,-70,-143,-71v-104,-3,-164,127,-164,241v0,110,60,221,156,223v36,0,88,-19,155,-57r55,94v-80,41,-102,58,-190,66r-3,39v60,-18,116,27,115,85","w":570},"\u00c8":{"d":"185,-391r226,0r0,99r-226,-1r0,184r240,-1r0,110r-357,0r0,-640r359,0r0,105r-242,0r0,144xm334,-686r-208,-90r46,-65r211,96","w":489},"\u00c9":{"d":"185,-391r226,0r0,99r-226,-1r0,184r240,-1r0,110r-357,0r0,-640r359,0r0,105r-242,0r0,144xm116,-756r214,-89r62,78r-214,83","w":469},"\u00ca":{"d":"185,-391r226,0r0,99r-226,-1r0,184r240,-1r0,110r-357,0r0,-640r359,0r0,105r-242,0r0,144xm125,-681r0,-88r138,-106r142,106r0,87r-142,-77","w":489},"\u00cb":{"d":"185,-391r226,0r0,99r-226,-1r0,184r240,-1r0,110r-357,0r0,-640r359,0r0,105r-242,0r0,144xm365,-686v-41,0,-70,-32,-70,-72v0,-38,30,-72,70,-72v39,0,70,34,70,72v0,39,-30,72,-70,72xm156,-686v-40,0,-71,-31,-70,-72v0,-40,30,-72,70,-72v38,0,69,34,69,72v0,38,-29,72,-69,72","w":489},"\u00cc":{"d":"48,-642r129,0r0,642r-129,0r0,-642xm198,-686r-209,-90r47,-65r210,96","w":215},"\u00cd":{"d":"48,-642r129,0r0,642r-129,0r0,-642xm-21,-746r215,-89r62,78r-214,83","w":215},"\u00ce":{"d":"42,-642r129,0r0,642r-129,0r0,-642xm-31,-681r0,-88r138,-106r142,106r0,87r-142,-77","w":215},"\u00cf":{"d":"48,-642r129,0r0,642r-129,0r0,-642xm218,-676v-41,0,-70,-32,-70,-72v0,-38,30,-72,70,-72v39,0,70,34,70,72v0,39,-30,72,-70,72xm9,-676v-40,0,-71,-31,-70,-72v0,-40,30,-72,70,-72v38,0,69,34,69,72v0,38,-29,72,-69,72","w":215},"\u00d0":{"d":"407,-313v0,-156,-44,-244,-197,-236v-13,1,-24,1,-31,1r0,195r63,0r0,102r-63,0r0,144r64,0v105,1,164,-95,164,-206xm219,2r-160,-4r0,-249r-53,0r0,-102r53,0r0,-290v54,-3,105,-4,154,-4v223,1,318,102,320,324v2,205,-111,326,-314,325","w":565},"\u00d1":{"d":"181,-395r0,394r-113,2r0,-645r96,0r248,385r0,-381r112,0r0,625r-85,30v-51,-95,-137,-231,-258,-410xm462,-697v-14,17,-60,37,-86,38v-19,0,-45,-10,-76,-30v-24,-15,-39,-23,-44,-23v-17,0,-39,16,-66,47r-39,-78v42,-51,111,-71,174,-26v56,40,45,36,100,-4","w":570},"\u00d2":{"d":"324,16v-182,0,-287,-146,-287,-338v0,-177,121,-324,294,-324v173,0,287,147,287,324v0,193,-111,338,-294,338xm329,-548v-106,0,-177,121,-177,235v0,112,69,229,172,229v102,0,180,-117,180,-228v0,-116,-68,-236,-175,-236xm408,-686r-209,-90r47,-65r210,96","w":644},"\u00d3":{"d":"324,16v-182,0,-287,-146,-287,-338v0,-177,121,-324,294,-324v173,0,287,147,287,324v0,193,-111,338,-294,338xm329,-548v-106,0,-177,121,-177,235v0,112,69,229,172,229v102,0,180,-117,180,-228v0,-116,-68,-236,-175,-236xm189,-746r215,-89r62,78r-214,83","w":644},"\u00d4":{"d":"324,16v-182,0,-287,-146,-287,-338v0,-177,121,-324,294,-324v173,0,287,147,287,324v0,193,-111,338,-294,338xm329,-548v-106,0,-177,121,-177,235v0,112,69,229,172,229v102,0,180,-117,180,-228v0,-116,-68,-236,-175,-236xm195,-661r0,-98r138,-106r142,106r0,97r-142,-87","w":644},"\u00d5":{"d":"324,16v-182,0,-287,-146,-287,-338v0,-177,121,-324,294,-324v173,0,287,147,287,324v0,193,-111,338,-294,338xm329,-548v-106,0,-177,121,-177,235v0,112,69,229,172,229v102,0,180,-117,180,-228v0,-116,-68,-236,-175,-236xm462,-707v-14,17,-60,37,-86,38v-19,0,-45,-10,-76,-30v-24,-15,-39,-23,-44,-23v-17,0,-39,16,-66,47r-39,-78v42,-51,111,-71,174,-26v56,40,45,36,100,-4","w":648},"\u00d6":{"d":"324,16v-182,0,-287,-146,-287,-338v0,-177,121,-324,294,-324v173,0,287,147,287,324v0,193,-111,338,-294,338xm329,-548v-106,0,-177,121,-177,235v0,112,69,229,172,229v102,0,180,-117,180,-228v0,-116,-68,-236,-175,-236xm439,-676v-40,0,-71,-31,-70,-72v0,-40,30,-72,70,-72v38,0,70,34,70,72v0,39,-30,72,-70,72xm229,-676v-41,0,-70,-32,-70,-72v0,-40,30,-72,70,-72v39,0,70,34,70,72v0,39,-30,72,-70,72","w":648},"\u00d8":{"d":"613,-322v0,202,-120,354,-325,336r-18,60r-109,-34r18,-59v-98,-56,-147,-157,-147,-303v0,-190,134,-348,335,-321r13,-44r109,34r-15,49v82,51,139,153,139,282xm318,-84v104,2,181,-117,181,-228v0,-72,-20,-131,-59,-178xm338,-547v-120,-12,-192,116,-191,234v0,73,22,134,66,181","w":644},"\u00d9":{"d":"513,-235v3,147,-89,252,-230,252v-139,0,-215,-104,-215,-252r0,-405r119,0r0,405v0,103,33,154,98,154v75,0,109,-69,109,-154r0,-405r119,0r0,405xm366,-686r-209,-90r47,-65r210,96","w":571},"\u00da":{"d":"513,-235v3,147,-89,252,-230,252v-139,0,-215,-104,-215,-252r0,-405r119,0r0,405v0,103,33,154,98,154v75,0,109,-69,109,-154r0,-405r119,0r0,405xm147,-746r215,-89r62,78r-214,83","w":571},"\u00db":{"d":"513,-235v3,147,-89,252,-230,252v-139,0,-215,-104,-215,-252r0,-405r119,0r0,405v0,103,33,154,98,154v75,0,109,-69,109,-154r0,-405r119,0r0,405xm145,-671r0,-88r138,-106r142,106r0,87r-142,-77","w":571},"\u00dc":{"d":"513,-235v3,147,-89,252,-230,252v-139,0,-215,-104,-215,-252r0,-405r119,0r0,405v0,103,33,154,98,154v75,0,109,-69,109,-154r0,-405r119,0r0,405xm386,-676v-41,0,-70,-32,-70,-72v0,-38,30,-72,70,-72v39,0,70,34,70,72v0,39,-30,72,-70,72xm177,-676v-40,0,-71,-31,-70,-72v0,-40,30,-72,70,-72v38,0,69,34,69,72v0,38,-29,72,-69,72","w":521},"\u00dd":{"d":"316,0r-119,0r0,-271r-171,-350r110,-33r123,279r121,-279r106,33r-170,350r0,271xm137,-696r214,-89r62,78r-214,83","w":503},"\u00de":{"d":"174,-180r0,288r-114,0r0,-808r114,0r0,81v43,-39,78,-58,103,-58v132,-3,217,130,217,270v0,162,-65,271,-215,274v-42,1,-75,-31,-105,-47xm378,-395v0,-91,-37,-181,-118,-181v-36,0,-65,22,-86,66r0,230v17,26,60,54,100,54v74,-1,104,-84,104,-169","w":543},"\u00df":{"d":"503,-155v3,91,-84,172,-174,170v-38,0,-65,-4,-80,-11v-18,-9,-42,-30,-71,-65r50,-79v19,27,39,45,59,52v9,3,24,5,47,5v33,1,58,-31,57,-66v0,-21,-11,-38,-34,-51v-8,-4,-28,-11,-60,-22v-75,-25,-112,-77,-112,-157v0,-59,69,-138,132,-138v15,0,30,3,45,9v6,-13,1,-38,1,-55v0,-34,-58,-52,-102,-52v-55,0,-99,55,-99,115r0,501r-110,0r0,-501v-1,-130,83,-215,214,-215v117,0,190,72,189,188v0,45,-11,87,-34,126v-39,-15,-67,-22,-83,-22v-45,0,-65,62,-23,78v4,2,22,8,53,18v84,29,132,70,135,172","w":549},"\u00e0":{"d":"374,-626r-215,-89r-62,78r214,83xm138,-137v0,34,27,72,60,71v41,0,74,-16,100,-48r1,-109v-35,0,-118,14,-137,27v-15,11,-24,30,-24,59xm382,11v-27,0,-70,-39,-73,-65v-49,42,-64,67,-124,70v-84,4,-144,-66,-144,-152v0,-55,17,-94,48,-118v27,-21,145,-46,207,-52r0,-52v1,-29,-30,-61,-60,-61v-61,0,-110,23,-148,68r-43,-61v27,-50,117,-99,191,-100v92,-2,168,70,168,163r0,251v0,8,14,22,23,22v21,0,35,-3,42,-10r11,64v-41,22,-73,33,-98,33","w":491},"\u00e1":{"d":"126,-626r215,-89r62,78r-214,83xm138,-137v0,34,27,72,60,71v41,0,74,-16,100,-48r1,-109v-35,0,-118,14,-137,27v-15,11,-24,30,-24,59xm382,11v-27,0,-70,-39,-73,-65v-49,42,-64,67,-124,70v-84,4,-144,-66,-144,-152v0,-55,17,-94,48,-118v27,-21,145,-46,207,-52r0,-52v1,-29,-30,-61,-60,-61v-61,0,-110,23,-148,68r-43,-61v27,-50,117,-99,191,-100v92,-2,168,70,168,163r0,251v0,8,14,22,23,22v21,0,35,-3,42,-10r11,64v-41,22,-73,33,-98,33","w":491},"\u00e2":{"d":"115,-521r0,-88r138,-106r142,106r0,87r-142,-77xm138,-137v0,34,27,72,60,71v41,0,74,-16,100,-48r1,-109v-35,0,-118,14,-137,27v-15,11,-24,30,-24,59xm382,11v-27,0,-70,-39,-73,-65v-49,42,-64,67,-124,70v-84,4,-144,-66,-144,-152v0,-55,17,-94,48,-118v27,-21,145,-46,207,-52r0,-52v1,-29,-30,-61,-60,-61v-61,0,-110,23,-148,68r-43,-61v27,-50,117,-99,191,-100v92,-2,168,70,168,163r0,251v0,8,14,22,23,22v21,0,35,-3,42,-10r11,64v-41,22,-73,33,-98,33","w":491},"\u00e3":{"d":"389,-587v-14,17,-60,37,-86,38v-21,0,-46,-10,-76,-30v-23,-15,-38,-23,-44,-23v-17,0,-39,16,-66,47r-40,-78v42,-51,111,-71,175,-26v56,39,44,36,99,-4xm138,-137v0,34,27,72,60,71v41,0,74,-16,100,-48r1,-109v-35,0,-118,14,-137,27v-15,11,-24,30,-24,59xm382,11v-27,0,-70,-39,-73,-65v-49,42,-64,67,-124,70v-84,4,-144,-66,-144,-152v0,-55,17,-94,48,-118v27,-21,145,-46,207,-52r0,-52v1,-29,-30,-61,-60,-61v-61,0,-110,23,-148,68r-43,-61v27,-50,117,-99,191,-100v92,-2,168,70,168,163r0,251v0,8,14,22,23,22v21,0,35,-3,42,-10r11,64v-41,22,-73,33,-98,33","w":491},"\u00e4":{"d":"355,-526v-40,0,-71,-31,-70,-72v0,-40,30,-72,70,-72v38,0,70,34,70,72v0,39,-30,72,-70,72xm145,-526v-41,0,-70,-32,-70,-72v0,-40,30,-72,70,-72v39,0,70,34,70,72v0,39,-30,72,-70,72xm138,-137v0,34,27,72,60,71v41,0,74,-16,100,-48r1,-109v-35,0,-118,14,-137,27v-15,11,-24,30,-24,59xm382,11v-27,0,-70,-39,-73,-65v-49,42,-64,67,-124,70v-84,4,-144,-66,-144,-152v0,-55,17,-94,48,-118v27,-21,145,-46,207,-52r0,-52v1,-29,-30,-61,-60,-61v-61,0,-110,23,-148,68r-43,-61v27,-50,117,-99,191,-100v92,-2,168,70,168,163r0,251v0,8,14,22,23,22v21,0,35,-3,42,-10r11,64v-41,22,-73,33,-98,33","w":491},"\u00e5":{"d":"331,-653v0,51,-39,87,-91,87v-52,0,-90,-36,-90,-87v0,-50,39,-86,90,-86v52,0,91,36,91,86xm240,-696v-21,0,-32,14,-32,43v0,29,11,44,32,44v22,0,33,-15,33,-44v0,-29,-11,-43,-33,-43xm138,-137v0,34,27,72,60,71v41,0,74,-16,100,-48r1,-109v-35,0,-118,14,-137,27v-15,11,-24,30,-24,59xm382,11v-27,0,-70,-39,-73,-65v-49,42,-64,67,-124,70v-84,4,-144,-66,-144,-152v0,-55,17,-94,48,-118v27,-21,145,-46,207,-52r0,-52v1,-29,-30,-61,-60,-61v-61,0,-110,23,-148,68r-43,-61v27,-50,117,-99,191,-100v92,-2,168,70,168,163r0,251v0,8,14,22,23,22v21,0,35,-3,42,-10r11,64v-41,22,-73,33,-98,33","w":491},"\u00e6":{"d":"541,-429v-79,2,-93,32,-114,104r188,0v0,-69,-24,-105,-74,-104xm369,-58v-62,52,-88,72,-179,74v-86,2,-149,-64,-149,-152v0,-55,17,-96,51,-121v34,-26,137,-53,212,-62r0,-39v1,-29,-31,-51,-61,-51v-31,0,-74,23,-130,68r-61,-81v38,-37,129,-90,191,-90v60,0,107,22,140,66v43,-41,97,-61,164,-61v107,0,182,88,179,203r0,65r-300,0v1,114,43,171,125,171v36,0,74,-26,113,-78r54,71v-47,58,-105,87,-174,87v-76,0,-134,-23,-175,-70xm201,-80v42,1,103,-23,103,-60r0,-74r-53,9v-37,7,-60,12,-69,16v-23,11,-35,29,-35,55v-1,36,17,54,54,54","w":775},"\u00e7":{"d":"276,47v60,-18,116,27,116,85v0,52,-42,87,-97,87v-42,0,-71,-16,-86,-48r37,-34v19,21,35,32,50,32v24,0,36,-11,36,-34v1,-44,-41,-49,-68,-24r-47,-21r4,-82r4,0v-110,-14,-183,-125,-186,-250v-3,-153,92,-268,236,-269v38,0,89,21,152,64r-33,69v-43,-35,-86,-53,-128,-53v-75,0,-110,104,-110,192v0,89,39,172,117,172v39,0,83,-21,130,-64r45,59v-48,54,-101,82,-169,84xm392,132v0,52,-42,87,-97,87v-42,0,-71,-16,-86,-48r37,-34v19,21,35,32,50,32v24,0,36,-11,36,-34v1,-44,-41,-49,-68,-24r-47,-21r5,-82r57,4r-3,35v60,-18,116,27,116,85","w":483},"\u00e8":{"d":"404,-626r-215,-89r-42,78r214,83xm272,-510v107,0,185,86,182,197r0,75r-296,0v1,113,40,169,117,170v43,1,87,-20,130,-63r45,61v-62,55,-83,82,-182,82v-87,0,-151,-36,-191,-108v-25,-47,-38,-97,-38,-151v-2,-148,89,-263,233,-263xm345,-323v3,-73,-23,-109,-80,-109v-58,0,-91,53,-100,109r180,0","w":497},"\u00e9":{"d":"126,-626r215,-89r32,78r-214,83xm272,-510v107,0,185,86,182,197r0,75r-296,0v1,113,40,169,117,170v43,1,87,-20,130,-63r45,61v-62,55,-83,82,-182,82v-87,0,-151,-36,-191,-108v-25,-47,-38,-97,-38,-151v-2,-148,89,-263,233,-263xm345,-323v3,-73,-23,-109,-80,-109v-58,0,-91,53,-100,109r180,0","w":497},"\u00ea":{"d":"135,-561r0,-88r138,-106r142,106r0,87r-142,-77xm272,-510v107,0,185,86,182,197r0,75r-296,0v1,113,40,169,117,170v43,1,87,-20,130,-63r45,61v-62,55,-83,82,-182,82v-87,0,-151,-36,-191,-108v-25,-47,-38,-97,-38,-151v-2,-148,89,-263,233,-263xm345,-323v3,-73,-23,-109,-80,-109v-58,0,-91,53,-100,109r180,0","w":497},"\u00eb":{"d":"355,-556v-41,0,-70,-32,-70,-72v0,-40,30,-72,70,-72v39,0,70,34,70,72v0,39,-30,72,-70,72xm145,-556v-41,0,-70,-32,-70,-72v0,-38,30,-72,70,-72v39,0,70,34,70,72v0,39,-30,72,-70,72xm272,-510v107,0,185,86,182,197r0,75r-296,0v1,113,40,169,117,170v43,1,87,-20,130,-63r45,61v-62,55,-83,82,-182,82v-87,0,-151,-36,-191,-108v-25,-47,-38,-97,-38,-151v-2,-148,89,-263,233,-263xm345,-323v3,-73,-23,-109,-80,-109v-58,0,-91,53,-100,109r180,0","w":497},"\u00ec":{"d":"63,-495r107,0r0,495r-107,0r0,-495xm264,-626r-215,-89r-62,78r214,83","w":249},"\u00ed":{"d":"-10,-626r214,-89r42,78r-214,83xm63,-495r107,0r0,495r-107,0r0,-495","w":234},"\u00ee":{"d":"63,-495r107,0r0,495r-107,0r0,-495xm-25,-521r0,-88r138,-106r142,106r0,87r-142,-77","w":210},"\u00ef":{"d":"63,-495r107,0r0,495r-107,0r0,-495xm225,-556v-41,0,-70,-32,-70,-72v0,-40,30,-72,70,-72v39,0,70,34,70,72v0,39,-30,72,-70,72xm15,-556v-41,0,-70,-32,-70,-72v0,-38,30,-72,70,-72v39,0,70,34,70,72v0,39,-30,72,-70,72","w":207},"\u00f0":{"d":"155,-251v0,84,54,196,128,195v89,-1,128,-93,128,-192r1,-97v-50,-69,-94,-103,-131,-103v-86,2,-126,97,-126,197xm36,-249v0,-165,90,-271,247,-272v17,0,54,19,110,57v1,-27,-33,-63,-50,-82r-140,0r0,-73r88,0v-9,-13,-27,-35,-56,-64r75,-53v39,39,72,78,99,117r134,0r0,73r-75,0v28,56,58,188,57,267v-3,197,-90,296,-262,296v-133,0,-227,-128,-227,-266","w":579},"\u00f1":{"d":"410,-587v-14,17,-60,37,-86,38v-21,0,-46,-10,-76,-30v-23,-15,-38,-23,-44,-23v-17,0,-39,16,-66,47r-40,-78v42,-51,110,-71,174,-26v56,39,45,36,100,-4xm293,-511v89,-1,156,86,156,179r0,332r-107,0r0,-320v0,-52,-15,-97,-57,-101v-44,-5,-115,77,-115,118r0,303r-107,0r0,-496r107,0r0,89v41,-69,82,-104,123,-104","w":486},"\u00f2":{"d":"387,-556r-209,-90r47,-65r210,96xm275,11v-149,0,-236,-111,-236,-263v0,-146,99,-260,237,-260v137,0,231,114,231,260v0,59,-15,112,-45,161v-42,68,-104,102,-187,102xm280,-433v-84,0,-125,93,-125,187v0,87,39,179,116,179v79,0,120,-94,120,-184v0,-87,-36,-181,-111,-182","w":543},"\u00f3":{"d":"168,-626r215,-89r62,78r-214,83xm275,11v-149,0,-236,-111,-236,-263v0,-146,99,-260,237,-260v137,0,231,114,231,260v0,59,-15,112,-45,161v-42,68,-104,102,-187,102xm280,-433v-84,0,-125,93,-125,187v0,87,39,179,116,179v79,0,120,-94,120,-184v0,-87,-36,-181,-111,-182","w":543},"\u00f4":{"d":"145,-521r0,-88r138,-106r142,106r0,87r-142,-77xm275,11v-149,0,-236,-111,-236,-263v0,-146,99,-260,237,-260v137,0,231,114,231,260v0,59,-15,112,-45,161v-42,68,-104,102,-187,102xm280,-433v-84,0,-125,93,-125,187v0,87,39,179,116,179v79,0,120,-94,120,-184v0,-87,-36,-181,-111,-182","w":543},"\u00f5":{"d":"441,-587v-14,17,-60,37,-86,38v-19,0,-45,-10,-76,-30v-24,-15,-39,-23,-44,-23v-17,0,-39,16,-66,47r-39,-78v42,-51,111,-71,174,-26v56,40,45,36,100,-4xm275,11v-149,0,-236,-111,-236,-263v0,-146,99,-260,237,-260v137,0,231,114,231,260v0,59,-15,112,-45,161v-42,68,-104,102,-187,102xm280,-433v-84,0,-125,93,-125,187v0,87,39,179,116,179v79,0,120,-94,120,-184v0,-87,-36,-181,-111,-182","w":543},"\u00f6":{"d":"385,-556v-41,0,-70,-32,-70,-72v0,-40,30,-72,70,-72v39,0,70,34,70,72v0,39,-30,72,-70,72xm175,-556v-41,0,-70,-32,-70,-72v0,-38,30,-72,70,-72v39,0,70,34,70,72v0,39,-30,72,-70,72xm275,11v-149,0,-236,-111,-236,-263v0,-146,99,-260,237,-260v137,0,231,114,231,260v0,59,-15,112,-45,161v-42,68,-104,102,-187,102xm280,-433v-84,0,-125,93,-125,187v0,87,39,179,116,179v79,0,120,-94,120,-184v0,-87,-36,-181,-111,-182","w":543},"\u00f7":{"d":"262,-402v-40,0,-72,-37,-72,-78v0,-42,32,-79,72,-79v41,0,73,37,73,79v0,41,-32,78,-73,78xm52,-360r404,0r0,100r-404,0r0,-100xm262,-63v-40,0,-72,-38,-72,-79v0,-41,32,-78,72,-78v41,0,73,37,73,78v0,42,-32,79,-73,79","w":496},"\u00f8":{"d":"39,-252v-3,-149,100,-264,248,-260r21,-71r108,34r-21,71v75,46,112,121,112,226v0,59,-15,112,-45,161v-47,74,-113,108,-213,101r-19,64r-107,-34r19,-65v-63,-40,-101,-125,-103,-227xm263,-432v-102,13,-134,191,-87,293xm272,-67v121,-1,147,-207,92,-308","w":546},"\u00f9":{"d":"355,-556r-208,-90r46,-65r211,96xm222,-75v39,0,117,-79,117,-114r0,-306r107,0r0,495r-97,0v-2,-18,-5,-42,-10,-71v-46,59,-87,89,-124,89v-91,0,-152,-87,-152,-184r0,-329r107,0r0,326v0,63,17,94,52,94","w":482},"\u00fa":{"d":"126,-626r215,-89r62,78r-214,83xm222,-75v39,0,117,-79,117,-114r0,-306r107,0r0,495r-97,0v-2,-18,-5,-42,-10,-71v-46,59,-87,89,-124,89v-91,0,-152,-87,-152,-184r0,-329r107,0r0,326v0,63,17,94,52,94","w":482},"\u00fb":{"d":"125,-521r0,-88r138,-106r142,106r0,87r-142,-77xm222,-75v39,0,117,-79,117,-114r0,-306r107,0r0,495r-97,0v-2,-18,-5,-42,-10,-71v-46,59,-87,89,-124,89v-91,0,-152,-87,-152,-184r0,-329r107,0r0,326v0,63,17,94,52,94","w":482},"\u00fc":{"d":"365,-556v-41,0,-70,-32,-70,-72v0,-40,30,-72,70,-72v39,0,70,34,70,72v0,39,-30,72,-70,72xm155,-556v-41,0,-70,-32,-70,-72v0,-38,30,-72,70,-72v39,0,70,34,70,72v0,39,-30,72,-70,72xm222,-75v39,0,117,-79,117,-114r0,-306r107,0r0,495r-97,0v-2,-18,-5,-42,-10,-71v-46,59,-87,89,-124,89v-91,0,-152,-87,-152,-184r0,-329r107,0r0,326v0,63,17,94,52,94","w":482},"\u00fe":{"d":"429,-47v-55,66,-185,90,-256,32r0,210r-113,0r0,-880r113,0r0,253v29,-28,48,-45,55,-50v23,-17,43,-26,62,-26v128,-2,203,110,203,245v0,95,-22,166,-64,216xm277,-413v-42,0,-86,70,-104,111r0,191v15,15,70,39,99,38v74,-1,105,-94,105,-180v0,-82,-28,-160,-100,-160","w":522},"\u00ff":{"d":"119,196v-17,0,-49,-8,-97,-24r32,-95v60,29,101,35,125,-38r29,-87r-180,-425r106,-30r127,366r108,-364r100,25r-199,554v-21,60,-78,118,-151,118xm343,-526v-41,0,-70,-32,-70,-72v0,-38,30,-72,70,-72v39,0,70,34,70,72v0,39,-30,72,-70,72xm134,-526v-40,0,-71,-31,-70,-72v0,-40,30,-72,70,-72v38,0,69,34,69,72v0,38,-29,72,-69,72","w":467},"\u0152":{"d":"42,-340v0,-180,124,-317,300,-317v100,0,181,49,243,147r0,-129r379,0r0,105r-287,0r0,144r278,0r0,99r-278,0r0,184r287,0r0,107r-379,0r0,-157v-64,107,-147,160,-249,160v-184,0,-294,-149,-294,-343xm341,-558v-109,0,-180,112,-180,227v0,113,71,233,175,233v104,0,182,-120,182,-233v0,-117,-67,-227,-177,-227","w":1028},"\u0153":{"d":"339,-423v-87,0,-130,82,-130,177v0,87,41,170,121,170v83,0,124,-84,124,-175v0,-87,-38,-171,-115,-172xm743,-507v110,0,183,80,181,194r0,75r-295,0v4,113,40,170,107,170v47,0,89,-27,126,-80r62,80v-57,53,-122,80,-195,80v-105,0,-155,-42,-191,-121v-43,80,-111,120,-204,120v-153,0,-242,-109,-245,-263v-3,-147,104,-260,246,-260v95,0,173,53,208,122v43,-78,109,-117,200,-117xm820,-323v-2,-53,-32,-106,-84,-106v-58,0,-89,35,-94,106r178,0","w":1033},"\u0178":{"d":"316,0r-119,0r0,-271r-171,-350r110,-33r123,279r121,-279r106,33r-170,350r0,271xm376,-686v-40,0,-71,-31,-70,-72v0,-40,30,-72,70,-72v38,0,70,34,70,72v0,39,-30,72,-70,72xm166,-686v-41,0,-70,-32,-70,-72v0,-40,30,-72,70,-72v39,0,70,34,70,72v0,39,-30,72,-70,72","w":482},"\u02c6":{"d":"35,-521r0,-88r138,-106r142,106r0,87r-142,-77","w":337},"\u02dc":{"d":"352,-587v-14,17,-60,37,-86,38v-21,0,-46,-10,-76,-30v-23,-15,-38,-23,-44,-23v-17,0,-39,16,-66,47r-40,-78v44,-51,111,-72,174,-26v54,39,48,36,100,-4","w":375},"\u2013":{"d":"34,-363r432,0r0,71r-432,0r0,-71"},"\u2014":{"d":"27,-363r946,0r0,71r-946,0r0,-71","w":1000},"\u2018":{"d":"1,-493v1,-53,43,-146,70,-182r66,3v-25,64,-27,76,-31,179r-105,0","w":138},"\u2019":{"d":"1,-506v25,-64,27,-76,31,-179r105,0v0,52,-44,158,-70,192","w":138},"\u201a":{"d":"1,94v25,-64,27,-76,31,-179r105,0v0,52,-44,158,-70,192","w":214},"\u201c":{"d":"251,-493v1,-53,43,-146,70,-182r66,3v-25,64,-27,76,-31,179r-105,0xm51,-493v1,-53,43,-146,70,-182r66,3v-25,64,-27,76,-31,179r-105,0","w":429},"\u201d":{"d":"51,-496v25,-64,27,-76,31,-179r105,0v0,52,-44,158,-70,192xm251,-496v25,-64,27,-76,31,-179r105,0v0,52,-44,158,-70,192","w":429},"\u201e":{"d":"51,104v25,-64,27,-76,31,-179r105,0v0,52,-44,158,-70,192xm251,104v25,-64,27,-76,31,-179r105,0v0,52,-44,158,-70,192","w":417},"\u2022":{"d":"231,-291v0,53,-41,101,-91,101v-52,0,-92,-46,-92,-101v0,-54,41,-100,92,-100v50,0,91,47,91,100","w":282},"\u2026":{"d":"690,36v-48,0,-87,-38,-87,-89v0,-51,36,-90,87,-89v49,0,86,36,86,89v0,52,-37,89,-86,89xm451,36v-48,0,-87,-38,-87,-89v0,-51,36,-90,87,-89v49,0,86,36,86,89v0,52,-37,89,-86,89xm212,36v-48,0,-87,-38,-87,-89v0,-51,36,-90,87,-89v49,0,86,36,86,89v0,52,-37,89,-86,89","w":900},"\u2039":{"d":"297,-126r-102,4r-146,-167r146,-162r102,4r-124,161","w":319},"\u203a":{"d":"30,-126r123,-160r-123,-161r101,-4r146,162r-146,167","w":317},"\u2122":{"d":"174,-315r-64,0r0,-275r-95,0r0,-52r248,0r0,52r-89,0r0,275xm555,-514r-76,199r-54,0r-77,-201r0,201r-60,0r0,-329r78,0r89,229r89,-229r75,0r0,329r-64,0r0,-199","w":641}}});
