/*!
 * The following copyright notice may not be removed under any circumstances.
 * 
 * Copyright:
 * This font drawn by, and copyright, Ben Weiner, 1999-2001. Modifications for
 * version 2.0 copyright Ben Weiner, 2006-7. Licensed under the Open Font License
 * (http://scripts.sil.org/OFL). See accompanying license and FONTLOG.
 */
Cufon.registerFont({"w":500,"face":{"font-family":"Puritan 2.0","font-weight":700,"font-style":"italic","font-stretch":"normal","units-per-em":"1000","panose-1":"0 0 7 0 0 0 0 0 0 0","ascent":"800","descent":"-200","x-height":"11","bbox":"-185 -875 997 242","underline-thickness":"20","underline-position":"-133","unicode-range":"U+0020-U+2122"},"glyphs":{" ":{"w":273},"!":{"d":"40,-172r54,-514r125,0r-54,514r-125,0xm92,-122v41,0,73,36,70,78v-4,61,-94,105,-138,54v-45,-52,6,-132,68,-132","w":235},"\"":{"d":"202,-645r-2,220r34,0r63,-220r-95,0xm61,-645r-2,220r33,0r63,-220r-94,0","w":329},"#":{"d":"377,-529r-4,34r72,-7r-9,83r-72,8r-10,87r-89,10r11,-88r-37,4r-10,87r-89,10r10,-88r-93,10r9,-83r93,-10r4,-35r-92,10r8,-83r93,-10r7,-68r89,-9r-8,67r38,-3r7,-68r89,-11r-8,69r73,-7r-9,83xm248,-482r36,-3r4,-35r-36,4","w":536},"$":{"d":"286,100r-117,0r10,-90v-58,-11,-101,-41,-130,-90r74,-79v35,50,75,75,119,75v47,0,86,-43,89,-90v3,-28,-15,-50,-53,-67v-69,-31,-106,-47,-110,-50v-47,-34,-66,-80,-59,-150v8,-77,66,-138,134,-160r10,-89r117,0r-10,86v33,9,69,32,108,67r-70,77v-37,-36,-70,-54,-101,-54v-42,1,-67,35,-71,78v-3,24,15,43,53,57v59,22,95,37,108,46v46,32,65,86,57,158v-10,95,-59,156,-148,182","w":536},"%":{"d":"45,-497v0,-79,57,-153,133,-153v68,0,113,59,105,132v-8,76,-56,132,-132,133v-66,0,-106,-43,-106,-112xm-32,46r439,-680r95,38r-432,678xm253,-108v0,-87,57,-155,136,-157v68,-1,113,62,105,134v-8,79,-55,136,-133,137v-67,1,-108,-44,-108,-114xm139,-515v-3,27,4,41,21,41v16,0,25,-14,28,-41v3,-29,-3,-44,-20,-44v-16,0,-26,15,-29,44xm349,-127v-3,28,4,42,21,42v16,0,25,-14,28,-42v3,-30,-3,-45,-20,-45v-16,0,-26,15,-29,45","w":536},"&":{"d":"166,-292v-40,23,-70,123,-34,179v15,25,38,38,69,38v27,0,57,-15,88,-45v-64,-68,-105,-125,-123,-172xm452,-330v5,93,-4,116,-29,185v13,13,42,32,87,58r-73,87v-21,-8,-50,-28,-86,-60v-25,35,-96,69,-155,69v-110,0,-187,-61,-187,-165v0,-90,58,-169,121,-207v-41,-85,-21,-176,40,-230v50,-44,127,-62,192,-34v22,9,43,30,64,59r-63,62v-22,-31,-54,-46,-96,-46v-27,0,-43,21,-48,63v-2,19,2,44,11,75v29,-11,66,-17,111,-18r8,80v-34,0,-61,3,-80,8v32,53,61,97,87,131v11,-29,10,-62,6,-101","w":555},"'":{"d":"62,-646r5,233r29,0r60,-233r-94,0","w":194},"(":{"d":"146,-235v0,141,18,173,55,335r-88,43v-128,-328,-81,-651,98,-932r76,45v-78,163,-123,303,-136,421v-3,30,-5,59,-5,88","w":318},")":{"d":"29,100v48,-109,77,-177,87,-204v75,-205,72,-405,4,-641r86,-43v46,109,69,228,69,355v0,200,-56,392,-167,576","w":316},"*":{"d":"162,-500r-4,54r-75,0r8,-54r-46,38r-35,-70r64,-37r-55,-38r47,-70r40,39r4,-56r75,2r-9,52r45,-38r33,71r-61,37r55,38r-49,70","w":275},"+":{"d":"295,-96r-92,0r0,-170r-151,0r0,-94r151,0r0,-161r92,0r0,161r151,0r0,94r-151,0r0,170","w":498},",":{"d":"187,-85v-5,52,-61,158,-90,192r-65,-13v33,-64,35,-76,50,-179r105,0","w":254},"-":{"d":"55,-360r280,0r-10,93r-280,0","w":380},"\u2010":{"d":"55,-360r280,0r-10,93r-280,0","w":380},".":{"d":"56,-16v-34,-36,-21,-92,12,-122v35,-32,92,-35,123,0v33,36,21,93,-13,122v-36,31,-90,35,-122,0","w":244},"\/":{"d":"-58,149r400,-856r118,24r-399,856","w":385},"0":{"d":"214,12v-150,0,-228,-152,-207,-327v12,-96,37,-175,81,-236v51,-70,116,-105,196,-105v163,-1,228,161,207,341v-9,80,-34,151,-79,212v-55,77,-121,115,-198,115xm224,-85v49,0,86,-28,115,-84v28,-53,42,-147,43,-228v0,-108,-36,-162,-108,-162v-53,0,-93,30,-118,89v-18,40,-34,136,-35,214v0,114,34,171,103,171"},"1":{"d":"440,-100r-10,100r-362,0r10,-100r133,0r46,-434r-124,0r10,-103r232,0r-56,537r121,0"},"2":{"d":"284,-658v110,0,195,72,194,179v0,48,-18,96,-51,146v-50,75,-159,159,-236,222r266,0r-12,111r-396,0r11,-99r200,-196v60,-58,92,-111,97,-160v7,-60,-22,-110,-81,-110v-39,0,-78,29,-117,88r-70,-50v57,-87,122,-131,195,-131"},"3":{"d":"277,-572v-57,0,-67,25,-107,66r-56,-57v57,-65,114,-97,172,-97v95,0,187,75,173,171v-10,72,-49,106,-112,138v58,29,110,97,103,177v-8,92,-116,193,-221,193v-91,0,-158,-29,-201,-88r59,-76v44,51,87,77,130,77v71,1,118,-49,124,-115v6,-66,-37,-111,-102,-109r-62,0r9,-86v60,0,101,3,136,-30v35,-34,56,-94,18,-136v-16,-18,-38,-28,-63,-28"},"4":{"d":"127,-230r148,0r25,-234xm360,0r-109,0r15,-141r-269,0r8,-76r329,-434r94,0r-44,421r87,0r-9,89r-87,0"},"5":{"d":"458,-233v0,147,-129,257,-276,257v-92,0,-153,-29,-183,-88r56,-74v36,51,84,77,143,77v74,0,148,-85,148,-166v0,-64,-34,-96,-103,-96v-38,0,-95,42,-114,69r-80,-20r39,-370r370,0r-12,111r-290,0r-19,186v27,-35,87,-75,142,-75v106,0,179,81,179,189"},"6":{"d":"368,-220v0,-65,-36,-106,-99,-106v-79,0,-138,59,-145,133v-7,77,36,135,110,135v69,0,134,-90,134,-162xm225,22v-158,1,-234,-121,-214,-292v13,-112,41,-201,86,-267v86,-124,238,-155,386,-74r-49,83v-29,-24,-69,-36,-119,-36v-52,0,-95,24,-128,73v-27,39,-46,91,-57,156v23,-45,100,-86,166,-87v108,-2,181,70,181,178v0,149,-109,265,-252,266"},"7":{"d":"155,32r-106,-30r327,-537r-316,0r12,-109r422,0r-11,101"},"8":{"d":"125,-179v-9,69,33,120,96,121v66,0,118,-58,124,-121v5,-59,-25,-103,-94,-132v-79,38,-119,82,-126,132xm286,-583v-49,1,-87,40,-94,86v3,45,26,77,68,96v63,-23,95,-55,100,-94v6,-46,-30,-89,-74,-88xm216,28v-125,0,-208,-74,-195,-205v8,-71,60,-129,155,-175v-65,-46,-94,-93,-90,-142v9,-101,97,-164,208,-164v88,0,160,50,160,136v0,61,-38,116,-113,164v79,45,118,98,118,160v2,134,-105,226,-243,226"},"9":{"d":"287,-656v146,3,226,129,205,293v-12,99,-35,182,-72,248v-54,94,-129,141,-226,141v-79,0,-145,-27,-196,-82r68,-77v47,44,68,67,146,67v47,0,85,-27,115,-81v23,-42,38,-94,45,-155v-53,56,-104,84,-153,84v-102,1,-184,-80,-184,-186v0,-137,115,-255,252,-252xm381,-447v0,-71,-36,-125,-103,-125v-107,0,-172,140,-111,232v19,29,45,44,76,44v82,2,138,-70,138,-151"},":":{"d":"74,-358v-34,-36,-22,-94,12,-123v35,-31,92,-34,123,0v33,36,20,93,-13,123v-36,31,-90,35,-122,0xm38,-16v-34,-36,-21,-92,12,-122v35,-32,92,-35,123,0v33,36,21,93,-13,122v-36,31,-90,35,-122,0","w":244},";":{"d":"91,-418v6,-57,32,-86,78,-86v44,0,63,29,57,86v-6,57,-31,86,-75,86v-46,0,-66,-29,-60,-86xm165,-85v-5,52,-61,158,-90,192r-65,-13v33,-64,35,-76,50,-179r105,0","w":254},"<":{"d":"359,-46r-122,4r-237,-247r236,-240r123,4r-201,240","w":366},"=":{"d":"89,-352r321,0r0,98r-321,0r0,-98xm89,-223r321,0r0,98r-321,0r0,-98","w":441},">":{"d":"-14,-46r201,-239r-203,-240r123,-4r236,240r-236,247","w":365},"?":{"d":"222,13v-41,0,-73,-31,-68,-73v4,-38,42,-74,83,-74v42,0,77,32,72,74v-4,40,-43,73,-87,73xm307,-691v117,-1,196,61,182,182v-9,80,-44,110,-105,153v-39,27,-68,62,-87,105v-5,10,-9,34,-13,73r-98,0v-3,-25,7,-64,10,-90v5,-35,14,-63,31,-84v13,-17,42,-44,88,-77v54,-39,75,-90,39,-147v-13,-20,-32,-29,-53,-29v-53,0,-96,35,-127,105r-90,-39v29,-55,61,-94,94,-117v33,-23,76,-35,129,-35","w":546},"@":{"d":"249,-199v0,-155,127,-321,280,-321v44,0,71,30,97,50r8,-40r90,0v-9,115,-38,265,-58,381r8,48v4,11,19,17,45,17v63,-1,132,-127,132,-205v0,-198,-140,-354,-338,-354v-193,0,-361,190,-361,385v0,203,129,398,321,395v168,-3,212,-43,314,-136r60,69v-67,61,-117,99,-152,115v-52,25,-126,37,-222,37v-265,0,-440,-210,-440,-480v0,-250,226,-460,480,-460v258,0,437,174,437,429v0,139,-142,290,-281,290v-40,0,-71,-32,-92,-97v-45,64,-96,96,-153,96v-117,0,-175,-73,-175,-219xm617,-387v-13,-19,-62,-49,-91,-49v-33,0,-65,15,-94,46v-40,41,-60,100,-60,178v-1,88,15,139,87,142v43,2,116,-86,124,-129","w":1010},"A":{"d":"362,-148r-207,0r-63,160r-103,-14r277,-652r102,0r142,647r-118,19xm192,-241r153,0r-48,-260","w":568},"B":{"d":"343,-351v68,3,124,81,114,159v-19,143,-110,196,-281,194r-147,-4r68,-639r194,-4v95,-1,157,48,157,140v0,78,-35,115,-105,154xm207,-569r-20,189v52,1,91,1,119,-28v18,-17,28,-39,31,-65v6,-65,-18,-98,-73,-98v-14,0,-33,1,-57,2xm179,-304r-23,223v64,1,119,3,152,-32v34,-35,50,-108,15,-155v-29,-39,-81,-37,-144,-36","w":501},"C":{"d":"29,-278v0,-195,132,-382,319,-382v57,0,120,23,190,69r-50,78v-39,-25,-60,-38,-61,-39v-88,-39,-158,-9,-208,73v-35,58,-54,115,-56,195v-3,97,53,188,139,188v68,0,86,-19,149,-51r39,78v-83,48,-116,75,-217,77v-159,4,-244,-122,-244,-286","w":557},"D":{"d":"536,-383v0,236,-120,383,-348,385r-159,-4r68,-641v53,-3,108,-4,163,-4v184,0,276,88,276,264xm410,-374v-1,-151,-62,-208,-199,-194r-51,481v93,5,137,-8,188,-73v44,-57,62,-123,62,-214","w":565},"E":{"d":"186,-391r227,0r-9,89r-227,-1r-22,214r240,0r-10,89r-356,0r68,-640r359,0r-9,85r-243,0","w":462},"F":{"d":"186,-391r229,0r-9,89r-229,0r-32,302r-116,0r68,-640r360,0r-9,85r-244,0","w":463},"G":{"d":"163,-318v-13,109,26,226,118,226v41,0,73,-5,96,-16r21,-196r-131,0r9,-87r250,0r-35,326v-84,47,-118,69,-224,71v-166,3,-255,-149,-236,-329v9,-81,35,-155,85,-220v81,-106,180,-142,320,-100v43,14,77,32,101,53r-49,76v-104,-76,-203,-81,-271,36v-30,50,-48,103,-54,160","w":582},"H":{"d":"399,-302r-219,0r-32,302r-119,0r68,-640r119,0r-27,249r219,0r27,-249r118,0r-68,640r-118,0","w":582},"I":{"d":"97,-641r119,0r-68,641r-119,0","w":245},"J":{"d":"-117,36v27,35,40,55,89,55v39,0,64,-50,75,-151r60,-580r120,0r-60,573v-17,169,-83,254,-197,254v-85,0,-101,-23,-155,-76","w":247},"K":{"d":"209,-255r-40,49r-21,206r-119,0r67,-641r119,0r-30,290r235,-322r99,53r-238,290v44,88,159,231,228,322r-144,31v-56,-89,-108,-182,-156,-278","w":542},"L":{"d":"97,-641r117,0r-59,556r258,0r-9,85r-375,0","w":501},"M":{"d":"599,-427r-197,428r-104,0r-107,-432r-46,431r-106,0r68,-642r152,0r124,472r228,-472r142,0r-68,642r-131,0","w":793},"N":{"d":"176,-401r-43,401r-103,0r68,-644r96,0r215,405r42,-401r102,0r-65,625r-99,30v-53,-120,-124,-259,-213,-416","w":582},"O":{"d":"284,16v-178,0,-270,-143,-251,-338v17,-172,149,-324,328,-324v170,0,273,139,253,324v-11,106,-49,189,-113,251v-60,58,-132,87,-217,87xm490,-352v0,-106,-47,-205,-140,-206v-60,0,-109,33,-147,100v-32,57,-48,117,-48,182v0,101,49,201,139,202v59,0,107,-33,146,-99v33,-56,50,-116,50,-179","w":644},"P":{"d":"462,-473v0,111,-125,220,-239,216v-7,0,-24,-1,-51,-2r-27,259r-116,0r68,-641r188,-3v99,-3,177,73,177,171xm346,-469v2,-76,-56,-111,-141,-100r-25,242v99,9,164,-53,166,-142","w":475},"Q":{"d":"365,-646v157,0,257,119,257,277v0,107,-33,190,-99,247r116,116r-84,84r-117,-119v-56,40,-106,60,-150,60v-176,0,-274,-143,-253,-340v18,-172,150,-325,330,-325xm494,-355v2,-105,-47,-202,-140,-202v-60,0,-109,33,-147,99v-33,57,-49,117,-49,182v0,101,48,203,137,204v28,0,55,-10,81,-29r-70,-63r87,-83r63,62v21,-26,37,-102,38,-170","w":658},"R":{"d":"361,11v-74,-89,-98,-139,-166,-274r-22,0r-27,263r-116,0r67,-641r193,-3v113,1,169,52,169,155v0,109,-66,185,-150,213v45,73,112,160,201,260xm206,-569r-25,236r41,0v73,0,114,-42,123,-126v7,-67,-21,-116,-85,-112","w":522},"S":{"d":"422,-223v-1,143,-94,233,-234,233v-90,0,-153,-31,-190,-92r62,-77v35,47,79,70,130,70v69,0,108,-34,115,-102v3,-34,-16,-60,-57,-79r-124,-55v-52,-35,-71,-86,-65,-161v8,-93,104,-178,203,-178v69,0,130,24,181,71r-49,84v-41,-43,-81,-64,-122,-64v-65,1,-86,28,-93,88v-3,30,16,54,57,72v73,32,113,50,120,54v44,31,66,76,66,136","w":454},"T":{"d":"298,0r-119,0r59,-558r-182,0r9,-81r473,0r-9,81r-172,0","w":536},"U":{"d":"174,-235v-11,89,35,164,111,164v77,0,127,-82,136,-164r43,-405r119,0r-43,405v-10,143,-127,252,-277,252v-138,0,-224,-102,-208,-252r43,-405r119,0","w":611},"V":{"d":"192,10r-152,-636r127,-31r105,470r194,-471r100,33r-287,635r-87,0","w":542},"W":{"d":"495,6r-80,-402r-171,402r-88,0r-113,-628r135,-26r66,440r155,-428r103,0r65,427r150,-440r97,28r-241,627r-78,0","w":789},"X":{"d":"267,-244r-166,274r-107,-40r221,-307r-146,-304r120,-41r104,255r160,-257r89,44r-207,291r180,319r-129,35","w":552},"Y":{"d":"276,0r-118,0r28,-271r-144,-350r126,-33r100,283r165,-283r89,33r-218,350","w":503},"Z":{"d":"455,-99r-11,99r-417,0r-18,-74r357,-476r-274,2r10,-91r403,0r14,84r-348,456r284,0","w":544},"[":{"d":"117,-740r156,0r-9,87r-58,0r-70,662r65,0r-11,105r-163,0","w":225},"\\":{"d":"50,-683r111,-24r189,856r-111,24","w":385},"]":{"d":"16,9r65,0r70,-662r-57,0r9,-87r152,0r-90,854r-160,0","w":266},"^":{"d":"152,-443r-52,-72r180,-171r147,171r-68,72r-92,-119","w":536},"_":{"d":"8,50r525,0r-6,59r-525,0","w":536},"`":{"d":"323,-626r-206,-89r-70,78r206,83","w":329},"a":{"d":"296,-223v-36,0,-119,15,-139,27v-27,16,-44,76,-18,108v11,14,24,22,40,22v40,0,75,-16,105,-48xm355,11v-27,-1,-65,-39,-66,-65v-53,41,-71,70,-132,70v-81,0,-139,-61,-128,-152v6,-55,27,-94,61,-118v29,-21,148,-46,212,-52v3,-35,15,-69,-8,-94v-11,-12,-24,-19,-40,-19v-61,0,-112,23,-155,68r-37,-61v50,-77,232,-148,316,-54v28,32,42,70,37,117r-27,251v0,8,12,22,21,22v21,0,36,-3,43,-10r4,64v-43,22,-77,33,-101,33","w":491},"b":{"d":"328,-518v106,-1,157,114,144,233v-22,197,-97,295,-227,295v-23,0,-61,-19,-113,-56r-13,47r-91,0r73,-701r108,0r-28,266v21,-36,96,-83,147,-84xm149,-128v15,21,63,48,97,48v38,0,66,-22,84,-67v13,-31,28,-108,28,-168v0,-76,-25,-114,-75,-114v-37,0,-75,31,-112,94","w":515},"c":{"d":"246,12v-142,0,-220,-104,-208,-254v7,-90,43,-158,100,-207v48,-42,103,-63,164,-62v39,0,87,21,146,64r-40,69v-81,-71,-174,-79,-224,31v-44,98,-51,280,70,280v39,0,85,-21,137,-64r38,59v-54,56,-115,84,-183,84","w":479},"d":{"d":"218,-518v82,0,78,10,135,56r24,-235r108,0r-73,698r-92,0r-3,-50v-34,19,-94,61,-132,62v-108,2,-160,-100,-160,-218v0,-66,16,-131,48,-196v39,-78,87,-117,145,-117xm246,-429v-55,0,-88,57,-100,170v-1,17,-2,33,-2,49v0,90,25,135,74,135v20,0,53,-17,99,-52r23,-215v-19,-31,-31,-50,-37,-57v-17,-20,-36,-30,-57,-30","w":511},"e":{"d":"299,-510v106,0,175,81,162,197r-8,75r-296,0v-1,16,-2,30,-2,43v0,84,34,126,101,127v43,1,89,-20,137,-63r38,61v-68,56,-90,79,-190,82v-133,3,-206,-95,-204,-230v2,-163,104,-292,262,-292xm353,-323v9,-62,-12,-112,-69,-109v-59,3,-96,54,-111,109r180,0","w":491},"f":{"d":"330,-623v-48,-45,-105,-55,-114,29r-10,96r124,0r-9,90r-124,0r-43,408r-105,0r43,-408r-70,0r9,-90r70,0r6,-53v13,-130,68,-195,165,-195v74,0,62,7,113,56","w":324},"g":{"d":"115,6v-45,1,-82,-31,-78,-74v-6,-22,96,-98,95,-102v-93,-75,-79,-206,5,-279v41,-36,88,-55,142,-55v63,0,107,19,134,58r137,-59r-12,113r-99,0v7,33,9,56,8,69v-9,117,-127,217,-260,177v-12,11,-24,25,-37,42v-2,21,12,33,42,37v5,1,29,1,72,1v67,0,109,3,127,9v47,14,64,57,58,117v-7,59,-46,106,-117,140v-55,26,-109,39,-163,39v-89,1,-162,-37,-154,-122v3,-36,37,-73,100,-111xm269,-428v-70,2,-116,108,-78,178v27,50,89,48,122,4v30,-40,48,-98,14,-148v-15,-23,-34,-34,-58,-34xm174,16v-20,11,-51,56,-51,95v0,37,26,56,78,56v57,0,142,-55,144,-104v3,-45,-23,-46,-77,-47r-94,0","w":511},"h":{"d":"309,-511v83,2,149,78,139,172r-36,339r-107,0r35,-326v5,-49,-7,-94,-46,-94v-30,0,-60,16,-89,47v-24,25,-37,43,-38,54r-34,319r-107,0r74,-696r107,0r-31,290v45,-70,89,-105,133,-105","w":512},"i":{"d":"140,-582v-39,0,-69,-33,-66,-75v4,-59,87,-101,130,-53v44,49,-5,128,-64,128xm77,-495r107,0r-52,495r-107,0","w":233},"j":{"d":"116,-711v47,-42,126,-13,120,53v-6,59,-89,101,-132,53v-28,-30,-16,-81,12,-106xm138,55v-14,109,-78,131,-180,168r-29,-91v58,-17,97,-38,100,-68r59,-559r108,0","w":233},"k":{"d":"188,-222r-34,44r-19,179r-107,0r73,-698r107,0r-43,408r204,-247r88,65r-205,196r191,244r-102,62","w":476},"l":{"d":"101,-698r106,0r-74,698r-106,0","w":234},"m":{"d":"325,-507v51,0,102,52,113,95v57,-67,108,-100,152,-100v84,0,141,79,132,168r-36,344r-112,0r36,-339v5,-45,-8,-81,-46,-81v-16,0,-37,11,-64,34v-32,27,-50,57,-53,89r-31,297r-112,0r34,-324v6,-41,-16,-89,-49,-92v-36,-3,-111,80,-114,110r-32,306r-107,0r52,-496r107,0r-9,89v49,-67,96,-100,139,-100","w":776},"n":{"d":"320,-511v88,1,148,79,137,179r-35,332r-107,0r34,-320v6,-53,-8,-106,-47,-101v-44,-5,-123,79,-127,118r-32,303r-107,0r52,-496r107,0r-9,89v47,-69,92,-104,134,-104","w":512},"o":{"d":"248,11v-150,0,-223,-105,-209,-263v12,-142,120,-260,264,-260v135,0,221,109,204,260v-15,134,-117,263,-259,263xm299,-433v-91,-3,-146,118,-146,218v0,77,30,146,99,148v88,2,141,-121,141,-218v0,-76,-28,-146,-94,-148","w":546},"p":{"d":"197,-414v17,-45,87,-99,146,-99v101,1,151,66,151,197v0,17,-1,36,-3,55v-20,189,-99,284,-238,284v-20,0,-52,-17,-97,-51r-23,225r-107,0r73,-693r107,0xm299,-421v-33,-1,-103,81,-113,111r-21,196v73,58,131,70,176,-16v24,-45,36,-113,36,-177v0,-76,-26,-114,-78,-114","w":517},"q":{"d":"235,-508v72,0,85,16,134,58r5,-46r107,0r-73,693r-107,0r25,-240v-67,44,-112,66,-133,66v-121,-1,-162,-137,-146,-275v6,-57,25,-112,57,-164v38,-61,82,-92,131,-92xm357,-341v-5,-31,-48,-81,-84,-81v-80,1,-116,117,-114,215v0,41,6,74,20,100v28,50,57,55,102,14v32,-30,52,-43,55,-45","w":511},"r":{"d":"187,-415v16,-32,58,-91,96,-91v25,0,45,3,61,10r-25,124v-33,-23,-80,-16,-115,19v-17,17,-27,31,-28,41r-33,312r-107,0r53,-496r107,0","w":338},"s":{"d":"27,-66r64,-75v30,47,66,70,109,70v42,1,75,-27,78,-64v3,-33,-32,-62,-105,-83v-70,-20,-110,-50,-104,-131v7,-95,83,-165,184,-165v44,0,93,18,146,54r-47,74v-35,-27,-69,-41,-101,-41v-39,0,-70,24,-73,56v-2,18,4,30,18,36v22,9,44,17,65,24v93,29,135,77,129,146v-9,105,-91,179,-203,179v-72,0,-125,-27,-160,-80","w":437},"t":{"d":"312,-33v-71,35,-65,41,-153,41v-57,0,-85,-41,-85,-123v0,-12,1,-25,2,-39r27,-256r-70,0r9,-82r70,0r11,-105r113,0r-11,105r100,0r-9,83r-100,-1r-28,267v-5,43,5,64,30,64v45,2,51,-10,77,-23","w":351},"u":{"d":"188,18v-88,-1,-144,-82,-133,-184r35,-329r107,0r-36,353v0,45,15,67,44,67v40,0,125,-80,129,-114r32,-306r107,0r-52,495r-97,0v-1,-18,-2,-42,-3,-71v-52,59,-96,89,-133,89","w":511},"v":{"d":"169,12r-129,-486r111,-31r72,384r147,-384r102,31r-227,486r-76,0","w":464},"w":{"d":"452,9r-76,-316r-144,316r-87,0r-99,-484r113,-28r53,384r140,-374r94,0r66,373r127,-383r104,28r-206,484r-85,0","w":735},"x":{"d":"237,-183r-167,214r-86,-63r193,-214r-131,-208r107,-60r104,197r150,-196r83,51r-181,211r151,220r-100,64","w":488},"y":{"d":"180,157v-65,49,-107,50,-197,15r42,-95v23,13,46,20,68,20v34,1,67,-42,99,-129r-135,-441r117,-30r79,366r147,-364r98,25r-257,554v-15,31,-35,59,-61,79","w":480},"z":{"d":"35,-77r232,-278v7,-10,22,-28,45,-53r-233,0r9,-86r365,0r-8,80r-216,262r-48,60r242,0r-10,92r-386,0","w":482},"{":{"d":"375,-725v-21,0,-35,6,-43,19v-19,30,-24,160,-28,219v-4,50,-35,99,-89,148r-1,7v65,68,76,149,52,264v-11,55,-19,108,-16,143v1,10,9,15,22,15v29,0,53,-8,73,-25r17,119v-33,11,-67,15,-104,13v-79,-5,-119,-57,-119,-157v0,-52,16,-160,23,-217v6,-50,-12,-94,-51,-133r7,-55v64,-63,79,-84,82,-193v1,-29,3,-50,4,-63v20,-178,107,-246,265,-198r-32,112v-33,-12,-53,-18,-62,-18","w":536},"|":{"d":"113,-686r128,0r-96,906r-128,0","w":229},"}":{"d":"297,-673v-2,-40,-7,-51,-43,-52v-9,0,-31,6,-66,18r-8,-112v41,-10,70,-15,87,-15v92,0,138,55,138,166v0,54,-18,129,-21,178v-4,64,13,74,51,125r-5,55v-65,57,-78,97,-84,196v-10,164,-27,301,-169,311v-38,2,-72,-2,-102,-13r42,-119v17,17,39,25,68,25v40,0,27,-47,35,-80v4,-22,7,-133,10,-156v7,-72,54,-148,101,-186r1,-7v-43,-49,-61,-98,-57,-148v1,-17,24,-150,22,-186","w":536},"~":{"d":"183,-497v31,0,82,33,98,36v14,3,43,-31,56,-43r16,87v-56,40,-91,54,-147,14v-28,-20,-36,-24,-60,-4v-6,5,-21,21,-44,47r-19,-93v33,-29,66,-44,100,-44","w":395},"\u00a0":{"w":273},"\u00a1":{"d":"192,-501r-64,604r-124,0r64,-604r124,0xm158,-726v41,0,72,35,69,77v-4,61,-91,107,-137,55v-46,-53,7,-132,68,-132","w":235},"\u00a2":{"d":"181,11v-104,-22,-157,-122,-144,-253v13,-134,83,-234,198,-263r9,-85r118,0r-9,84v34,8,69,28,105,59r-57,76v-31,-27,-51,-44,-60,-49v-114,-72,-189,106,-189,211v0,71,35,142,95,142v61,0,81,-31,132,-73r51,71v-43,41,-87,67,-131,79r-9,79r-118,0","w":479},"\u00a3":{"d":"389,12v-10,-1,-98,-38,-127,-38v-31,0,-106,15,-225,44r-5,-100v23,-6,56,-13,71,-25v38,-32,38,-124,35,-186r-67,0r10,-93r54,0v-9,-104,7,-158,54,-213v63,-74,172,-74,259,-16r-52,81v-43,-23,-70,-34,-79,-34v-45,0,-81,60,-84,105v-1,10,1,36,4,77r126,0r-10,93r-106,0v0,29,-2,61,-6,97v-3,31,-17,58,-40,82v78,-9,144,-7,221,16","w":476},"\u00a4":{"d":"247,-349r-5,45r162,0r-8,78r-162,0r-12,117r175,-1r-12,110r-292,0r24,-226r-91,0r8,-78r91,0r5,-46r-91,0r9,-87r91,0r22,-203r295,0r-11,105r-178,0r-11,98r162,0r-9,88r-162,0","w":489},"\u00a5":{"d":"189,-287r-134,-354r124,0r86,225r134,-225r124,0r-209,354r76,0r-8,83r-79,0r-5,49r79,0r-9,83r-79,0r-8,70r-119,0r8,-70r-82,0r9,-83r82,0r5,-49r-82,0r8,-83r79,0","w":531},"\u00a6":{"d":"54,-278r77,0r0,296r-77,0r0,-296xm54,-656r77,0r0,296r-77,0r0,-296","w":182},"\u00a7":{"d":"288,-123v39,52,11,144,-34,177v-73,53,-169,40,-226,-31r57,-79v27,35,55,53,86,53v29,0,64,-42,32,-59v-17,-9,-50,-13,-78,-25v-42,-17,-61,-49,-56,-96v4,-33,17,-61,38,-84v-43,-48,-16,-138,29,-170v65,-46,128,-34,197,15r-42,81v-37,-27,-63,-40,-80,-40v-31,1,-32,7,-37,35v-1,7,21,14,64,26v63,18,90,58,85,113v-4,35,-16,63,-35,84xm158,-189v-1,5,10,10,32,17r20,6v22,-13,31,-38,9,-53v-3,-2,-14,-6,-33,-11v-16,3,-25,16,-28,41","w":392},"\u00a8":{"d":"197,-580v-35,-50,9,-120,66,-120v39,0,66,34,62,72v-4,38,-37,74,-78,72v-22,0,-39,-8,-50,-24xm-13,-580v-35,-50,10,-120,66,-120v39,0,66,34,62,72v-4,38,-36,74,-78,72v-22,0,-39,-8,-50,-24","w":306},"\u00a9":{"d":"275,-310v0,81,48,157,121,157v35,0,69,-9,102,-28r25,42v-47,25,-89,37,-127,37v-113,2,-179,-97,-179,-216v0,-115,71,-213,181,-212v40,0,80,12,121,35r-24,51v-39,-24,-71,-36,-94,-36v-79,-3,-126,85,-126,170xm398,-582v-143,0,-266,123,-266,266v0,143,123,266,266,266v143,0,266,-123,266,-266v0,-143,-123,-266,-266,-266xm398,15v-178,0,-331,-153,-331,-331v0,-178,153,-331,331,-331v178,0,331,153,331,331v0,178,-153,331,-331,331","w":796},"\u00ab":{"d":"419,-126r-107,4r-156,-167r156,-162r107,4r-131,161xm261,-126r-107,4r-155,-167r155,-162r107,4r-130,161","w":390},"\u00ac":{"d":"443,-225r-355,0r0,-118r470,0r0,315r-115,0r0,-197","w":613},"\u00ad":{"d":"52,-348r394,0r0,63r-394,0r0,-63","w":498},"\u00ae":{"d":"398,-582v-143,0,-269,123,-265,266r-1,0v-4,143,123,266,266,266v143,0,266,-123,266,-266v0,-143,-123,-266,-266,-266xm398,15v-178,0,-331,-153,-331,-331v0,-178,153,-331,331,-331v178,0,331,153,331,331v0,178,-153,331,-331,331xm491,-108v-48,-49,-95,-118,-139,-192r-29,1r0,185r-57,0r0,-410v65,-1,108,-2,129,-2v75,1,112,38,111,113v-1,61,-33,97,-98,109v55,73,76,111,154,183xm365,-342v62,-1,89,-17,89,-78v0,-45,-25,-68,-75,-67r-56,1r0,144r42,0","w":796},"\u00af":{"d":"108,-659r234,0r-6,65r-234,0","w":406},"\u00b0":{"d":"248,-681v50,59,32,150,-20,198v-55,51,-153,56,-202,0v-52,-59,-34,-150,20,-198v55,-50,154,-57,202,0xm192,-632v-38,-46,-124,-6,-124,50v0,40,23,70,63,70v58,0,98,-74,61,-120","w":273},"\u00b1":{"d":"295,-89r-93,0r0,-171r-150,0r0,-95r150,0r0,-162r93,0r0,162r151,0r0,95r-151,0r0,171xm65,-49r376,0r0,87r-376,0r0,-87","w":501},"\u00b4":{"d":"46,-626r224,-89r24,78r-222,83","w":329},"\u00b5":{"d":"335,-29v-50,55,-113,84,-180,39r-20,186r-103,0r72,-682r103,0r-36,342v-5,49,22,73,81,73v34,0,83,-49,86,-78r36,-338r110,0r-39,370v-5,45,1,74,18,86v12,9,25,21,38,38r-91,65v-41,-25,-66,-59,-75,-101","w":508},"\u00b6":{"d":"338,0r0,-642r99,0r0,642r-99,0xm50,-483v1,-111,48,-159,159,-159r101,0r0,642r-99,0r0,-317v-108,0,-162,-55,-161,-166","w":507},"\u00b7":{"d":"118,-314v-49,0,-82,-48,-77,-99v5,-48,47,-99,97,-99v50,0,81,47,76,99v-5,48,-46,99,-96,99","w":236},"\u00b8":{"d":"5,176r44,-29v17,23,36,35,55,35v11,0,28,-31,28,-40v4,-13,-8,-35,-17,-36v-19,0,-32,5,-38,16r-55,-17r18,-109r80,-1r-7,41v53,-3,87,41,83,94v-5,54,-43,109,-99,109v-47,0,-78,-21,-92,-63","w":205},"\u00bb":{"d":"141,-126r132,-160r-132,-161r109,-4r154,162r-154,167xm-17,-126r132,-160r-131,-161r108,-4r154,162r-154,167","w":393},"\u00bf":{"d":"389,-59v-49,95,-95,157,-213,162v-101,4,-175,-83,-164,-184v7,-68,39,-121,93,-160v66,-48,85,-125,86,-248r107,0v7,143,-26,255,-101,316v-31,27,-47,40,-48,40v-33,29,-42,76,-15,109v11,14,28,20,49,20v48,0,87,-35,116,-105xm251,-534v-38,0,-66,-34,-63,-74v4,-56,85,-101,126,-52v41,49,-6,126,-63,126","w":459},"\u00c0":{"d":"351,-168r-181,0r-73,180r-111,-14r275,-652r102,0r143,647r-118,19xm207,-261r127,0r-40,-222xm394,-686r-200,-90r54,-65r200,96","w":580},"\u00c1":{"d":"351,-168r-181,0r-73,180r-111,-14r275,-652r102,0r143,647r-118,19xm207,-261r127,0r-39,-222xm181,-746r225,-89r53,78r-222,83","w":568},"\u00c2":{"d":"350,-168r-181,0r-73,180r-112,-14r276,-652r102,0r143,647r-118,19xm206,-261r127,0r-40,-222xm171,-661r10,-98r148,-106r131,106r-10,97r-132,-87","w":568},"\u00c3":{"d":"352,-168r-181,0r-73,180r-112,-14r276,-652r102,0r143,647r-118,19xm208,-261r127,0r-40,-222xm475,-727v-16,17,-63,37,-90,38v-20,0,-44,-10,-73,-30v-23,-15,-37,-23,-42,-23v-17,0,-40,16,-71,47r-30,-78v45,-50,116,-73,177,-26v53,41,43,33,100,-4","w":580},"\u00c4":{"d":"352,-168r-181,0r-73,180r-112,-14r276,-652r102,0r143,647r-118,19xm207,-261r127,0r-39,-222xm425,-686v-40,0,-66,-31,-62,-72v3,-38,37,-72,77,-72v39,0,66,34,63,72v-3,37,-37,72,-78,72xm215,-686v-40,0,-66,-31,-62,-72v3,-38,37,-72,77,-72v39,0,67,33,63,72v-4,37,-37,72,-78,72","w":580},"\u00c5":{"d":"350,-168r-181,0r-73,180r-111,-14r275,-652r102,0r143,647r-118,19xm206,-261r127,0r-40,-222xm389,-710v-34,30,-101,33,-131,0v-32,-35,-20,-96,13,-124v34,-30,100,-33,131,0v33,35,19,96,-13,124xm334,-816v-22,0,-34,14,-37,43v-3,29,6,44,28,44v22,0,35,-15,38,-44v3,-29,-7,-43,-29,-43","w":580},"\u00c6":{"d":"222,-271r124,0r-40,-222xm572,-391r240,0r-10,99r-240,0r-20,193r254,0r-11,100r-385,0r-35,-169r-186,0r-74,180r-116,-14r283,-652r104,0r65,344r35,-331r380,0r-10,96r-257,0","w":862},"\u00c7":{"d":"166,-318v-12,113,37,223,133,223v35,0,89,-19,161,-57r45,94v-84,41,-106,58,-197,66r-7,39v58,-18,114,24,106,85v-6,49,-48,87,-105,87v-43,0,-71,-16,-82,-48r40,-34v17,21,33,32,48,32v23,0,36,-11,39,-34v5,-46,-36,-47,-66,-24r-44,-21r14,-84v-131,-15,-205,-133,-205,-284v0,-196,128,-382,315,-382v61,0,125,20,193,63r-63,109v-36,-24,-86,-71,-135,-71v-107,-2,-179,132,-190,241","w":570},"\u00c8":{"d":"182,-391r226,0r-11,99r-225,-1r-20,184r240,-1r-11,110r-357,0r67,-640r359,0r-11,105r-242,0xm362,-686r-199,-90r53,-65r201,96","w":489},"\u00c9":{"d":"182,-391r226,0r-11,99r-226,-1r-19,184r240,-1r-11,110r-357,0r67,-640r359,0r-11,105r-242,0xm151,-756r223,-89r54,78r-223,83","w":469},"\u00ca":{"d":"180,-391r226,0r-10,99r-226,-1r-20,184r241,-1r-12,110r-357,0r67,-640r359,0r-11,105r-242,0xm151,-681r9,-88r149,-106r131,106r-9,87r-134,-77","w":489},"\u00cb":{"d":"182,-391r226,0r-10,99r-226,-1r-19,184r240,-1r-12,110r-357,0r68,-640r359,0r-11,105r-242,0xm343,-710v-35,-50,10,-120,66,-120v39,0,66,34,62,72v-4,38,-36,74,-78,72v-22,0,-39,-8,-50,-24xm133,-710v-33,-51,10,-120,67,-120v38,0,65,34,61,72v-4,37,-36,74,-77,72v-23,0,-40,-8,-51,-24","w":489},"\u00cc":{"d":"71,-642r129,0r-67,642r-129,0xm226,-686r-200,-90r54,-65r200,96","w":215},"\u00cd":{"d":"72,-642r129,0r-68,642r-129,0xm14,-746r224,-89r54,78r-223,83","w":215},"\u00ce":{"d":"63,-642r129,0r-67,642r-129,0xm-5,-681r9,-88r149,-106r131,106r-9,87r-134,-77","w":215},"\u00cf":{"d":"72,-642r129,0r-67,642r-129,0xm246,-676v-63,0,-79,-78,-41,-119v27,-30,83,-34,106,0v35,52,-10,119,-65,119xm37,-676v-64,0,-78,-79,-41,-119v28,-30,83,-35,106,0v34,51,-10,119,-65,119","w":215},"\u00d0":{"d":"220,-107v129,-2,192,-127,190,-268v-2,-127,-57,-182,-176,-174v-13,1,-24,1,-31,1r-21,195r63,0r-11,102r-63,0r-15,144r64,0xm536,-386v1,239,-120,387,-351,388r-160,-4r26,-249r-53,0r11,-102r53,0r31,-290v54,-3,105,-4,154,-4v191,1,288,73,289,261","w":565},"\u00d1":{"d":"182,-395r-42,394r-113,2r68,-645r96,0r207,385r40,-381r112,0r-65,625r-89,30v-41,-95,-113,-231,-214,-410xm494,-697v-15,16,-62,37,-90,38v-19,0,-44,-10,-73,-30v-22,-15,-36,-23,-41,-23v-17,0,-41,16,-71,47r-31,-78v47,-49,115,-73,177,-26v54,41,43,34,100,-4","w":570},"\u00d2":{"d":"279,16v-158,0,-254,-115,-254,-283v0,-130,37,-213,109,-287v61,-62,136,-92,222,-92v170,-1,271,141,252,324v-19,187,-140,338,-329,338xm343,-548v-114,0,-203,146,-203,267v0,101,56,195,149,197v115,3,206,-142,206,-262v0,-104,-55,-202,-152,-202xm437,-686r-200,-90r54,-65r200,96","w":644},"\u00d3":{"d":"279,16v-178,1,-271,-144,-251,-338v18,-172,148,-324,328,-324v171,0,271,139,253,324v-18,187,-139,337,-330,338xm344,-548v-115,0,-204,146,-204,267v0,101,57,195,150,197v114,3,206,-143,206,-262v0,-104,-55,-202,-152,-202xm224,-746r225,-89r54,78r-223,83","w":644},"\u00d4":{"d":"278,16v-178,1,-272,-143,-252,-338v18,-171,149,-324,328,-324v171,0,272,140,253,324v-19,187,-140,336,-329,338xm342,-548v-115,0,-203,146,-203,267v0,101,56,195,149,197v115,3,206,-142,206,-262v0,-104,-55,-202,-152,-202xm220,-661r10,-98r149,-106r131,106r-10,97r-133,-87","w":644},"\u00d5":{"d":"281,16v-178,1,-272,-143,-252,-338v18,-171,149,-324,328,-324v171,0,272,140,253,324v-19,187,-140,336,-329,338xm345,-548v-115,0,-203,146,-203,267v0,101,56,195,149,197v115,3,206,-142,206,-262v0,-104,-55,-202,-152,-202xm495,-707v-16,17,-63,37,-90,38v-19,0,-44,-10,-73,-30v-22,-15,-36,-23,-42,-23v-17,0,-40,16,-71,47r-30,-78v45,-50,116,-73,177,-26v53,41,43,34,100,-4","w":648},"\u00d6":{"d":"280,16v-176,1,-271,-142,-251,-338v17,-172,149,-324,328,-324v170,0,271,139,253,324v-18,186,-140,336,-330,338xm344,-548v-114,0,-203,146,-203,267v0,101,57,195,150,197v114,3,205,-143,205,-262v0,-104,-55,-202,-152,-202xm483,-820v37,0,65,34,62,72v-3,37,-38,72,-77,72v-64,0,-81,-81,-41,-119v16,-15,33,-25,56,-25xm207,-700v-35,-50,10,-120,66,-120v39,0,66,34,62,72v-4,37,-36,74,-77,72v-23,0,-40,-8,-51,-24","w":648},"\u00d8":{"d":"31,-267v0,-128,35,-214,109,-287v71,-70,152,-101,262,-89r18,-44r105,34r-20,49v85,56,122,151,110,282v-18,195,-149,352,-361,336r-24,60r-105,-34r24,-59v-79,-48,-118,-131,-118,-248xm295,-84v164,4,269,-265,164,-406xm349,-548v-166,-3,-270,281,-154,416r168,-415v-3,-1,-8,-1,-14,-1","w":644},"\u00d9":{"d":"238,17v-136,1,-205,-103,-189,-252r43,-405r119,0r-43,405v-1,13,-2,25,-2,37v0,78,28,117,84,117v78,0,116,-71,125,-154r43,-405r119,0r-43,405v-11,143,-110,251,-256,252xm395,-686r-200,-90r54,-65r200,96","w":571},"\u00da":{"d":"238,17v-136,1,-203,-105,-188,-252r42,-405r119,0r-42,405v-1,13,-2,25,-2,37v0,78,28,117,84,117v78,0,116,-71,125,-154r42,-405r119,0r-42,405v-13,143,-109,251,-257,252xm182,-746r225,-89r54,78r-223,83","w":571},"\u00db":{"d":"237,17v-136,1,-205,-103,-189,-252r43,-405r119,0r-43,405v-1,13,-2,25,-2,37v0,78,28,117,84,117v78,0,116,-71,125,-154r43,-405r119,0r-43,405v-11,143,-110,251,-256,252xm171,-671r9,-88r149,-106r131,106r-9,87r-134,-77","w":571},"\u00dc":{"d":"239,17v-136,2,-203,-105,-188,-252r42,-405r119,0r-42,405v-2,13,-3,25,-3,37v0,78,28,117,84,117v78,0,118,-71,126,-154r42,-405r119,0r-42,405v-13,143,-110,250,-257,252xm430,-820v61,0,80,80,40,120v-28,28,-84,33,-106,0v-34,-51,10,-120,66,-120xm221,-820v37,0,65,33,61,72v-4,37,-37,72,-76,72v-64,0,-81,-81,-41,-119v16,-15,33,-25,56,-25","w":521},"\u00dd":{"d":"275,0r-119,0r28,-271r-134,-350r113,-33r94,279r150,-279r103,33r-207,350xm169,-696r223,-89r54,78r-223,83","w":503},"\u00de":{"d":"317,-677v132,0,202,122,189,270v-9,94,-38,165,-86,212v-41,41,-94,62,-158,62v-41,0,-71,-31,-100,-47r-30,288r-114,0r84,-808r114,0r-8,81v47,-39,84,-58,109,-58xm390,-429v0,-79,-30,-146,-101,-147v-35,0,-66,22,-93,66r-24,230v15,26,56,54,95,54v80,0,123,-111,123,-203","w":543},"\u00df":{"d":"304,-715v115,0,181,69,170,188v-5,45,-21,87,-48,126v-37,-15,-64,-22,-81,-22v-42,0,-71,58,-31,78v4,2,21,8,52,18v80,29,124,69,117,172v-6,88,-99,171,-192,170v-38,0,-64,-4,-79,-11v-17,-9,-39,-30,-64,-65r58,-79v17,27,34,45,53,52v9,3,24,5,47,5v55,1,93,-89,35,-117v-7,-4,-26,-13,-57,-22v-104,-30,-129,-163,-52,-242v44,-45,86,-66,147,-44v5,-9,5,-38,6,-55v2,-36,-55,-53,-96,-52v-57,0,-105,57,-111,115r-53,501r-110,0r53,-501v12,-125,102,-215,236,-215","w":549},"\u00e0":{"d":"403,-626r-206,-89r-70,78r205,83xm296,-223v-36,0,-119,15,-139,27v-27,16,-44,76,-18,108v11,14,24,22,40,22v40,0,75,-16,105,-48xm355,11v-27,-1,-65,-39,-66,-65v-53,41,-71,70,-132,70v-81,0,-139,-61,-128,-152v6,-55,27,-94,61,-118v29,-21,148,-46,212,-52v3,-35,15,-69,-8,-94v-11,-12,-24,-19,-40,-19v-61,0,-112,23,-155,68r-37,-61v50,-77,232,-148,316,-54v28,32,42,70,37,117r-27,251v0,8,12,22,21,22v21,0,36,-3,43,-10r4,64v-43,22,-77,33,-101,33","w":491},"\u00e1":{"d":"155,-626r224,-89r54,78r-223,83xm296,-223v-36,0,-119,15,-139,27v-27,16,-44,76,-18,108v11,14,24,22,40,22v40,0,75,-16,105,-48xm355,11v-27,-1,-65,-39,-66,-65v-53,41,-71,70,-132,70v-81,0,-139,-61,-128,-152v6,-55,27,-94,61,-118v29,-21,148,-46,212,-52v3,-35,15,-69,-8,-94v-11,-12,-24,-19,-40,-19v-61,0,-112,23,-155,68r-37,-61v50,-77,232,-148,316,-54v28,32,42,70,37,117r-27,251v0,8,12,22,21,22v21,0,36,-3,43,-10r4,64v-43,22,-77,33,-101,33","w":491},"\u00e2":{"d":"133,-521r9,-88r149,-106r131,106r-9,87r-134,-77xm296,-223v-36,0,-119,15,-139,27v-27,16,-44,76,-18,108v11,14,24,22,40,22v40,0,75,-16,105,-48xm355,11v-27,-1,-65,-39,-66,-65v-53,41,-71,70,-132,70v-81,0,-139,-61,-128,-152v6,-55,27,-94,61,-118v29,-21,148,-46,212,-52v3,-35,15,-69,-8,-94v-11,-12,-24,-19,-40,-19v-61,0,-112,23,-155,68r-37,-61v50,-77,232,-148,316,-54v28,32,42,70,37,117r-27,251v0,8,12,22,21,22v21,0,36,-3,43,-10r4,64v-43,22,-77,33,-101,33","w":491},"\u00e3":{"d":"416,-587v-16,16,-62,38,-90,38v-21,0,-45,-10,-73,-30v-21,-15,-35,-23,-42,-23v-17,0,-40,16,-71,47r-32,-78v47,-49,116,-73,178,-26v54,41,42,34,100,-4xm296,-223v-36,0,-119,15,-139,27v-27,16,-44,76,-18,108v11,14,24,22,40,22v40,0,75,-16,105,-48xm355,11v-27,-1,-65,-39,-66,-65v-53,41,-71,70,-132,70v-81,0,-139,-61,-128,-152v6,-55,27,-94,61,-118v29,-21,148,-46,212,-52v3,-35,15,-69,-8,-94v-11,-12,-24,-19,-40,-19v-61,0,-112,23,-155,68r-37,-61v50,-77,232,-148,316,-54v28,32,42,70,37,117r-27,251v0,8,12,22,21,22v21,0,36,-3,43,-10r4,64v-43,22,-77,33,-101,33","w":491},"\u00e4":{"d":"391,-670v37,0,66,34,62,72v-4,37,-37,72,-77,72v-64,0,-80,-81,-41,-119v16,-15,33,-25,56,-25xm181,-670v61,0,80,80,40,120v-28,28,-84,33,-106,0v-34,-51,10,-120,66,-120xm296,-223v-36,0,-119,15,-139,27v-27,16,-44,76,-18,108v11,14,24,22,40,22v40,0,75,-16,105,-48xm355,11v-27,-1,-65,-39,-66,-65v-53,41,-71,70,-132,70v-81,0,-139,-61,-128,-152v6,-55,27,-94,61,-118v29,-21,148,-46,212,-52v3,-35,15,-69,-8,-94v-11,-12,-24,-19,-40,-19v-61,0,-112,23,-155,68r-37,-61v50,-77,232,-148,316,-54v28,32,42,70,37,117r-27,251v0,8,12,22,21,22v21,0,36,-3,43,-10r4,64v-43,22,-77,33,-101,33","w":491},"\u00e5":{"d":"330,-590v-34,29,-101,34,-131,0v-31,-35,-19,-96,13,-124v34,-30,101,-33,131,0v33,35,19,96,-13,124xm275,-696v-21,0,-33,14,-36,43v-3,29,6,44,27,44v22,0,35,-15,38,-44v3,-29,-7,-43,-29,-43xm296,-223v-36,0,-119,15,-139,27v-27,16,-44,76,-18,108v11,14,24,22,40,22v40,0,75,-16,105,-48xm355,11v-27,-1,-65,-39,-66,-65v-53,41,-71,70,-132,70v-81,0,-139,-61,-128,-152v6,-55,27,-94,61,-118v29,-21,148,-46,212,-52v3,-35,15,-69,-8,-94v-11,-12,-24,-19,-40,-19v-61,0,-112,23,-155,68r-37,-61v50,-77,232,-148,316,-54v28,32,42,70,37,117r-27,251v0,8,12,22,21,22v21,0,36,-3,43,-10r4,64v-43,22,-77,33,-101,33","w":491},"\u00e6":{"d":"560,-429v-81,5,-97,34,-125,104r188,0v8,-58,-11,-107,-63,-104xm349,-58v-66,51,-95,74,-187,74v-84,0,-144,-61,-133,-152v6,-55,27,-96,64,-121v35,-25,142,-52,218,-62v3,-29,13,-57,-9,-75v-11,-9,-25,-15,-42,-15v-31,0,-76,23,-137,68r-53,-81v41,-36,137,-90,201,-90v60,0,104,22,133,66v47,-41,103,-61,170,-61v107,0,171,84,158,203r-7,65r-300,0v-1,13,-2,25,-2,37v0,89,36,134,109,134v36,0,76,-26,121,-78r47,71v-53,58,-114,87,-183,87v-76,0,-132,-23,-168,-70xm246,-205v-37,7,-60,12,-70,16v-24,11,-38,29,-41,55v-4,36,12,54,48,54v45,0,107,-24,110,-60r7,-74","w":775},"\u00e7":{"d":"195,-347v-44,98,-51,280,70,280v39,0,84,-21,136,-64r39,59v-54,54,-110,82,-178,84r-6,35v57,-18,114,24,107,85v-6,48,-48,87,-106,87v-43,0,-70,-16,-81,-48r40,-34v17,21,32,32,47,32v24,0,36,-11,39,-34v6,-46,-37,-48,-65,-24r-45,-21r13,-82r4,0v-108,-17,-170,-116,-160,-250v12,-149,114,-267,264,-269v39,0,87,21,146,64r-41,69v-80,-71,-173,-78,-223,31xm262,12r-6,35v57,-18,114,24,107,85v-6,48,-48,87,-106,87v-43,0,-70,-16,-81,-48r40,-34v17,21,32,32,47,32v24,0,36,-11,39,-34v6,-46,-37,-48,-65,-24r-45,-21r14,-82","w":483},"\u00e8":{"d":"433,-626r-206,-89r-50,78r205,83xm299,-510v106,0,175,81,162,197r-8,75r-296,0v-1,16,-2,30,-2,43v0,84,34,126,101,127v43,1,89,-20,137,-63r38,61v-68,56,-90,79,-190,82v-133,3,-206,-95,-204,-230v2,-163,104,-292,262,-292xm353,-323v9,-62,-12,-112,-69,-109v-59,3,-96,54,-111,109r180,0","w":497},"\u00e9":{"d":"155,-626r224,-89r24,78r-223,83xm299,-510v106,0,175,81,162,197r-8,75r-296,0v-1,16,-2,30,-2,43v0,84,34,126,101,127v43,1,89,-20,137,-63r38,61v-68,56,-90,79,-190,82v-133,3,-206,-95,-204,-230v2,-163,104,-292,262,-292xm353,-323v9,-62,-12,-112,-69,-109v-59,3,-96,54,-111,109r180,0","w":497},"\u00ea":{"d":"155,-561r9,-88r149,-106r131,106r-9,87r-134,-77xm299,-510v106,0,175,81,162,197r-8,75r-296,0v-1,16,-2,30,-2,43v0,84,34,126,101,127v43,1,89,-20,137,-63r38,61v-68,56,-90,79,-190,82v-133,3,-206,-95,-204,-230v2,-163,104,-292,262,-292xm353,-323v9,-62,-12,-112,-69,-109v-59,3,-96,54,-111,109r180,0","w":497},"\u00eb":{"d":"297,-580v-35,-50,9,-120,66,-120v39,0,66,34,62,72v-4,38,-37,74,-78,72v-22,0,-39,-8,-50,-24xm87,-580v-35,-50,10,-120,66,-120v39,0,66,34,62,72v-4,38,-36,74,-78,72v-22,0,-39,-8,-50,-24xm299,-510v106,0,175,81,162,197r-8,75r-296,0v-1,16,-2,30,-2,43v0,84,34,126,101,127v43,1,89,-20,137,-63r38,61v-68,56,-90,79,-190,82v-133,3,-206,-95,-204,-230v2,-163,104,-292,262,-292xm353,-323v9,-62,-12,-112,-69,-109v-59,3,-96,54,-111,109r180,0","w":497},"\u00ec":{"d":"89,-495r107,0r-52,495r-107,0xm263,-626r-206,-89r-70,78r206,83","w":249},"\u00ed":{"d":"18,-626r224,-89r33,78r-222,83xm77,-495r107,0r-52,495r-107,0","w":234},"\u00ee":{"d":"89,-495r107,0r-52,495r-107,0xm-35,-521r9,-88r149,-106r131,106r-9,87r-134,-77","w":210},"\u00ef":{"d":"78,-495r107,0r-52,495r-107,0xm167,-580v-35,-50,9,-120,66,-120v39,0,66,34,62,72v-4,38,-37,74,-78,72v-22,0,-39,-8,-50,-24xm-43,-580v-35,-50,10,-120,66,-120v39,0,66,34,62,72v-4,38,-36,74,-78,72v-22,0,-39,-8,-50,-24","w":207},"\u00f0":{"d":"142,-226v0,77,42,170,109,170v91,0,137,-97,148,-192r11,-97v-43,-69,-83,-103,-120,-103v-90,0,-148,125,-148,222xm23,-217v0,-170,109,-307,277,-304v17,0,52,19,104,57v4,-27,-25,-63,-41,-82r-140,0r7,-73r88,0v-7,-13,-24,-35,-49,-64r81,-53v35,39,63,78,86,117r134,0r-7,73r-75,0v21,60,31,133,31,219v0,222,-111,344,-296,344v-123,0,-200,-107,-200,-234","w":579},"\u00f1":{"d":"436,-587v-16,17,-63,37,-90,38v-21,0,-45,-10,-73,-30v-21,-15,-35,-23,-42,-23v-17,0,-40,16,-71,47r-31,-78v46,-50,116,-73,177,-26v54,41,43,34,100,-4xm320,-511v88,1,148,79,137,179r-35,332r-107,0r34,-320v6,-53,-8,-106,-47,-101v-44,-5,-123,79,-127,118r-32,303r-107,0r52,-496r107,0r-9,89v47,-69,92,-104,134,-104","w":486},"\u00f2":{"d":"409,-556r-200,-90r54,-65r200,96xm248,11v-150,0,-223,-105,-209,-263v12,-142,120,-260,264,-260v135,0,221,109,204,260v-15,134,-117,263,-259,263xm299,-433v-91,-3,-146,118,-146,218v0,77,30,146,99,148v88,2,141,-121,141,-218v0,-76,-28,-146,-94,-148","w":543},"\u00f3":{"d":"197,-626r224,-89r54,78r-223,83xm248,11v-150,0,-223,-105,-209,-263v12,-142,120,-260,264,-260v135,0,221,109,204,260v-15,134,-117,263,-259,263xm299,-433v-91,-3,-146,118,-146,218v0,77,30,146,99,148v88,2,141,-121,141,-218v0,-76,-28,-146,-94,-148","w":543},"\u00f4":{"d":"163,-521r9,-88r149,-106r131,106r-9,87r-134,-77xm248,11v-150,0,-223,-105,-209,-263v12,-142,120,-260,264,-260v135,0,221,109,204,260v-15,134,-117,263,-259,263xm299,-433v-91,-3,-146,118,-146,218v0,77,30,146,99,148v88,2,141,-121,141,-218v0,-76,-28,-146,-94,-148","w":543},"\u00f5":{"d":"467,-587v-15,16,-62,37,-90,38v-19,0,-44,-10,-73,-30v-22,-15,-36,-23,-41,-23v-17,0,-41,16,-71,47r-31,-78v47,-49,115,-73,177,-26v54,41,43,34,100,-4xm248,11v-150,0,-223,-105,-209,-263v12,-142,120,-260,264,-260v135,0,221,109,204,260v-15,134,-117,263,-259,263xm299,-433v-91,-3,-146,118,-146,218v0,77,30,146,99,148v88,2,141,-121,141,-218v0,-76,-28,-146,-94,-148","w":543},"\u00f6":{"d":"327,-580v-35,-50,9,-120,66,-120v39,0,66,34,62,72v-4,38,-37,74,-78,72v-22,0,-39,-8,-50,-24xm117,-580v-35,-50,10,-120,66,-120v39,0,66,34,62,72v-4,38,-36,74,-78,72v-22,0,-39,-8,-50,-24xm248,11v-150,0,-223,-105,-209,-263v12,-142,120,-260,264,-260v135,0,221,109,204,260v-15,134,-117,263,-259,263xm299,-433v-91,-3,-146,118,-146,218v0,77,30,146,99,148v88,2,141,-121,141,-218v0,-76,-28,-146,-94,-148","w":543},"\u00f7":{"d":"262,-402v-40,0,-72,-37,-72,-78v0,-42,32,-79,72,-79v41,0,73,37,73,79v0,41,-32,78,-73,78xm52,-360r404,0r0,100r-404,0r0,-100xm262,-63v-40,0,-72,-38,-72,-79v0,-41,32,-78,72,-78v41,0,73,37,73,78v0,42,-32,79,-73,79","w":496},"\u00f8":{"d":"447,-549r-29,71v70,45,100,121,89,226v-15,142,-122,282,-286,262r-26,64r-103,-34r26,-65v-62,-41,-88,-124,-79,-227v12,-145,121,-262,275,-260r29,-71xm282,-432v-101,17,-154,174,-118,293xm252,-67v118,-5,169,-189,125,-308","w":546},"\u00f9":{"d":"377,-556r-199,-90r53,-65r201,96xm188,18v-88,-1,-144,-82,-133,-184r35,-329r107,0r-36,353v0,45,15,67,44,67v40,0,125,-80,129,-114r32,-306r107,0r-52,495r-97,0v-1,-18,-2,-42,-3,-71v-52,59,-96,89,-133,89","w":482},"\u00fa":{"d":"155,-626r225,-89r53,78r-222,83xm188,18v-88,-1,-144,-82,-133,-184r35,-329r107,0r-36,353v0,45,15,67,44,67v40,0,125,-80,129,-114r32,-306r107,0r-52,495r-97,0v-1,-18,-2,-42,-3,-71v-52,59,-96,89,-133,89","w":482},"\u00fb":{"d":"143,-521r9,-88r150,-106r130,106r-9,87r-134,-77xm188,18v-88,-1,-144,-82,-133,-184r35,-329r107,0r-36,353v0,45,15,67,44,67v40,0,125,-80,129,-114r32,-306r107,0r-52,495r-97,0v-1,-18,-2,-42,-3,-71v-52,59,-96,89,-133,89","w":482},"\u00fc":{"d":"307,-580v-35,-50,9,-120,66,-120v39,0,66,34,62,72v-4,38,-37,74,-78,72v-22,0,-39,-8,-50,-24xm97,-580v-35,-50,10,-120,66,-120v39,0,66,34,62,72v-4,38,-36,74,-78,72v-22,0,-39,-8,-50,-24xm188,18v-88,-1,-144,-82,-133,-184r35,-329r107,0r-36,353v0,45,15,67,44,67v40,0,125,-80,129,-114r32,-306r107,0r-52,495r-97,0v-1,-18,-2,-42,-3,-71v-52,59,-96,89,-133,89","w":482},"\u00fe":{"d":"244,18v-47,0,-65,-10,-95,-33r-22,210r-113,0r92,-880r113,0r-26,253v32,-28,52,-45,60,-50v25,-17,46,-26,65,-26v127,-1,192,107,177,245v-10,95,-38,167,-87,216v-43,43,-98,65,-164,65xm254,-73v81,0,126,-123,126,-215v0,-122,-83,-163,-149,-86v-19,22,-37,45,-52,72r-20,191v14,16,65,38,95,38","w":522},"\u00ff":{"d":"73,196v-17,0,-48,-8,-94,-24r42,-95v61,31,98,33,129,-38r38,-87r-135,-425r109,-30r88,366r147,-364r97,25r-257,554v-26,59,-88,118,-164,118xm373,-526v-62,0,-78,-79,-40,-119v28,-29,83,-34,106,0v34,51,-10,119,-66,119xm113,-550v-33,-51,10,-120,67,-120v38,0,65,34,61,72v-4,37,-36,74,-77,72v-23,0,-40,-8,-51,-24","w":467},"\u0152":{"d":"301,3v-179,0,-279,-145,-258,-343v18,-174,150,-318,334,-317v99,0,175,49,227,147r14,-129r379,0r-11,105r-287,0r-15,144r278,0r-11,99r-278,0r-19,184r287,0r-11,107r-379,0r16,-157v-75,107,-164,160,-266,160xm365,-558v-118,0,-205,134,-205,259v0,102,58,201,152,201v115,0,208,-145,208,-266v0,-105,-56,-194,-155,-194","w":1028},"\u0153":{"d":"357,-423v-94,-2,-150,104,-150,206v0,77,34,141,105,141v90,0,144,-108,144,-206v0,-77,-31,-140,-99,-141xm770,-507v108,0,174,77,161,194r-8,75r-295,0v-13,96,14,170,89,170v47,0,91,-27,134,-80r54,80v-63,53,-131,80,-204,80v-102,0,-149,-40,-178,-121v-51,80,-123,120,-216,120v-154,0,-231,-103,-218,-263v12,-143,126,-260,274,-260v92,0,166,52,195,122v51,-78,121,-117,212,-117xm828,-323v3,-54,-22,-106,-73,-106v-58,0,-93,35,-105,106r178,0","w":1033},"\u0178":{"d":"272,0r-119,0r29,-271r-134,-350r113,-33r94,279r150,-279r103,33r-207,350xm353,-710v-33,-51,10,-120,67,-120v37,0,66,34,62,72v-4,38,-37,74,-78,72v-23,0,-40,-8,-51,-24xm144,-710v-35,-50,9,-120,66,-120v39,0,66,34,62,72v-4,38,-36,74,-78,72v-22,0,-39,-8,-50,-24","w":482},"\u02c6":{"d":"25,-521r9,-88r149,-106r131,106r-9,87r-134,-77","w":337},"\u02dc":{"d":"349,-587v-16,17,-63,37,-90,38v-21,0,-45,-10,-73,-30v-21,-15,-35,-23,-42,-23v-17,0,-40,16,-71,47r-31,-78v48,-49,115,-73,177,-26v53,40,44,35,100,-4","w":375},"\u2013":{"d":"34,-363r432,0r0,71r-432,0r0,-71"},"\u2014":{"d":"27,-363r946,0r0,71r-946,0r0,-71","w":1000},"\u2018":{"d":"-9,-493v7,-53,58,-146,90,-182r65,3v-32,64,-33,77,-50,179r-105,0","w":138},"\u2019":{"d":"147,-685v-5,52,-61,158,-90,192r-65,-13v33,-64,35,-76,50,-179r105,0","w":138},"\u201a":{"d":"147,-85v-5,52,-61,158,-90,192r-65,-13v33,-64,35,-76,50,-179r105,0","w":214},"\u201c":{"d":"241,-493v7,-53,58,-146,90,-182r65,3v-32,64,-33,77,-50,179r-105,0xm41,-493v7,-53,58,-146,90,-182r65,3v-32,64,-33,77,-50,179r-105,0","w":429},"\u201d":{"d":"197,-675v-5,52,-61,158,-90,192r-65,-13v33,-64,35,-76,50,-179r105,0xm397,-675v-5,52,-61,158,-90,192r-65,-13v33,-64,35,-76,50,-179r105,0","w":429},"\u201e":{"d":"197,-75v-5,52,-61,158,-90,192r-65,-13v33,-64,35,-76,50,-179r105,0xm397,-75v-5,52,-61,158,-90,192r-65,-13v33,-64,35,-76,50,-179r105,0","w":417},"\u2022":{"d":"196,-219v-37,36,-97,41,-129,1v-34,-41,-19,-112,16,-144v37,-35,96,-39,129,0v34,41,18,110,-16,143","w":282},"\u2026":{"d":"681,36v-48,0,-83,-37,-78,-89v5,-49,44,-89,96,-89v49,0,82,36,77,89v-5,50,-45,89,-95,89xm442,36v-48,0,-83,-37,-78,-89v5,-49,44,-89,96,-89v49,0,82,36,77,89v-5,50,-45,89,-95,89xm203,36v-48,0,-83,-37,-78,-89v5,-49,44,-89,96,-89v49,0,82,36,77,89v-5,50,-45,89,-95,89","w":900},"\u2039":{"d":"297,-126r-102,4r-146,-167r146,-162r102,4r-124,161","w":319},"\u203a":{"d":"30,-126r123,-160r-123,-161r101,-4r146,162r-146,167","w":317},"\u2122":{"d":"174,-315r-64,0r0,-275r-95,0r0,-52r248,0r0,52r-89,0r0,275xm555,-514r-76,199r-54,0r-77,-201r0,201r-60,0r0,-329r78,0r89,229r89,-229r75,0r0,329r-64,0r0,-199","w":641}}});
