/*!
 * The following copyright notice may not be removed under any circumstances.
 * 
 * Copyright:
 * This font drawn by, and copyright, Ben Weiner, 1999-2001. Modifications for
 * version 2.0 copyright Ben Weiner, 2006-7. Licensed under the Open Font License
 * (http://scripts.sil.org/OFL). See accompanying license and FONTLOG.
 */
Cufon.registerFont({"w":536,"face":{"font-family":"Puritan 2.0","font-weight":400,"font-style":"italic","font-stretch":"normal","units-per-em":"1000","panose-1":"0 0 4 0 0 0 0 0 0 0","ascent":"800","descent":"-200","x-height":"11","bbox":"-185 -857.638 998 249","underline-thickness":"20","underline-position":"-133","unicode-range":"U+0020-U+2122"},"glyphs":{" ":{"w":273},"!":{"d":"145,-192r-85,0r54,-514r85,0xm75,13v-30,0,-52,-26,-50,-57v3,-46,69,-80,102,-41v35,40,-5,98,-52,98","w":235},"\"":{"d":"269,-681v-32,0,-50,19,-54,56v-3,30,15,130,26,150r14,0v16,-22,52,-117,55,-150v4,-37,-10,-56,-41,-56xm127,-681v-31,0,-49,19,-53,56v-3,31,14,130,26,150r13,0v16,-22,52,-117,55,-150v4,-37,-10,-56,-41,-56","w":329},"#":{"d":"452,-560r-81,9r-8,78r80,-8r-6,52r-80,8r-11,97r-57,6r11,-97r-81,9r-11,97r-58,6r11,-97r-103,11r6,-52r103,-11r8,-79r-102,11r6,-52r103,-11r8,-75r57,-6r-9,75r82,-8r8,-75r59,-8r-10,77r81,-9xm233,-537r-9,79r81,-9r9,-78"},"$":{"d":"445,-201v0,120,-56,183,-163,207r-10,94r-89,0r10,-91v-67,-9,-113,-35,-140,-78r54,-62v46,67,144,91,213,40v45,-34,58,-120,-1,-151v-9,-5,-37,-17,-85,-35v-82,-30,-131,-68,-122,-171v6,-76,73,-137,145,-153r10,-89r89,0r-9,86v40,7,78,27,113,59r-50,58v-33,-31,-70,-47,-110,-47v-59,0,-92,30,-98,91v-4,35,24,63,83,84v59,21,98,39,117,54v29,23,43,58,43,104"},"%":{"d":"47,-511v0,-78,49,-137,121,-139v62,-1,102,53,95,119v-7,71,-51,121,-121,121v-60,0,-95,-38,-95,-101xm68,78r-71,-25r449,-681r66,26xm272,-100v-1,-79,50,-143,125,-144v62,-1,103,55,96,122v-8,73,-50,124,-123,124v-65,0,-98,-34,-98,-102xm201,-528v8,-45,-33,-87,-71,-51v-28,27,-33,117,18,115v31,-1,47,-31,53,-64xm418,-171v-16,-21,-41,-18,-60,0v-28,27,-35,117,18,117v50,0,69,-80,42,-117"},"&":{"d":"175,-307v-55,29,-86,72,-92,129v-7,71,41,119,112,117v44,0,83,-19,117,-57v-66,-76,-112,-139,-137,-189xm359,-182v22,-62,26,-65,18,-133r71,-6v3,68,-9,132,-36,192v15,20,44,41,87,63r-53,62v-25,-9,-55,-29,-88,-62v-55,50,-110,75,-165,75v-108,2,-185,-57,-185,-158v0,-95,69,-176,139,-210v-54,-83,-39,-181,27,-237v81,-69,196,-55,260,28r-52,48v-27,-37,-61,-56,-104,-56v-49,0,-78,26,-83,77v-3,30,4,65,19,104v37,-15,75,-23,114,-24r8,61v-35,0,-65,5,-89,16v44,73,81,126,112,160","w":555},"'":{"d":"120,-683v-32,0,-50,19,-54,56v-3,32,17,138,33,152v21,-27,57,-112,61,-152v4,-37,-9,-56,-40,-56","w":194},"(":{"d":"133,-323v-17,180,13,260,61,431r-69,30v-96,-204,-112,-433,-35,-661v32,-95,76,-181,133,-260r60,30v-87,161,-138,305,-150,430","w":318},")":{"d":"96,138r-64,-30v52,-104,85,-173,98,-206v84,-207,76,-421,-3,-655r67,-30v53,107,80,227,80,361v0,200,-59,387,-178,560","w":316},"*":{"d":"219,-475r-66,-60r4,89r-47,0r3,-89r-66,60r-27,-44r81,-50r-80,-51r26,-44r68,61r-4,-90r47,1r-5,89r66,-61r25,44r-77,50r78,51","w":275},"+":{"d":"279,-282r0,186r-61,0r0,-186r-165,0r0,-63r165,0r0,-176r61,0r0,176r167,0r0,63r-167,0","w":498},",":{"d":"115,-120v-4,49,-40,159,-60,192r43,12v69,-79,107,-147,114,-204r-97,0","w":254},"-":{"d":"50,-267r0,-93r280,0r0,93r-280,0","w":380},"\u2010":{"d":"50,-267r0,-93r280,0r0,93r-280,0","w":380},".":{"d":"136,-137v36,-1,62,34,58,73v-3,37,-36,73,-74,73v-36,1,-63,-34,-59,-73v3,-37,37,-73,75,-73","w":233},"\/":{"d":"47,170r-79,-17r387,-857r80,17","w":385},"0":{"d":"303,-642v138,-1,212,120,212,266v0,97,-23,183,-70,256v-54,86,-127,129,-218,129v-144,0,-208,-114,-207,-268v0,-97,23,-181,68,-254v53,-86,124,-129,215,-129xm139,-464v-63,120,-72,402,96,399v134,-3,203,-160,203,-312v0,-127,-48,-191,-143,-191v-69,0,-121,35,-156,104"},"1":{"d":"269,0r-89,0r61,-577r-138,0r7,-60r227,0","w":483},"2":{"d":"292,-659v90,0,175,91,163,185v-8,60,-47,131,-124,214r-171,183r293,0r-8,77r-406,0r8,-77r206,-212v77,-79,117,-147,124,-202v6,-47,-44,-98,-91,-98v-47,0,-92,24,-135,72r-43,-49v62,-62,123,-93,184,-93"},"3":{"d":"272,-610v-43,0,-113,47,-132,74r-39,-46v56,-59,114,-88,174,-88v97,0,186,84,174,181v-8,65,-66,132,-128,142v74,11,155,87,147,171v-12,122,-116,212,-251,212v-73,0,-131,-27,-174,-82r41,-48v30,32,97,72,150,73v83,2,142,-73,149,-151v7,-76,-58,-128,-142,-125r-69,-1r6,-66v96,9,184,-34,191,-118v6,-68,-33,-128,-97,-128"},"4":{"d":"349,-507r-228,291r197,0xm378,-140r-18,168r-69,0r19,-168r-292,0r8,-76r346,-433r60,0r-46,433r105,0r-8,76r-105,0"},"5":{"d":"491,-218v0,188,-210,314,-383,220v-40,-21,-67,-45,-81,-72r38,-54v31,43,108,96,172,97v87,2,161,-75,170,-154v9,-81,-51,-161,-124,-160v-53,1,-118,39,-134,78r-60,-32r37,-343r353,0r-9,81r-278,0r-23,213v44,-85,205,-82,269,-14v34,36,53,81,53,140"},"6":{"d":"420,-227v0,-85,-52,-145,-133,-145v-91,0,-174,84,-174,175v0,86,57,155,141,155v86,0,166,-97,166,-185xm497,-236v0,137,-112,258,-250,258v-159,0,-238,-118,-218,-289v13,-112,46,-202,100,-273v90,-118,252,-151,398,-79r-38,61v-107,-55,-211,-42,-286,47v-43,51,-72,113,-83,186v40,-62,105,-113,192,-115v105,-3,185,96,185,204"},"7":{"d":"501,-573r-349,602r-80,-22r338,-581r-301,0r6,-60r392,0"},"8":{"d":"265,-313v-55,25,-89,43,-103,53v-66,43,-77,150,-10,198v57,41,142,35,194,-8v52,-43,76,-142,15,-192v-17,-14,-49,-31,-96,-51xm293,-608v-65,2,-115,50,-125,110v7,64,41,85,99,110v85,-29,128,-67,134,-113v8,-59,-49,-108,-108,-107xm23,-144v2,-103,88,-174,176,-208v-41,-27,-67,-47,-79,-60v-21,-25,-28,-53,-27,-86v6,-137,222,-221,335,-127v36,30,51,68,46,115v-7,61,-52,113,-136,154v104,41,151,102,142,185v-13,122,-113,199,-251,199v-115,0,-208,-62,-206,-172"},"9":{"d":"432,-440v0,-85,-58,-146,-142,-146v-113,0,-187,161,-122,262v22,33,53,49,93,49v96,2,171,-69,171,-165xm296,-650v150,2,239,120,218,284v-13,106,-35,192,-71,259v-51,95,-125,143,-220,143v-82,0,-146,-24,-192,-71r37,-61v45,44,101,66,170,66v57,0,104,-33,140,-100v28,-51,47,-115,56,-190v-52,73,-81,109,-183,111v-109,2,-185,-81,-185,-190v0,-137,96,-253,230,-251"},":":{"d":"145,-360v-35,0,-62,-34,-59,-73v5,-55,79,-101,119,-52v40,48,-5,125,-60,125xm121,-137v36,0,62,34,59,73v-4,56,-78,100,-119,52v-40,-48,6,-125,60,-125","w":244},";":{"d":"212,-382v-43,42,-116,12,-110,-50v6,-54,80,-100,120,-52v25,29,15,78,-10,102xm94,-120v-3,49,-39,159,-59,192r43,12v69,-79,106,-147,113,-204r-97,0","w":254},"<":{"d":"132,-285r187,240r-73,3r-219,-247r218,-240r74,3","w":366},"=":{"d":"51,-287r0,-65r338,0r0,65r-338,0xm51,-135r0,-65r338,0r0,65r-338,0","w":441},">":{"d":"99,-42r-74,-3r187,-240r-188,-241r75,-3r217,240","w":365},"?":{"d":"347,-371v-35,26,-79,51,-94,95v-11,32,-22,29,-19,87r-69,0v-2,-123,20,-146,93,-207r59,-49v40,-36,48,-98,13,-137v-17,-18,-40,-27,-68,-27v-63,0,-109,35,-139,104r-63,-35v48,-94,117,-141,207,-141v98,0,173,76,162,173v-5,53,-32,99,-82,137xm153,-85v36,-35,99,-10,94,41v-4,45,-70,78,-103,40v-21,-24,-12,-61,9,-81","w":484},"@":{"d":"968,11v-95,155,-228,218,-475,221v-246,3,-440,-220,-440,-470v0,-248,212,-460,460,-460v250,0,417,179,417,430v0,110,-67,207,-157,250v-39,19,-73,30,-104,30v-50,1,-83,-46,-77,-99v-50,65,-106,98,-168,98v-102,0,-153,-70,-153,-211v0,-148,115,-317,258,-312v48,2,104,21,121,51r3,-41r73,0r-64,408v1,16,20,34,37,34v26,0,85,-41,100,-57v26,-29,60,-101,62,-151v2,-213,-135,-361,-348,-361v-210,0,-391,181,-391,391v0,213,162,404,371,401v206,-3,327,-64,408,-195xm354,-215v0,99,22,148,105,151v56,2,134,-88,144,-141r35,-193v-13,-29,-69,-52,-112,-52v-30,0,-62,14,-96,43v-51,43,-76,107,-76,192","w":1010},"A":{"d":"418,10r-39,-189r-225,0r-78,189r-81,-10r282,-654r80,0r147,650xm305,-551r-123,303r184,0","w":568},"B":{"d":"458,-207v0,131,-94,208,-226,207r-203,-2r68,-639r193,-4v93,-1,155,43,155,131v0,103,-38,143,-124,163v91,20,137,68,137,144xm263,-585v-9,0,-37,1,-83,3r-22,207v66,2,126,5,164,-28v24,-21,39,-46,42,-79v7,-69,-27,-103,-101,-103xm342,-274v-36,-44,-113,-38,-191,-38r-26,245r94,0v93,0,143,-39,151,-118v4,-35,-7,-63,-28,-89","w":524},"C":{"d":"480,-50v-81,40,-107,56,-204,58v-159,3,-247,-121,-247,-286v0,-234,183,-452,428,-361v31,12,57,22,76,34r-47,79v-57,-37,-104,-56,-141,-56v-137,1,-225,150,-227,302v-1,112,61,208,165,208v57,0,112,-14,165,-43","w":539},"D":{"d":"537,-388v0,240,-120,390,-356,390r-152,-4r68,-642v46,-2,95,-3,146,-3v196,1,294,71,294,259xm216,-74v148,-3,225,-141,225,-305v0,-136,-59,-204,-178,-204v-19,0,-47,1,-84,2r-53,507r90,0","w":565},"E":{"d":"178,-568r-20,193r252,0r-8,75r-252,-1r-24,225r267,-1r-8,77r-356,0r68,-640r359,0r-8,72r-270,0","w":489},"F":{"d":"178,-568r-20,193r254,0r-8,75r-254,0r-32,300r-89,0r68,-640r360,0r-8,72r-271,0","w":490},"G":{"d":"121,-317v-15,127,42,243,154,245v47,0,91,-10,132,-31r21,-198r-142,0r8,-74r230,0r-33,314v-81,44,-117,65,-221,67v-167,3,-259,-147,-239,-329v9,-82,37,-156,88,-221v83,-105,179,-140,321,-100v43,13,73,27,92,44r-45,75v-112,-84,-232,-78,-307,40v-33,51,-52,107,-59,168","w":582},"H":{"d":"397,0r32,-300r-279,0r-32,300r-89,0r68,-640r89,0r-28,265r279,0r28,-265r88,0r-68,640r-88,0","w":582},"I":{"d":"29,0r68,-642r89,0r-68,642r-89,0","w":215},"J":{"d":"-132,42v10,15,43,34,63,35v65,0,103,-46,113,-138r61,-577r89,0r-60,569v-14,134,-85,228,-224,228v-40,0,-72,-17,-95,-50","w":215},"K":{"d":"384,21r-190,-297r-54,70r-22,206r-89,0r68,-640r89,0r-34,315v123,-141,218,-255,286,-340r65,50r-246,280v44,88,164,240,235,333","w":531},"L":{"d":"29,0r68,-641r89,0r-60,569r286,0r-8,72r-375,0","w":501},"M":{"d":"596,0r54,-511r-248,512r-83,0r-142,-516r-55,515r-82,0r68,-642r127,0r143,515r258,-515r117,0r-68,642r-89,0","w":793},"N":{"d":"421,11v-49,-108,-135,-266,-259,-475r-49,463r-84,1r69,-644r74,0r251,455r48,-451r82,0r-66,629","w":582},"O":{"d":"361,-646v171,0,273,138,253,324v-11,107,-50,190,-114,252v-60,57,-131,86,-216,86v-180,1,-271,-142,-251,-338v17,-172,149,-324,328,-324xm533,-349v0,-121,-69,-223,-182,-223v-135,0,-238,152,-238,294v0,115,69,217,179,217v135,0,241,-149,241,-288","w":644},"P":{"d":"443,-486v0,113,-94,226,-205,222v-25,0,-56,-1,-92,-4r-28,268r-89,0r68,-640r189,-4v96,-4,157,63,157,158xm268,-585r-88,2r-27,253r78,-1v76,0,125,-74,124,-154v0,-68,-29,-101,-87,-100","w":459},"Q":{"d":"618,-372v0,101,-43,235,-96,280r106,103r-59,59r-111,-107v-53,35,-111,53,-172,53v-178,1,-271,-143,-251,-339v18,-173,149,-323,329,-323v156,0,254,116,254,274xm535,-353v3,-119,-69,-218,-182,-218v-137,0,-238,149,-238,291v0,115,66,220,176,219v37,0,73,-11,110,-32r-68,-66r60,-58r70,68v47,-59,71,-116,72,-204","w":658},"R":{"d":"456,-501v0,118,-73,184,-173,205v18,30,49,78,93,144v23,35,61,82,116,142r-113,20v-66,-76,-127,-186,-186,-301r-44,2r-31,289r-89,0r68,-641v135,-2,202,-3,203,-3v104,1,156,49,156,143xm221,-356v106,-1,152,-39,153,-145v0,-56,-36,-83,-107,-82r-87,2r-24,225r65,0","w":530},"S":{"d":"437,-220v2,144,-94,228,-234,230v-79,1,-159,-34,-189,-83r53,-64v47,71,163,97,236,43v28,-20,42,-51,46,-89v4,-43,-17,-77,-64,-97r-134,-57v-49,-29,-74,-72,-74,-129v0,-119,98,-200,213,-200v61,0,115,20,162,61r-48,63v-32,-32,-73,-48,-122,-48v-68,0,-106,34,-113,101v-5,42,27,75,94,98v65,23,107,42,128,59v31,25,46,62,46,112","w":492},"T":{"d":"345,-572r-61,572r-89,0r61,-572r-198,0r7,-67r473,0r-7,67r-186,0"},"U":{"d":"242,17v-135,0,-204,-99,-188,-247r44,-410r89,0r-44,410v-1,13,-2,26,-2,39v0,89,37,133,111,133v98,0,146,-74,157,-172r44,-410r90,0r-44,410v-12,144,-109,245,-257,247","w":571},"V":{"d":"276,10r-65,0r-137,-640r87,-23r104,522r214,-522r72,23","w":548},"W":{"d":"557,6r-52,0r-93,-465r-191,465r-63,0r-110,-632r89,-19r80,499r186,-489r64,0r80,488r188,-498r66,19","w":789},"X":{"d":"386,15r-126,-278r-168,278r-89,-20r219,-312r-141,-309r93,-19r108,243r155,-244r73,20r-196,292r169,329","w":552},"Y":{"d":"290,-272r-28,272r-90,0r28,-272r-139,-355r82,-23r114,297r174,-297r74,23","w":503},"Z":{"d":"135,-76r317,0r-8,76r-408,0r1,-77r375,-497r-305,2r7,-67r393,0r0,72","w":544},"[":{"d":"11,114r90,-854r153,0r-5,51r-71,0r-78,733r81,0r-7,70r-163,0","w":269},"\\":{"d":"262,170r-205,-857r81,-17r206,857","w":385},"]":{"d":"5,114r7,-70r81,0r78,-733r-72,0r5,-51r151,0r-90,854r-160,0","w":266},"^":{"d":"270,-592r-130,139r-36,-52r175,-173r141,173r-48,52"},"_":{"d":"2,109r6,-59r525,0r-6,59r-525,0"},"`":{"d":"258,-556r-200,-90r54,-65r200,96","w":329},"a":{"d":"290,-445v-112,-2,-177,114,-177,235v0,97,30,146,90,146v53,0,131,-118,138,-178r24,-195v-29,-5,-54,-8,-75,-8xm30,-197v0,-167,123,-314,287,-314v42,0,92,10,133,9r-41,361v-5,48,0,92,9,141r-85,0r-2,-119r-44,75v-29,37,-64,55,-107,55v-99,2,-150,-100,-150,-208","w":493},"b":{"d":"286,-512v130,-1,202,110,186,253v-9,87,-36,155,-80,202v-71,77,-197,94,-281,17r-19,40r-65,0r75,-700r79,0r-27,252v50,-43,94,-64,132,-64xm118,-108v17,29,69,52,115,52v85,0,134,-67,149,-200v1,-13,2,-25,2,-37v0,-100,-36,-150,-107,-150v-61,0,-104,24,-131,72","w":515},"c":{"d":"121,-238v-11,100,39,180,128,181v48,0,95,-18,140,-55r33,52v-54,48,-114,72,-181,72v-144,0,-216,-101,-203,-254v13,-151,108,-265,260,-265v59,0,109,18,152,53r-49,66v-43,-33,-60,-51,-121,-51v-96,0,-148,101,-159,201","w":479},"d":{"d":"25,-206v0,-157,96,-306,245,-306v47,0,84,19,112,58r26,-243r78,0r-74,697r-66,0r-8,-42v-58,37,-106,55,-145,55v-108,1,-168,-102,-168,-219xm115,-217v0,86,33,156,112,156v41,0,80,-15,118,-45r29,-274v-31,-46,-45,-62,-115,-63v-96,-3,-144,120,-144,226","w":511},"e":{"d":"378,-378v-2,-54,-35,-61,-95,-63v-88,-3,-149,77,-162,156v43,2,100,-4,171,-18v58,-11,87,-36,86,-75xm297,-507v92,0,157,48,157,138v0,59,-67,111,-122,122v-94,18,-138,28,-217,20v-7,68,14,134,67,156v83,34,126,9,206,-49r33,56v-60,51,-122,76,-187,76v-128,0,-195,-65,-203,-196v-11,-173,99,-323,266,-323","w":484},"f":{"d":"365,-651v-50,-34,-102,-47,-141,0v-28,35,-33,98,-39,156r139,0r-7,65r-139,0r-67,602r-76,0r67,-602r-78,0r7,-65r78,0v6,-72,14,-137,48,-184v32,-44,75,-67,132,-67v73,0,61,6,120,44","w":324},"g":{"d":"307,-505v58,0,78,5,127,5r48,0r-46,438v-11,103,-28,176,-52,217v-36,63,-98,94,-186,94v-77,0,-139,-31,-186,-94r48,-56v37,53,88,80,154,80v49,0,82,-23,104,-67v18,-37,30,-148,40,-211v-36,73,-78,109,-125,109v-132,2,-206,-116,-182,-258v23,-136,112,-257,256,-257xm132,-208v0,78,37,149,108,148v27,0,56,-18,86,-55v25,-31,38,-55,40,-73v2,-18,12,-101,30,-246v-30,-5,-60,-8,-89,-8v-111,-1,-175,114,-175,234","w":511},"h":{"d":"302,-511v89,0,156,75,146,173r-36,338r-78,0r35,-325v8,-66,-22,-115,-82,-118v-51,-3,-142,62,-146,103r-36,340r-79,0r74,-696r79,0r-27,257v54,-43,76,-72,150,-72","w":512},"i":{"d":"182,-618v-34,32,-92,10,-87,-39v4,-42,63,-74,95,-39v20,23,11,60,-8,78xm33,0r53,-495r81,0r-53,495r-81,0","w":233},"j":{"d":"208,-620v-34,31,-93,10,-88,-38v4,-43,65,-73,96,-38v21,22,12,58,-8,76xm48,69v-15,46,-56,58,-102,74r24,75v80,-29,151,-70,160,-153r59,-560r-79,0r-54,516v-3,22,-5,38,-8,48","w":233},"k":{"d":"357,25r-193,-251r-37,34r-21,192r-79,0r74,-697r79,0r-44,421r244,-245r63,46r-220,203r208,254","w":476},"l":{"d":"119,0r-78,0r74,-698r78,0","w":234},"m":{"d":"309,-507v57,1,99,43,113,91v63,-64,119,-96,168,-96v80,0,142,80,133,161r-37,351r-79,0r37,-346v7,-65,-19,-97,-78,-97v-19,0,-43,11,-73,32v-37,25,-57,55,-60,89r-34,322r-78,0r37,-351v7,-55,-22,-89,-72,-91v-50,-2,-131,66,-136,111r-35,331r-79,0r52,-495r79,0r-7,70v57,-55,106,-82,149,-82","w":776},"n":{"d":"313,-511v87,0,155,77,145,173r-36,338r-78,0r36,-346v1,-56,-30,-96,-83,-97v-56,-1,-141,62,-147,115r-35,328r-79,0r52,-495r79,0r-6,56v55,-43,77,-72,152,-72","w":512},"o":{"d":"509,-291v0,163,-108,302,-262,302v-149,0,-222,-105,-208,-263v13,-143,119,-260,265,-260v122,0,205,93,205,221xm423,-286v0,-89,-39,-158,-121,-159v-113,-2,-179,112,-179,232v0,91,42,159,127,159v110,0,173,-113,173,-232","w":546},"p":{"d":"494,-315v0,176,-90,331,-254,328v-42,0,-79,-19,-110,-57r-26,241r-79,0r74,-692r79,0r-5,47v49,-43,90,-64,124,-64v131,0,197,66,197,197xm288,-445v-51,0,-111,40,-124,81r-28,263v77,65,171,68,224,-23v30,-50,45,-101,45,-172v0,-99,-39,-149,-117,-149","w":517},"q":{"d":"291,-512v39,0,92,32,109,57r4,-40r80,0r-74,692r-80,0r27,-251v-67,45,-117,67,-150,67v-107,-1,-163,-107,-162,-224v2,-168,87,-301,246,-301xm131,-220v0,81,41,159,116,159v35,0,74,-15,116,-45r27,-259v-8,-44,-52,-81,-103,-81v-101,0,-156,116,-156,226","w":511},"r":{"d":"315,-410v-27,-8,-45,-12,-53,-12v-22,1,-47,19,-76,54v-25,32,-39,55,-40,69r-31,299r-79,0r53,-495r79,0r-12,100v55,-74,100,-111,137,-111v11,0,29,5,54,16","w":342},"s":{"d":"319,-28v-78,62,-231,53,-293,-16r47,-61v43,49,144,73,200,20v51,-49,43,-111,-38,-132v-29,-7,-69,-17,-116,-38v-38,-17,-53,-54,-48,-102v7,-93,83,-158,182,-157v45,1,92,16,139,46r-33,63v-43,-30,-82,-45,-116,-45v-58,0,-90,24,-95,73v-3,25,8,45,35,54r139,47v50,25,72,64,67,117v-5,56,-29,99,-70,131","w":437},"t":{"d":"182,8v-71,-1,-107,-71,-98,-153r30,-285r-79,0r7,-66r79,0r11,-101r79,0r-11,101r149,0r-7,67r-149,-1r-31,297v-5,45,12,67,50,67v21,0,48,-15,83,-45r33,54v-42,43,-91,65,-146,65","w":351},"u":{"d":"184,18v-86,-1,-139,-81,-129,-178r35,-335r79,0r-35,331v-7,66,17,111,76,111v56,0,145,-64,150,-111r35,-331r78,0r-52,495r-71,0r-6,-52v-54,47,-107,70,-160,70","w":511},"v":{"d":"234,12r-54,0r-133,-491r81,-22r95,386r170,-386r74,22","w":464},"w":{"d":"534,9r-61,0r-91,-370r-171,370r-63,0r-96,-488r79,-20r69,395r164,-388r70,0r87,387r147,-394r71,20","w":735},"x":{"d":"383,26r-141,-216r-184,214r-62,-45r205,-225r-139,-218r78,-44r120,198r167,-197r58,35r-192,221r162,231","w":492},"y":{"d":"224,84v-25,54,-97,113,-170,112v-10,0,-32,-6,-67,-18r33,-71v59,29,95,11,136,-45v2,-3,18,-33,49,-88r-140,-452r79,-21r108,370r172,-369r69,17","w":480},"z":{"d":"27,0r7,-66r260,-303v15,-17,34,-38,57,-61r-269,0r7,-64r362,0r-7,70r-252,299r-51,55r279,0r-7,70r-386,0","w":482},"{":{"d":"187,-323v43,35,81,106,73,184v-5,53,-37,184,-28,236v8,45,89,30,114,8r12,75v-42,13,-73,18,-94,17v-91,-6,-121,-59,-118,-161v1,-49,18,-153,24,-208v7,-58,-24,-118,-58,-147r5,-40v69,-62,91,-91,92,-208v1,-31,3,-53,4,-66v19,-162,104,-229,253,-190r-22,75v-27,-9,-45,-13,-56,-13v-30,0,-51,7,-62,21v-28,32,-33,172,-38,246v-3,48,-38,97,-98,146"},"|":{"d":"37,220r96,-906r88,0r-96,906r-88,0","w":229},"}":{"d":"315,-685v-3,-58,-8,-76,-66,-76v-11,0,-30,4,-58,13r-8,-75v33,-7,59,-11,76,-11v93,0,140,52,140,157v0,36,-21,161,-23,180v-4,68,17,91,58,138r-3,40v-72,58,-91,105,-95,213v-3,96,-10,159,-38,219v-38,81,-116,104,-219,67r28,-75v15,14,38,21,67,21v49,1,58,-47,62,-103r9,-162v6,-71,62,-151,111,-184r3,-25v-49,-49,-70,-98,-66,-146v1,-16,24,-155,22,-191"},"~":{"d":"288,-449v18,1,37,-24,52,-37r11,70v-27,25,-53,37,-78,37v-28,6,-82,-55,-106,-55v-19,0,-43,18,-71,53r-11,-72v52,-53,109,-60,170,-10v12,9,23,14,33,14","w":395},"\u00a0":{"w":273},"\u00a1":{"d":"89,-501r84,0r-64,604r-84,0xm145,-591v-31,0,-53,-26,-51,-58v3,-46,69,-78,102,-41v34,39,-5,99,-51,99","w":235},"\u00a2":{"d":"122,-238v-13,99,37,176,127,177v50,0,97,-18,140,-53r34,54v-43,38,-88,61,-137,69r-8,80r-89,0r8,-79v-113,-15,-173,-117,-160,-252v14,-138,90,-239,215,-262r9,-86r89,0r-9,85v41,7,78,24,110,51r-51,68v-72,-64,-174,-70,-230,10v-26,35,-41,81,-48,138","w":479},"\u00a3":{"d":"391,7v-93,-25,-264,-13,-347,7r-3,-68v16,-6,41,-11,58,-26v50,-42,51,-134,44,-221r-60,0r7,-69r53,0v-3,-60,-5,-95,-4,-106v11,-100,79,-181,186,-180v41,0,79,11,114,32r-36,61v-39,-19,-65,-29,-79,-29v-63,-2,-109,62,-114,120v-3,30,3,72,6,102r136,0r-7,69r-119,0v-2,79,-4,196,-48,225v108,-16,151,-15,237,6","w":476},"\u00a4":{"d":"408,-360r-178,0r-5,45r178,0r-7,75r-178,0r-18,164r193,-1r-8,77r-282,0r26,-240r-99,0r6,-75r100,0r5,-46r-99,0r7,-74r100,0r22,-205r285,0r-8,72r-196,0r-14,133r178,0","w":489},"\u00a5":{"d":"296,-283r-2,18r86,0r-6,59r-86,0r-7,60r86,0r-6,59r-86,0r-9,85r-89,0r9,-85r-89,0r6,-59r89,0r7,-60r-89,0r6,-59r89,0r2,-18r-140,-358r90,0r104,264r160,-264r91,0","w":531},"\u00a6":{"d":"54,18r0,-274r77,0r0,274r-77,0xm54,-382r0,-274r77,0r0,274r-77,0","w":182},"\u00a7":{"d":"254,56v-65,47,-173,38,-222,-21r37,-49v36,42,102,64,149,25v26,-22,32,-57,5,-77v-19,-14,-66,-22,-96,-32v-85,-27,-63,-143,0,-176v-64,-32,-38,-132,10,-165v58,-40,131,-32,190,8r-28,50v-33,-23,-61,-34,-84,-34v-46,1,-61,16,-64,58v-2,31,58,38,86,47v62,20,91,53,86,102v-5,41,-22,71,-51,91v59,37,30,139,-18,173xm189,-253v-33,4,-52,25,-56,64v-7,21,51,38,80,46v42,-13,62,-64,27,-91v-9,-6,-26,-12,-51,-19","w":392},"\u00a8":{"d":"261,-650v45,-2,57,60,27,88v-11,10,-23,16,-39,16v-47,3,-56,-60,-27,-88v10,-10,22,-16,39,-16xm51,-650v46,-2,57,61,27,88v-11,10,-23,16,-39,16v-46,2,-57,-61,-27,-88v11,-10,23,-16,39,-16","w":306},"\u00a9":{"d":"275,-310v0,81,48,157,121,157v35,0,69,-9,102,-28r25,42v-47,25,-89,37,-127,37v-113,2,-179,-97,-179,-216v0,-115,71,-213,181,-212v40,0,80,12,121,35r-24,51v-39,-24,-71,-36,-94,-36v-79,-3,-126,85,-126,170xm398,-582v-143,0,-266,123,-266,266v0,143,123,266,266,266v143,0,266,-123,266,-266v0,-143,-123,-266,-266,-266xm398,15v-178,0,-331,-153,-331,-331v0,-178,153,-331,331,-331v178,0,331,153,331,331v0,178,-153,331,-331,331","w":796},"\u00ab":{"d":"240,-286r131,161r-71,3r-153,-167r153,-162r71,3xm99,-286r130,161r-70,3r-154,-167r154,-162r70,3","w":390},"\u00ac":{"d":"474,-28r0,-222r-386,0r0,-93r470,0r0,315r-84,0","w":613},"\u00ad":{"d":"52,-285r0,-63r394,0r0,63r-394,0","w":498},"\u00ae":{"d":"398,-582v-143,0,-269,123,-265,266r-1,0v-4,143,123,266,266,266v143,0,266,-123,266,-266v0,-143,-123,-266,-266,-266xm398,15v-178,0,-331,-153,-331,-331v0,-178,153,-331,331,-331v178,0,331,153,331,331v0,178,-153,331,-331,331xm491,-108v-48,-49,-95,-118,-139,-192r-29,1r0,185r-57,0r0,-410v65,-1,108,-2,129,-2v75,1,112,38,111,113v-1,61,-33,97,-98,109v55,73,76,111,154,183xm365,-342v64,0,89,-19,89,-78v0,-45,-25,-68,-75,-67r-56,1r0,144r42,0","w":796},"\u00af":{"d":"102,-594r6,-65r234,0r-6,65r-234,0","w":406},"\u00b0":{"d":"53,-674v51,-46,143,-52,188,0v47,54,28,140,-20,184v-51,46,-141,52,-187,0v-49,-55,-30,-139,19,-184xm200,-639v-26,-32,-83,-28,-113,0v-29,27,-42,81,-13,114v26,31,83,29,113,0v28,-27,41,-81,13,-114","w":273},"\u00b1":{"d":"279,-280r0,185r-62,0r0,-184r-164,-1r0,-62r164,0r0,-175r62,0r0,175r167,0r0,62r-167,0xm66,-12r0,-54r374,0r0,54r-374,0","w":501},"\u00b4":{"d":"96,-557r-41,-59r220,-96r40,65","w":329},"\u00b5":{"d":"285,0v-47,42,-136,18,-156,-29r-24,225r-73,0r72,-682r73,0r-36,342v-7,65,29,97,106,97v47,0,110,-60,115,-102r36,-338r80,0r-39,371v-7,48,4,90,27,109v11,9,20,15,25,20r-69,48v-41,-25,-64,-66,-67,-122","w":508},"\u00b6":{"d":"437,0r-69,0r0,-642r69,0r0,642xm50,-493v1,-108,45,-149,156,-149r91,0r0,642r-69,0r0,-337v-117,6,-180,-43,-178,-156","w":507},"\u00b7":{"d":"136,-492v38,0,58,38,58,79v0,58,-79,110,-119,56v-38,-51,5,-135,61,-135","w":236},"\u00b8":{"d":"88,47v60,-18,113,26,106,85v-6,48,-48,87,-105,87v-43,0,-70,-16,-81,-48r40,-34v17,21,33,32,47,32v24,0,37,-11,40,-34v5,-45,-37,-48,-66,-24r-44,-21r15,-94r58,-1","w":205},"\u00bb":{"d":"215,-122r-71,-3r131,-161r-131,-162r71,-3r153,162xm74,-122r-72,-3r131,-161r-131,-162r72,-3r152,162","w":393},"\u00bf":{"d":"102,-222v74,-50,103,-134,105,-257r80,0v8,125,-34,244,-103,297v-35,28,-56,44,-61,49v-40,35,-49,99,-13,137v17,19,41,27,68,27v63,0,109,-34,139,-103r64,34v-49,94,-118,141,-207,141v-99,0,-174,-76,-163,-173v7,-66,37,-117,91,-152xm297,-582v-36,34,-99,9,-94,-42v4,-45,70,-78,103,-40v21,24,12,62,-9,82","w":459},"\u00c0":{"d":"413,10r-39,-189r-225,0r-77,189r-81,-10r281,-654r81,0r146,650xm301,-551r-124,303r184,0xm394,-686r-200,-90r54,-65r200,96","w":580},"\u00c1":{"d":"413,10r-39,-189r-225,0r-77,189r-81,-10r281,-654r81,0r146,650xm301,-551r-124,303r184,0xm232,-687r-41,-59r220,-96r40,65","w":568},"\u00c2":{"d":"413,10r-39,-189r-225,0r-77,189r-81,-10r281,-654r81,0r146,650xm301,-551r-124,303r184,0xm318,-749r-146,93r7,-71r149,-113r130,113r-7,71","w":568},"\u00c3":{"d":"415,10r-39,-189r-225,0r-77,189r-81,-10r281,-654r81,0r146,650xm303,-551r-124,303r184,0xm470,-702v-8,12,-59,33,-77,33v-19,0,-42,-12,-70,-35v-28,-23,-47,-34,-58,-34v-26,0,-51,14,-74,42r-21,-59v17,-24,65,-48,102,-50v19,-1,41,10,67,33v48,42,66,47,112,10","w":580},"\u00c4":{"d":"415,10r-39,-189r-225,0r-77,189r-81,-10r282,-654r81,0r146,650xm304,-551r-124,303r184,0xm439,-797v46,0,56,58,27,87v-30,30,-91,13,-83,-36v4,-26,25,-51,56,-51xm229,-797v46,0,56,58,27,87v-30,30,-91,13,-83,-36v4,-26,25,-51,56,-51","w":580},"\u00c5":{"d":"412,10r-39,-189r-225,0r-77,189r-81,-10r281,-654r81,0r146,650xm300,-551r-124,303r184,0xm389,-710v-34,30,-100,33,-131,0v-32,-35,-20,-95,13,-124v34,-30,100,-33,131,0v33,35,19,96,-13,124xm334,-816v-29,0,-44,14,-47,43v-3,29,9,44,38,44v29,0,45,-15,48,-44v3,-29,-10,-43,-39,-43","w":580},"\u00c6":{"d":"305,-551r-123,303r184,0xm578,-568r-20,193r252,0r-8,75r-252,-1r-24,225r267,-1r-8,77r-370,0r-36,-179r-225,0r-78,189r-81,-10r282,-654r80,0r96,427r44,-413r359,0r-8,72r-270,0","w":862},"\u00c7":{"d":"136,-317v-13,131,49,243,163,245v57,0,112,-14,166,-43r31,65v-75,36,-102,52,-188,58r-7,39v57,-18,113,24,106,85v-6,50,-50,87,-106,87v-43,0,-70,-16,-81,-48r40,-34v17,21,33,32,48,32v23,0,36,-11,38,-34v5,-46,-36,-48,-65,-24r-44,-21r14,-85v-131,-15,-205,-130,-205,-282v0,-234,183,-454,428,-362v31,11,56,22,75,34r-47,79v-57,-37,-104,-56,-141,-56v-126,0,-212,138,-225,265","w":570},"\u00c8":{"d":"173,-568r-21,193r252,0r-8,75r-252,-1r-24,225r268,-1r-9,77r-356,0r68,-640r359,0r-7,72r-270,0xm362,-686r-198,-90r53,-65r200,96","w":489},"\u00c9":{"d":"173,-568r-21,193r252,0r-8,75r-252,-1r-24,225r268,-1r-9,77r-356,0r68,-640r359,0r-7,72r-270,0xm200,-687r-40,-59r221,-96r40,65","w":469},"\u00ca":{"d":"173,-568r-21,193r252,0r-8,75r-252,-1r-23,225r267,-1r-9,77r-356,0r68,-640r359,0r-7,72r-270,0xm287,-749r-148,93r8,-71r150,-113r130,113r-8,71","w":489},"\u00cb":{"d":"175,-568r-21,193r252,0r-8,75r-251,-1r-24,225r267,-1r-8,77r-356,0r67,-640r359,0r-7,72r-270,0xm407,-800v45,-2,59,60,28,88v-11,10,-23,16,-39,16v-47,3,-57,-60,-28,-88v10,-10,23,-16,39,-16xm198,-800v46,-2,57,61,27,88v-11,10,-23,16,-38,16v-47,3,-56,-60,-27,-88v10,-10,22,-16,38,-16","w":489},"\u00cc":{"d":"23,0r68,-642r89,0r-68,642r-89,0xm226,-686r-199,-90r54,-65r199,96","w":215},"\u00cd":{"d":"23,0r68,-642r89,0r-68,642r-89,0xm64,-687r-41,-59r221,-96r40,65","w":215},"\u00ce":{"d":"23,0r69,-642r89,0r-69,642r-89,0xm150,-749r-147,93r8,-71r149,-113r130,113r-8,71","w":215},"\u00cf":{"d":"26,0r68,-642r89,0r-68,642r-89,0xm260,-800v45,-2,59,60,28,88v-11,10,-23,16,-39,16v-47,3,-56,-60,-27,-88v10,-10,22,-16,38,-16xm51,-800v46,-2,57,61,27,88v-11,10,-23,16,-38,16v-47,3,-57,-60,-28,-88v10,-10,23,-16,39,-16","w":215},"\u00d0":{"d":"153,-335r68,0r-7,68r-68,0r-20,193r90,0v148,-3,225,-141,225,-305v0,-136,-59,-204,-178,-204v-19,0,-47,1,-84,2xm537,-388v0,240,-120,390,-356,390r-152,-4r28,-265r-57,0r7,-68r57,0r33,-309v46,-2,95,-3,146,-3v196,1,294,71,294,259","w":565},"\u00d1":{"d":"418,11v-49,-108,-135,-266,-259,-475r-49,463r-84,1r69,-644r74,0r251,455r48,-451r82,0r-66,629xm491,-692v-8,12,-59,33,-78,33v-18,0,-41,-12,-69,-35v-28,-23,-48,-34,-58,-34v-27,0,-52,14,-75,42r-21,-59v18,-24,66,-48,103,-50v18,-1,40,10,66,33v48,42,66,47,112,10","w":570},"\u00d2":{"d":"356,-646v171,0,272,139,252,324v-20,187,-138,336,-329,338v-180,2,-272,-142,-252,-338v18,-172,150,-324,329,-324xm527,-349v0,-119,-66,-223,-181,-223v-136,0,-238,152,-238,294v0,115,69,217,179,217v134,0,240,-150,240,-288xm437,-686r-199,-90r53,-65r200,96","w":644},"\u00d3":{"d":"356,-646v171,0,272,139,252,324v-20,187,-138,336,-329,338v-180,2,-272,-142,-252,-338v18,-172,150,-324,329,-324xm527,-349v0,-119,-66,-223,-181,-223v-136,0,-238,151,-238,294v0,115,69,217,179,217v134,0,240,-150,240,-288xm275,-687r-41,-59r220,-96r41,65","w":644},"\u00d4":{"d":"355,-646v171,0,271,138,253,324v-18,187,-139,336,-330,338v-180,2,-271,-142,-251,-338v17,-172,149,-324,328,-324xm527,-349v0,-121,-69,-223,-182,-223v-135,0,-238,152,-238,294v0,115,69,217,179,217v135,0,241,-149,241,-288xm369,-759r-148,93r8,-71r150,-113r130,113r-8,71","w":644},"\u00d5":{"d":"358,-646v171,0,272,139,252,324v-20,187,-138,336,-330,338v-179,2,-271,-142,-251,-338v18,-173,149,-324,329,-324xm529,-349v0,-119,-66,-223,-181,-223v-136,0,-238,151,-238,294v0,115,69,217,179,217v134,0,240,-150,240,-288xm492,-702v-9,12,-59,33,-78,33v-18,0,-42,-12,-70,-35v-28,-23,-47,-34,-58,-34v-26,0,-51,14,-74,42r-21,-59v18,-24,66,-48,102,-50v19,-1,41,10,67,33v48,42,66,47,112,10","w":648},"\u00d6":{"d":"358,-646v171,0,271,138,253,324v-18,187,-139,336,-330,338v-180,2,-272,-144,-251,-338v19,-172,149,-324,328,-324xm530,-349v0,-119,-67,-223,-182,-223v-136,0,-238,152,-238,294v0,115,69,217,179,217v134,0,241,-150,241,-288xm482,-800v46,-2,59,60,28,88v-11,10,-24,16,-39,16v-47,3,-56,-60,-27,-88v10,-10,22,-16,38,-16xm272,-800v46,-2,59,60,28,88v-11,10,-24,16,-39,16v-47,3,-56,-60,-27,-88v10,-10,22,-16,38,-16","w":648},"\u00d8":{"d":"352,-572v-135,-5,-238,152,-238,293v0,84,27,146,80,186r196,-475v-11,-3,-23,-4,-38,-4xm293,-61v134,5,241,-150,241,-288v0,-81,-24,-142,-73,-184r-194,470v12,1,21,2,26,2xm437,-682r75,24r-19,46v93,53,135,152,122,290v-10,107,-49,191,-114,252v-71,67,-154,97,-265,82r-23,57r-75,-24r23,-57v-100,-50,-141,-162,-127,-310v18,-188,170,-356,385,-318","w":644},"\u00d9":{"d":"237,17v-136,1,-203,-101,-188,-247r43,-410r89,0r-43,410v-1,13,-2,26,-2,39v0,89,37,133,111,133v98,0,147,-73,157,-172r43,-410r90,0r-43,410v-13,143,-108,245,-257,247xm395,-686r-199,-90r53,-65r200,96","w":571},"\u00da":{"d":"236,17v-135,1,-202,-101,-187,-247r43,-410r89,0r-43,410v-2,13,-3,26,-3,39v0,89,37,133,112,133v98,0,147,-74,157,-172r43,-410r90,0r-43,410v-13,143,-108,245,-258,247xm233,-687r-41,-59r221,-96r40,65","w":571},"\u00db":{"d":"236,17v-136,1,-204,-99,-188,-247r44,-410r89,0r-44,410v-1,13,-2,26,-2,39v0,89,37,133,112,133v97,0,145,-74,156,-172r44,-410r90,0r-44,410v-12,143,-109,246,-257,247xm319,-759r-148,93r8,-71r150,-113r130,113r-8,71","w":571},"\u00dc":{"d":"239,17v-136,1,-203,-101,-188,-247r43,-410r89,0r-43,410v-1,13,-2,26,-2,39v0,89,37,133,112,133v98,0,146,-74,156,-172r43,-410r90,0r-43,410v-12,143,-109,245,-257,247xm429,-800v46,-2,58,60,27,88v-11,10,-23,16,-38,16v-47,3,-57,-60,-28,-88v10,-10,23,-16,39,-16xm220,-800v46,-2,57,61,27,88v-11,10,-23,16,-38,16v-47,3,-56,-60,-27,-88v10,-10,22,-16,38,-16","w":521},"\u00dd":{"d":"288,-272r-28,272r-89,0r28,-272r-140,-355r82,-23r114,297r174,-297r74,23xm218,-627r-40,-59r220,-96r41,65","w":503},"\u00de":{"d":"508,-448v-4,177,-78,303,-245,303v-60,0,-83,-12,-130,-44r-32,297r-84,0r86,-808r84,0r-10,97v37,-49,83,-73,140,-73v122,-2,194,102,191,228xm421,-435v0,-93,-43,-165,-131,-164v-53,0,-93,25,-122,74r-26,252v21,40,62,60,123,60v101,0,156,-111,156,-222","w":543},"\u00df":{"d":"293,-715v118,0,197,73,174,194v-5,27,-20,58,-45,93v-48,-15,-111,-35,-151,0v-28,24,-43,69,-5,94v17,11,133,48,143,53v57,25,78,59,72,137v-6,82,-98,160,-186,159v-92,-1,-134,-21,-176,-73r49,-65v33,49,52,63,130,64v49,1,97,-36,101,-79v3,-35,-20,-61,-70,-78v-77,-26,-174,-40,-164,-144v11,-107,89,-168,210,-151v5,-7,11,-16,16,-27v3,-38,0,-66,-31,-87v-48,-32,-125,-31,-166,5v-25,21,-40,52,-44,91r-56,529r-78,0r56,-529v13,-124,87,-186,221,-186","w":549},"\u00e0":{"d":"406,-556r-194,-90r57,-65r195,96xm290,-445v-112,-2,-177,114,-177,235v0,97,30,146,90,146v53,0,131,-118,138,-178r24,-195v-29,-5,-54,-8,-75,-8xm30,-197v0,-167,123,-314,287,-314v42,0,92,10,133,9r-41,361v-5,48,0,92,9,141r-85,0r-2,-119r-44,75v-29,37,-64,55,-107,55v-99,2,-150,-100,-150,-208","w":491},"\u00e1":{"d":"265,-557r-37,-59r225,-96r36,65xm290,-445v-112,-2,-177,114,-177,235v0,97,30,146,90,146v53,0,131,-118,138,-178r24,-195v-29,-5,-54,-8,-75,-8xm30,-197v0,-167,123,-314,287,-314v42,0,92,10,133,9r-41,361v-5,48,0,92,9,141r-85,0r-2,-119r-44,75v-29,37,-64,55,-107,55v-99,2,-150,-100,-150,-208","w":491},"\u00e2":{"d":"315,-619r-152,93r11,-71r155,-113r125,113r-12,71xm290,-445v-112,-2,-177,114,-177,235v0,97,30,146,90,146v53,0,131,-118,138,-178r24,-195v-29,-5,-54,-8,-75,-8xm30,-197v0,-167,123,-314,287,-314v42,0,92,10,133,9r-41,361v-5,48,0,92,9,141r-85,0r-2,-119r-44,75v-29,37,-64,55,-107,55v-99,2,-150,-100,-150,-208","w":491},"\u00e3":{"d":"460,-582v-9,12,-61,33,-79,33v-19,0,-42,-12,-69,-35v-27,-23,-46,-34,-56,-34v-26,0,-52,14,-77,42r-17,-59v19,-24,67,-48,105,-50v19,-1,40,10,65,33v47,43,63,46,111,10xm290,-445v-112,-2,-177,114,-177,235v0,97,30,146,90,146v53,0,131,-118,138,-178r24,-195v-29,-5,-54,-8,-75,-8xm30,-197v0,-167,123,-314,287,-314v42,0,92,10,133,9r-41,361v-5,48,0,92,9,141r-85,0r-2,-119r-44,75v-29,37,-64,55,-107,55v-99,2,-150,-100,-150,-208","w":525},"\u00e4":{"d":"463,-562v-20,18,-59,22,-73,0v-23,-38,7,-88,50,-88v47,0,53,61,23,88xm253,-562v-20,18,-59,22,-73,0v-23,-38,7,-88,50,-88v48,0,52,61,23,88xm290,-445v-112,-2,-177,114,-177,235v0,97,30,146,90,146v53,0,131,-118,138,-178r24,-195v-29,-5,-54,-8,-75,-8xm30,-197v0,-167,123,-314,287,-314v42,0,92,10,133,9r-41,361v-5,48,0,92,9,141r-85,0r-2,-119r-44,75v-29,37,-64,55,-107,55v-99,2,-150,-100,-150,-208","w":491},"\u00e5":{"d":"352,-668v0,56,-49,102,-105,102v-46,0,-78,-27,-78,-71v0,-56,48,-102,105,-102v45,0,78,28,78,71xm267,-696v-28,0,-44,14,-49,43v-5,29,7,44,36,44v28,0,44,-15,49,-44v5,-29,-7,-43,-36,-43xm290,-445v-112,-2,-177,114,-177,235v0,97,30,146,90,146v53,0,131,-118,138,-178r24,-195v-29,-5,-54,-8,-75,-8xm30,-197v0,-167,123,-314,287,-314v42,0,92,10,133,9r-41,361v-5,48,0,92,9,141r-85,0r-2,-119r-44,75v-29,37,-64,55,-107,55v-99,2,-150,-100,-150,-208","w":491},"\u00e6":{"d":"667,-332v7,-73,-25,-109,-97,-109v-109,0,-126,44,-160,141r254,0xm585,-507v102,0,173,96,157,209r-6,61r-340,0v-6,58,-4,69,13,112v16,39,76,70,132,69v39,0,85,-21,137,-64r35,56v-60,51,-123,76,-188,76v-83,0,-141,-28,-174,-85v-46,43,-107,90,-200,89v-79,0,-134,-56,-123,-143v6,-54,27,-92,62,-117v36,-26,162,-56,235,-62v4,-42,18,-88,-13,-114v-16,-13,-35,-21,-58,-21v-37,0,-83,21,-139,64r-35,-56v31,-29,130,-79,182,-79v69,0,114,28,137,83v49,-52,111,-78,186,-78xm317,-233v-19,0,-157,23,-168,34v-43,18,-68,85,-37,127v46,63,189,-1,195,-60","w":775},"\u00e7":{"d":"336,117v0,59,-54,103,-112,102v-43,0,-69,-16,-78,-48r42,-34v15,21,30,32,45,32v25,0,39,-11,42,-34v7,-47,-36,-47,-65,-24r-42,-21r19,-84v-91,-20,-138,-85,-145,-194v-11,-168,102,-319,264,-319v58,0,108,18,150,53r-49,66v-40,-34,-80,-51,-120,-51v-102,0,-168,135,-162,245v4,76,52,137,128,137v48,0,94,-18,139,-55r34,52v-56,48,-116,72,-183,72r-9,35v52,-16,102,17,102,70","w":483},"\u00e8":{"d":"418,-556r-195,-90r57,-65r195,96xm378,-378v-2,-54,-35,-61,-95,-63v-88,-3,-149,77,-162,156v43,2,100,-4,171,-18v58,-11,87,-36,86,-75xm297,-507v92,0,157,48,157,138v0,59,-67,111,-122,122v-94,18,-138,28,-217,20v-7,68,14,134,67,156v83,34,126,9,206,-49r33,56v-60,51,-122,76,-187,76v-128,0,-195,-65,-203,-196v-11,-173,99,-323,266,-323","w":497},"\u00e9":{"d":"275,-557r-37,-59r225,-96r37,65xm378,-378v-2,-54,-35,-61,-95,-63v-88,-3,-149,77,-162,156v43,2,100,-4,171,-18v58,-11,87,-36,86,-75xm297,-507v92,0,157,48,157,138v0,59,-67,111,-122,122v-94,18,-138,28,-217,20v-7,68,14,134,67,156v83,34,126,9,206,-49r33,56v-60,51,-122,76,-187,76v-128,0,-195,-65,-203,-196v-11,-173,99,-323,266,-323","w":497},"\u00ea":{"d":"337,-619r-152,93r11,-71r155,-113r125,113r-12,71xm378,-378v-2,-54,-35,-61,-95,-63v-88,-3,-149,77,-162,156v43,2,100,-4,171,-18v58,-11,87,-36,86,-75xm297,-507v92,0,157,48,157,138v0,59,-67,111,-122,122v-94,18,-138,28,-217,20v-7,68,14,134,67,156v83,34,126,9,206,-49r33,56v-60,51,-122,76,-187,76v-128,0,-195,-65,-203,-196v-11,-173,99,-323,266,-323","w":497},"\u00eb":{"d":"484,-562v-20,18,-60,22,-74,0v-23,-38,8,-88,51,-88v47,0,53,61,23,88xm274,-562v-20,18,-60,22,-74,0v-23,-38,8,-88,51,-88v48,0,52,61,23,88xm378,-378v-2,-54,-35,-61,-95,-63v-88,-3,-149,77,-162,156v43,2,100,-4,171,-18v58,-11,87,-36,86,-75xm297,-507v92,0,157,48,157,138v0,59,-67,111,-122,122v-94,18,-138,28,-217,20v-7,68,14,134,67,156v83,34,126,9,206,-49r33,56v-60,51,-122,76,-187,76v-128,0,-195,-65,-203,-196v-11,-173,99,-323,266,-323","w":497},"\u00ec":{"d":"39,0r53,-495r80,0r-53,495r-80,0xm229,-556r-198,-90r53,-65r200,96","w":249},"\u00ed":{"d":"39,0r53,-495r80,0r-53,495r-80,0xm67,-557r-39,-59r220,-96r40,65","w":234},"\u00ee":{"d":"39,0r53,-495r80,0r-53,495r-80,0xm143,-619r-147,93r8,-71r149,-113r130,113r-8,71","w":210},"\u00ef":{"d":"43,0r52,-495r80,0r-52,495r-80,0xm249,-650v45,-2,59,60,28,88v-11,10,-23,16,-39,16v-47,3,-57,-60,-28,-88v10,-10,23,-16,39,-16xm39,-650v47,-3,58,60,28,88v-11,10,-23,16,-39,16v-46,2,-54,-61,-26,-88v10,-10,22,-16,37,-16","w":207},"\u00f0":{"d":"107,-225v-1,88,46,164,129,163v110,0,181,-92,190,-200v3,-35,4,-67,2,-96v-33,-55,-80,-82,-142,-82v-115,0,-177,92,-179,215xm18,-211v4,-179,101,-294,276,-297v51,0,90,15,115,44v-5,-19,-16,-46,-34,-80r-143,0r7,-69r94,0v-27,-36,-47,-60,-60,-73r72,-45v31,33,59,73,86,118r136,0r-8,69r-94,0v37,90,57,152,49,238v-18,186,-109,320,-297,323v-122,2,-202,-103,-199,-228","w":563},"\u00f1":{"d":"309,-511v87,0,156,76,146,173r-36,338r-79,0r34,-325v8,-67,-22,-117,-81,-118v-57,-2,-143,62,-148,115r-34,328r-79,0r52,-495r79,0r-6,56v55,-43,77,-72,152,-72xm432,-582v-9,12,-59,33,-77,33v-19,0,-43,-12,-71,-35v-28,-23,-47,-34,-58,-34v-26,0,-51,14,-74,42r-20,-59v17,-24,65,-48,101,-50v19,-1,41,10,67,33v49,42,64,47,113,10","w":486},"\u00f2":{"d":"299,-512v135,0,223,109,204,260v-7,59,-28,114,-64,163v-49,67,-115,100,-197,100v-150,0,-221,-104,-208,-263v12,-143,119,-260,265,-260xm417,-286v0,-89,-39,-158,-121,-159v-112,-1,-179,112,-179,232v0,91,42,159,128,159v109,0,172,-114,172,-232xm409,-556r-200,-90r54,-65r200,96","w":543},"\u00f3":{"d":"299,-512v134,0,223,109,204,260v-8,59,-28,114,-64,163v-49,67,-115,100,-197,100v-150,0,-221,-104,-208,-263v12,-143,119,-260,265,-260xm417,-286v0,-89,-39,-158,-121,-159v-112,-1,-179,112,-179,232v0,91,42,159,128,159v109,0,172,-114,172,-232xm247,-557r-41,-59r220,-96r40,65","w":543},"\u00f4":{"d":"299,-512v135,0,223,109,204,260v-7,59,-28,114,-64,163v-49,67,-115,100,-197,100v-150,0,-221,-104,-208,-263v12,-143,119,-260,265,-260xm417,-286v0,-89,-38,-158,-121,-159v-112,-1,-179,112,-179,232v0,91,42,159,128,159v109,0,172,-114,172,-232xm312,-619r-147,93r7,-71r149,-113r130,113r-7,71","w":543},"\u00f5":{"d":"301,-512v134,0,220,110,203,260v-15,133,-118,263,-261,263v-149,0,-222,-105,-208,-263v13,-143,119,-260,266,-260xm419,-286v0,-90,-39,-159,-122,-159v-112,0,-178,112,-178,232v0,91,42,159,127,159v110,0,173,-114,173,-232xm464,-582v-8,12,-59,33,-78,33v-18,0,-42,-12,-70,-35v-28,-23,-47,-34,-57,-34v-26,0,-51,14,-75,42r-20,-59v17,-24,65,-48,102,-50v18,-1,40,10,66,33v48,42,67,47,112,10","w":543},"\u00f6":{"d":"302,-512v135,0,223,109,204,260v-7,59,-28,114,-64,163v-49,67,-115,100,-197,100v-149,0,-222,-104,-208,-263v12,-143,119,-260,265,-260xm421,-286v0,-90,-39,-159,-122,-159v-112,0,-179,113,-179,232v0,91,42,159,128,159v110,0,173,-114,173,-232xm410,-546v-47,0,-56,-59,-28,-88v18,-19,58,-22,74,0v26,37,-5,88,-46,88xm201,-546v-47,0,-55,-59,-27,-88v18,-19,57,-22,72,0v26,37,-5,88,-45,88","w":543},"\u00f7":{"d":"324,-463v0,35,-26,66,-60,66v-34,0,-60,-31,-60,-66v0,-35,26,-66,60,-66v34,0,60,31,60,66xm53,-275r0,-70r393,0r0,70r-393,0xm324,-159v0,35,-26,66,-60,66v-34,0,-60,-31,-60,-66v0,-35,26,-66,60,-66v34,0,60,31,60,66","w":496},"\u00f8":{"d":"304,-445v-116,-4,-183,112,-182,232v0,52,13,92,38,121xm230,-55v127,15,193,-108,193,-231v0,-59,-15,-103,-45,-130xm359,-578r76,24r-28,68v78,43,111,122,100,234v-7,59,-28,114,-64,163v-58,77,-131,110,-239,97r-25,61r-76,-24r26,-62v-70,-40,-100,-125,-90,-235v13,-150,127,-272,292,-258","w":546},"\u00f9":{"d":"177,18v-86,0,-140,-80,-129,-178r36,-335r79,0r-37,354v0,59,26,88,78,88v56,0,145,-64,150,-111r35,-331r78,0r-53,495r-71,0v-1,-9,-2,-27,-4,-52v-55,47,-109,70,-162,70xm377,-556r-198,-90r53,-65r200,96","w":482},"\u00fa":{"d":"177,18v-85,-1,-140,-78,-129,-178r36,-335r79,0r-37,354v0,59,26,88,78,88v56,0,145,-64,150,-111r35,-331r78,0r-53,495r-71,0v-1,-9,-2,-27,-4,-52v-55,47,-109,70,-162,70xm205,-557r-40,-59r220,-96r40,65","w":482},"\u00fb":{"d":"177,18v-85,0,-140,-80,-129,-178r36,-335r79,0r-37,354v0,59,26,88,78,88v56,0,145,-64,150,-111r35,-331r78,0r-53,495r-71,0v-1,-9,-2,-27,-4,-52v-55,47,-109,70,-162,70xm291,-619r-147,93r8,-71r149,-113r130,113r-8,71","w":482},"\u00fc":{"d":"181,18v-86,-2,-141,-79,-130,-178r36,-335r79,0r-35,331v-7,66,17,111,76,111v56,0,145,-64,150,-111r35,-331r78,0r-52,495r-71,0v-1,-9,-3,-27,-5,-52v-55,47,-109,70,-161,70xm400,-650v45,-2,59,60,28,88v-11,10,-23,16,-39,16v-47,3,-56,-60,-27,-88v10,-10,22,-16,38,-16xm191,-650v46,-2,57,61,27,88v-11,10,-23,16,-38,16v-47,3,-57,-60,-28,-88v10,-10,23,-16,39,-16","w":482},"\u00fe":{"d":"497,-299v-4,180,-81,305,-252,309v-61,2,-85,-29,-121,-51r-25,236r-86,0r94,-880r83,0r-29,266v43,-54,95,-81,157,-81v115,-1,182,83,179,201xm252,-56v101,0,158,-120,158,-231v0,-95,-38,-143,-113,-143v-62,0,-116,44,-141,89r-25,244v15,25,78,41,121,41","w":522},"\u00ff":{"d":"221,84v-25,54,-97,113,-169,112v-11,0,-33,-6,-68,-18r33,-71v63,31,103,14,139,-53r51,-96r-144,-436r78,-21r114,354r167,-353r68,17xm388,-650v45,-2,57,60,27,88v-11,10,-23,16,-38,16v-48,3,-57,-60,-28,-88v11,-10,23,-16,39,-16xm179,-650v46,-2,55,61,27,88v-10,10,-23,16,-38,16v-48,3,-57,-60,-28,-88v11,-10,23,-16,39,-16","w":467},"\u0152":{"d":"294,3v-179,0,-272,-147,-251,-344v18,-172,147,-317,327,-316v124,0,208,69,252,208r21,-200r355,0r-8,72r-265,0r-20,193r255,0r-8,75r-258,0r-23,225r267,0r-9,84r-355,0r24,-223v-75,151,-177,226,-304,226xm541,-368v0,-120,-67,-213,-180,-213v-138,0,-236,142,-236,285v0,116,67,221,177,221v134,0,239,-154,239,-293","w":1028},"\u0153":{"d":"423,-286v0,-89,-39,-158,-121,-159v-113,-2,-179,112,-179,232v0,91,42,159,127,159v110,0,173,-113,173,-232xm741,-507v104,0,175,77,160,189r-6,61r-330,0v-16,126,22,201,131,201v39,0,85,-21,138,-64r34,56v-59,51,-121,76,-186,76v-117,0,-184,-55,-201,-165v-49,109,-127,164,-234,164v-149,0,-222,-105,-208,-263v13,-143,119,-260,265,-260v105,0,185,70,200,164v37,-89,118,-158,237,-159xm822,-320v13,-75,-18,-124,-95,-121v-92,2,-119,46,-149,121r244,0","w":931},"\u0178":{"d":"287,-272r-28,272r-89,0r28,-272r-140,-355r82,-23r114,297r174,-297r74,23xm418,-800v45,-2,59,60,28,88v-11,10,-23,16,-39,16v-47,3,-56,-60,-27,-88v10,-10,22,-16,38,-16xm208,-800v45,-2,59,60,28,88v-11,10,-23,16,-39,16v-47,3,-56,-60,-27,-88v10,-10,22,-16,38,-16","w":482},"\u02c6":{"d":"173,-619r-148,93r8,-71r150,-113r130,113r-8,71","w":337},"\u02dc":{"d":"345,-582v-8,12,-59,33,-77,33v-19,0,-42,-12,-70,-35v-28,-23,-48,-34,-58,-34v-26,0,-51,14,-75,42r-20,-59v17,-24,65,-48,102,-50v19,-1,41,10,67,33v49,42,64,47,112,10","w":375},"\u2013":{"d":"34,-292r0,-71r432,0r0,71r-432,0","w":500},"\u2014":{"d":"27,-292r0,-71r946,0r0,71r-946,0","w":1000},"\u2018":{"d":"136,-516v4,-49,40,-159,60,-192r-43,-12v-69,79,-107,147,-114,204r97,0","w":213},"\u2019":{"d":"97,-720v-4,49,-40,159,-60,192r43,12v69,-79,107,-147,114,-204r-97,0","w":241},"\u201a":{"d":"85,128r-55,4v0,-2,59,-75,60,-93v-42,-2,-60,-26,-56,-72v4,-50,78,-97,118,-49v34,40,10,95,-13,136v-9,16,-27,40,-54,74","w":214},"\u201c":{"d":"375,-516v4,-49,40,-159,60,-192r-43,-12v-69,79,-107,147,-114,204r97,0xm175,-516v4,-49,40,-159,60,-192r-43,-12v-69,79,-107,147,-114,204r97,0","w":443},"\u201d":{"d":"81,-720v-4,49,-40,159,-60,192r43,12v69,-79,107,-147,114,-204r-97,0xm281,-720v-4,49,-40,159,-60,192r43,12v69,-79,107,-147,114,-204r-97,0","w":443},"\u201e":{"d":"81,-120v-4,49,-40,159,-60,192r43,12v69,-79,107,-147,114,-204r-97,0xm281,-120v-4,49,-40,159,-60,192r43,12v69,-79,107,-147,114,-204r-97,0","w":417},"\u2022":{"d":"196,-219v-37,36,-97,41,-129,1v-34,-41,-19,-112,16,-144v37,-35,96,-39,129,0v34,41,18,110,-16,143","w":282},"\u2026":{"d":"464,-105v41,-36,116,-12,107,52v-5,39,-34,69,-73,69v-38,0,-65,-28,-60,-69v2,-22,11,-39,26,-52xm275,-105v41,-36,116,-12,107,52v-5,39,-34,69,-73,69v-38,0,-65,-28,-60,-69v2,-22,11,-39,26,-52xm86,-105v41,-36,116,-12,107,52v-5,39,-34,69,-73,69v-38,0,-65,-28,-60,-69v2,-22,11,-39,26,-52","w":621},"\u2039":{"d":"148,-286r131,161r-71,3r-152,-167r152,-162r71,3","w":319},"\u203a":{"d":"118,-122r-71,-3r130,-161r-130,-162r71,-3r153,162","w":317},"\u2122":{"d":"157,-315r-64,0r29,-275r-95,0r5,-52r248,0r-5,52r-89,0xm559,-514r-97,199r-54,0r-56,-201r-21,201r-60,0r34,-329r78,0r65,229r113,-229r75,0r-34,329r-64,0","w":641}}});
